{
  "generation": 104,
  "brains": [
    {
      "biases": [
        {
          "array": [
            [-0.07738387584686279],
            [0.4225127696990967],
            [-0.3688441514968872],
            [-0.4862138032913208],
            [-0.6808944940567017]
          ],
          "column": 1,
          "row": 5
        },
        {
          "array": [
            [-0.6941143274307251],
            [-0.733013391494751]
          ],
          "column": 1,
          "row": 2
        }
      ],
      "weights": [
        {
          "array": [
            [
              0.9982280731201172,
              0.6860512495040894,
              -0.647476315498352,
              -0.21922755241394043
            ],
            [
              -0.9657622575759888,
              0.6199625730514526,
              0.6063287258148193,
              -0.5263580083847046
            ],
            [
              -0.7486019134521484,
              -0.33920395374298096,
              0.9224936962127686,
              -0.3894895315170288
            ],
            [
              0.4500548839569092,
              0.03342306613922119,
              -0.8535470962524414,
              0.5282561779022217
            ],
            [
              -0.6902737617492676,
              -0.22998082637786865,
              0.9067658185958862,
              0.4329512119293213
            ]
          ],
          "column": 4,
          "row": 5
        },
        {
          "array": [
            [
              -0.5621311664581299,
              -0.3096952438354492,
              -0.7588624954223633,
              0.8852901458740234,
              -0.047202348709106445
            ],
            [
              -0.9017146825790405,
              0.8249059915542603,
              -0.966468095779419,
              -0.03495919704437256,
              0.3702758550643921
            ]
          ],
          "column": 5,
          "row": 2
        }
      ]
    },
    {
      "biases": [
        {
          "array": [
            [-0.07738387584686279],
            [0.4225127696990967],
            [-0.3688441514968872],
            [-0.4862138032913208],
            [-0.6808944940567017]
          ],
          "column": 1,
          "row": 5
        },
        {
          "array": [
            [-0.6941143274307251],
            [-0.733013391494751]
          ],
          "column": 1,
          "row": 2
        }
      ],
      "weights": [
        {
          "array": [
            [
              0.9982280731201172,
              0.6860512495040894,
              -0.647476315498352,
              -0.21922755241394043
            ],
            [
              -0.9657622575759888,
              0.6199625730514526,
              0.6063287258148193,
              -0.5263580083847046
            ],
            [
              -0.7486019134521484,
              -0.33920395374298096,
              0.9224936962127686,
              -0.3894895315170288
            ],
            [
              0.4500548839569092,
              0.03342306613922119,
              -0.8535470962524414,
              0.5282561779022217
            ],
            [
              -0.6902737617492676,
              -0.22998082637786865,
              0.9067658185958862,
              0.4329512119293213
            ]
          ],
          "column": 4,
          "row": 5
        },
        {
          "array": [
            [
              -0.5621311664581299,
              -0.3096952438354492,
              -0.7588624954223633,
              0.8852901458740234,
              -0.047202348709106445
            ],
            [
              -0.9017146825790405,
              0.8249059915542603,
              -0.966468095779419,
              -0.03495919704437256,
              0.3702758550643921
            ]
          ],
          "column": 5,
          "row": 2
        }
      ]
    },
    {
      "biases": [
        {
          "array": [
            [-0.07738387584686279],
            [0.4225127696990967],
            [-0.3688441514968872],
            [-0.4862138032913208],
            [-0.6808944940567017]
          ],
          "column": 1,
          "row": 5
        },
        {
          "array": [
            [-0.6941143274307251],
            [-0.733013391494751]
          ],
          "column": 1,
          "row": 2
        }
      ],
      "weights": [
        {
          "array": [
            [
              0.9982280731201172,
              0.6860512495040894,
              -0.647476315498352,
              -0.21922755241394043
            ],
            [
              -0.9657622575759888,
              0.6199625730514526,
              0.6063287258148193,
              -0.5263580083847046
            ],
            [
              -0.7486019134521484,
              -0.33920395374298096,
              0.9224936962127686,
              -0.3894895315170288
            ],
            [
              0.4500548839569092,
              0.03342306613922119,
              -0.8535470962524414,
              0.5282561779022217
            ],
            [
              -0.6902737617492676,
              -0.22998082637786865,
              0.9067658185958862,
              0.4329512119293213
            ]
          ],
          "column": 4,
          "row": 5
        },
        {
          "array": [
            [
              -0.5621311664581299,
              -0.3096952438354492,
              -0.7588624954223633,
              0.8852901458740234,
              -0.047202348709106445
            ],
            [
              -0.9017146825790405,
              0.8249059915542603,
              -0.966468095779419,
              -0.03495919704437256,
              0.3702758550643921
            ]
          ],
          "column": 5,
          "row": 2
        }
      ]
    },
    {
      "biases": [
        {
          "array": [
            [-0.07738387584686279],
            [0.4225127696990967],
            [-0.3688441514968872],
            [-0.4862138032913208],
            [-0.6808944940567017]
          ],
          "column": 1,
          "row": 5
        },
        {
          "array": [
            [-0.6941143274307251],
            [-0.733013391494751]
          ],
          "column": 1,
          "row": 2
        }
      ],
      "weights": [
        {
          "array": [
            [
              0.9982280731201172,
              0.6860512495040894,
              -0.647476315498352,
              -0.21922755241394043
            ],
            [
              -0.9657622575759888,
              0.6199625730514526,
              0.6063287258148193,
              -0.5263580083847046
            ],
            [
              -0.7486019134521484,
              -0.33920395374298096,
              0.9224936962127686,
              -0.3894895315170288
            ],
            [
              0.4500548839569092,
              0.03342306613922119,
              -0.8535470962524414,
              0.5282561779022217
            ],
            [
              -0.6902737617492676,
              -0.22998082637786865,
              0.9067658185958862,
              0.4329512119293213
            ]
          ],
          "column": 4,
          "row": 5
        },
        {
          "array": [
            [
              -0.5621311664581299,
              -0.3096952438354492,
              -0.7588624954223633,
              0.8852901458740234,
              -0.047202348709106445
            ],
            [
              -0.9017146825790405,
              0.8249059915542603,
              -0.966468095779419,
              -0.03495919704437256,
              0.3702758550643921
            ]
          ],
          "column": 5,
          "row": 2
        }
      ]
    },
    {
      "biases": [
        {
          "array": [
            [-0.07738387584686279],
            [0.4225127696990967],
            [-0.3688441514968872],
            [-0.4862138032913208],
            [-0.6808944940567017]
          ],
          "column": 1,
          "row": 5
        },
        {
          "array": [
            [-0.6941143274307251],
            [-0.733013391494751]
          ],
          "column": 1,
          "row": 2
        }
      ],
      "weights": [
        {
          "array": [
            [
              0.9982280731201172,
              0.6860512495040894,
              -0.647476315498352,
              -0.21922755241394043
            ],
            [
              -0.9657622575759888,
              0.6199625730514526,
              0.6063287258148193,
              -0.5263580083847046
            ],
            [
              -0.7486019134521484,
              -0.33920395374298096,
              0.9224936962127686,
              -0.3894895315170288
            ],
            [
              0.4500548839569092,
              0.03342306613922119,
              -0.8535470962524414,
              0.5282561779022217
            ],
            [
              -0.6902737617492676,
              -0.22998082637786865,
              0.9067658185958862,
              0.4329512119293213
            ]
          ],
          "column": 4,
          "row": 5
        },
        {
          "array": [
            [
              -0.5621311664581299,
              -0.3096952438354492,
              -0.7588624954223633,
              0.8852901458740234,
              -0.047202348709106445
            ],
            [
              -0.9017146825790405,
              0.8249059915542603,
              -0.966468095779419,
              -0.03495919704437256,
              0.3702758550643921
            ]
          ],
          "column": 5,
          "row": 2
        }
      ]
    },
    {
      "biases": [
        {
          "array": [
            [-0.07738387584686279],
            [0.4225127696990967],
            [-0.3688441514968872],
            [-0.4862138032913208],
            [-0.6808944940567017]
          ],
          "column": 1,
          "row": 5
        },
        {
          "array": [
            [-0.6941143274307251],
            [-0.733013391494751]
          ],
          "column": 1,
          "row": 2
        }
      ],
      "weights": [
        {
          "array": [
            [
              0.9982280731201172,
              0.6860512495040894,
              -0.647476315498352,
              -0.21922755241394043
            ],
            [
              -0.9657622575759888,
              0.6199625730514526,
              0.6063287258148193,
              0.10253942012786865
            ],
            [
              -0.7486019134521484,
              -0.33920395374298096,
              0.9224936962127686,
              -0.3894895315170288
            ],
            [
              0.4500548839569092,
              0.03342306613922119,
              -0.8535470962524414,
              0.5282561779022217
            ],
            [
              -0.6902737617492676,
              -0.22998082637786865,
              0.9067658185958862,
              0.4329512119293213
            ]
          ],
          "column": 4,
          "row": 5
        },
        {
          "array": [
            [
              -0.5621311664581299,
              -0.3096952438354492,
              -0.7588624954223633,
              0.8852901458740234,
              -0.047202348709106445
            ],
            [
              -0.9017146825790405,
              0.8249059915542603,
              -0.966468095779419,
              -0.03495919704437256,
              0.3702758550643921
            ]
          ],
          "column": 5,
          "row": 2
        }
      ]
    },
    {
      "biases": [
        {
          "array": [
            [-0.07738387584686279],
            [0.4225127696990967],
            [-0.3688441514968872],
            [-0.4862138032913208],
            [-0.6808944940567017]
          ],
          "column": 1,
          "row": 5
        },
        {
          "array": [
            [-0.6941143274307251],
            [-0.733013391494751]
          ],
          "column": 1,
          "row": 2
        }
      ],
      "weights": [
        {
          "array": [
            [
              0.9982280731201172,
              0.6860512495040894,
              -0.647476315498352,
              -0.21922755241394043
            ],
            [
              -0.9657622575759888,
              0.6199625730514526,
              0.6063287258148193,
              -0.5263580083847046
            ],
            [
              -0.7486019134521484,
              -0.33920395374298096,
              0.9224936962127686,
              -0.3894895315170288
            ],
            [
              0.4500548839569092,
              0.03342306613922119,
              -0.8535470962524414,
              0.5282561779022217
            ],
            [
              -0.6902737617492676,
              -0.22998082637786865,
              0.9067658185958862,
              0.4329512119293213
            ]
          ],
          "column": 4,
          "row": 5
        },
        {
          "array": [
            [
              -0.5621311664581299,
              -0.3096952438354492,
              -0.7588624954223633,
              0.8852901458740234,
              -0.047202348709106445
            ],
            [
              -0.9017146825790405,
              0.8249059915542603,
              -0.966468095779419,
              -0.03495919704437256,
              0.3702758550643921
            ]
          ],
          "column": 5,
          "row": 2
        }
      ]
    },
    {
      "biases": [
        {
          "array": [
            [-0.07738387584686279],
            [0.4225127696990967],
            [-0.3688441514968872],
            [-0.4862138032913208],
            [-0.6808944940567017]
          ],
          "column": 1,
          "row": 5
        },
        {
          "array": [
            [-0.6941143274307251],
            [-0.733013391494751]
          ],
          "column": 1,
          "row": 2
        }
      ],
      "weights": [
        {
          "array": [
            [
              0.9982280731201172,
              0.6860512495040894,
              -0.647476315498352,
              -0.21922755241394043
            ],
            [
              -0.9657622575759888,
              0.6199625730514526,
              0.6063287258148193,
              -0.5263580083847046
            ],
            [
              -0.7486019134521484,
              -0.33920395374298096,
              0.9224936962127686,
              -0.3894895315170288
            ],
            [
              0.4500548839569092,
              0.03342306613922119,
              -0.8535470962524414,
              0.5282561779022217
            ],
            [
              -0.6902737617492676,
              -0.22998082637786865,
              0.9067658185958862,
              0.4329512119293213
            ]
          ],
          "column": 4,
          "row": 5
        },
        {
          "array": [
            [
              -0.5621311664581299,
              -0.3096952438354492,
              -0.7588624954223633,
              0.8852901458740234,
              -0.047202348709106445
            ],
            [
              -0.9017146825790405,
              0.8249059915542603,
              -0.966468095779419,
              -0.03495919704437256,
              0.3702758550643921
            ]
          ],
          "column": 5,
          "row": 2
        }
      ]
    },
    {
      "biases": [
        {
          "array": [
            [-0.07738387584686279],
            [0.4225127696990967],
            [-0.3688441514968872],
            [-0.4862138032913208],
            [-0.6808944940567017]
          ],
          "column": 1,
          "row": 5
        },
        {
          "array": [
            [-0.6941143274307251],
            [-0.733013391494751]
          ],
          "column": 1,
          "row": 2
        }
      ],
      "weights": [
        {
          "array": [
            [
              0.9982280731201172,
              0.6860512495040894,
              -0.647476315498352,
              -0.21922755241394043
            ],
            [
              -0.9657622575759888,
              0.6199625730514526,
              0.6063287258148193,
              -0.5263580083847046
            ],
            [
              -0.7486019134521484,
              -0.33920395374298096,
              0.9224936962127686,
              -0.3894895315170288
            ],
            [
              0.4500548839569092,
              0.03342306613922119,
              -0.8535470962524414,
              0.5282561779022217
            ],
            [
              -0.6902737617492676,
              -0.22998082637786865,
              0.9067658185958862,
              0.4329512119293213
            ]
          ],
          "column": 4,
          "row": 5
        },
        {
          "array": [
            [
              -0.5621311664581299,
              -0.3096952438354492,
              -0.7588624954223633,
              0.8852901458740234,
              -0.047202348709106445
            ],
            [
              -0.9017146825790405,
              0.8249059915542603,
              -0.966468095779419,
              -0.03495919704437256,
              0.3702758550643921
            ]
          ],
          "column": 5,
          "row": 2
        }
      ]
    },
    {
      "biases": [
        {
          "array": [
            [-0.07738387584686279],
            [0.4225127696990967],
            [-0.3688441514968872],
            [-0.4862138032913208],
            [-0.6808944940567017]
          ],
          "column": 1,
          "row": 5
        },
        {
          "array": [
            [-0.6941143274307251],
            [-0.733013391494751]
          ],
          "column": 1,
          "row": 2
        }
      ],
      "weights": [
        {
          "array": [
            [
              0.9982280731201172,
              0.6860512495040894,
              -0.647476315498352,
              -0.21922755241394043
            ],
            [
              -0.9657622575759888,
              0.6199625730514526,
              0.6063287258148193,
              -0.5263580083847046
            ],
            [
              -0.7486019134521484,
              -0.33920395374298096,
              0.9224936962127686,
              -0.3894895315170288
            ],
            [
              0.4500548839569092,
              0.03342306613922119,
              -0.8535470962524414,
              0.5282561779022217
            ],
            [
              -0.6902737617492676,
              -0.22998082637786865,
              0.9067658185958862,
              0.4329512119293213
            ]
          ],
          "column": 4,
          "row": 5
        },
        {
          "array": [
            [
              -0.5621311664581299,
              -0.3096952438354492,
              -0.7588624954223633,
              0.8852901458740234,
              -0.047202348709106445
            ],
            [
              -0.9017146825790405,
              0.8249059915542603,
              -0.966468095779419,
              -0.03495919704437256,
              0.3702758550643921
            ]
          ],
          "column": 5,
          "row": 2
        }
      ]
    },
    {
      "biases": [
        {
          "array": [
            [-0.07738387584686279],
            [0.4225127696990967],
            [-0.3688441514968872],
            [-0.4862138032913208],
            [-0.6808944940567017]
          ],
          "column": 1,
          "row": 5
        },
        {
          "array": [
            [-0.6941143274307251],
            [-0.733013391494751]
          ],
          "column": 1,
          "row": 2
        }
      ],
      "weights": [
        {
          "array": [
            [
              0.9982280731201172,
              0.6860512495040894,
              -0.647476315498352,
              -0.21922755241394043
            ],
            [
              -0.9657622575759888,
              0.6199625730514526,
              0.6063287258148193,
              -0.5263580083847046
            ],
            [
              -0.7486019134521484,
              -0.33920395374298096,
              0.9224936962127686,
              -0.3894895315170288
            ],
            [
              0.4500548839569092,
              0.03342306613922119,
              -0.8535470962524414,
              0.5282561779022217
            ],
            [
              -0.6902737617492676,
              -0.22998082637786865,
              0.9067658185958862,
              0.4329512119293213
            ]
          ],
          "column": 4,
          "row": 5
        },
        {
          "array": [
            [
              -0.5621311664581299,
              -0.3096952438354492,
              -0.7588624954223633,
              0.8852901458740234,
              -0.047202348709106445
            ],
            [
              -0.9017146825790405,
              0.8249059915542603,
              -0.966468095779419,
              -0.03495919704437256,
              0.3702758550643921
            ]
          ],
          "column": 5,
          "row": 2
        }
      ]
    },
    {
      "biases": [
        {
          "array": [
            [-0.07738387584686279],
            [0.4225127696990967],
            [-0.3688441514968872],
            [-0.4862138032913208],
            [-0.6808944940567017]
          ],
          "column": 1,
          "row": 5
        },
        {
          "array": [
            [-0.6941143274307251],
            [-0.733013391494751]
          ],
          "column": 1,
          "row": 2
        }
      ],
      "weights": [
        {
          "array": [
            [
              0.9982280731201172,
              0.6860512495040894,
              -0.647476315498352,
              -0.21922755241394043
            ],
            [
              -0.9657622575759888,
              0.6199625730514526,
              0.6063287258148193,
              -0.5263580083847046
            ],
            [
              -0.7486019134521484,
              -0.33920395374298096,
              0.9224936962127686,
              -0.3894895315170288
            ],
            [
              0.4500548839569092,
              0.03342306613922119,
              -0.8535470962524414,
              0.5282561779022217
            ],
            [
              -0.6902737617492676,
              -0.22998082637786865,
              0.9067658185958862,
              0.4329512119293213
            ]
          ],
          "column": 4,
          "row": 5
        },
        {
          "array": [
            [
              -0.5621311664581299,
              -0.3096952438354492,
              -0.7588624954223633,
              0.8852901458740234,
              -0.047202348709106445
            ],
            [
              -0.9017146825790405,
              0.8249059915542603,
              -0.966468095779419,
              -0.03495919704437256,
              0.3702758550643921
            ]
          ],
          "column": 5,
          "row": 2
        }
      ]
    },
    {
      "biases": [
        {
          "array": [
            [-0.07738387584686279],
            [0.4225127696990967],
            [-0.3688441514968872],
            [-0.4862138032913208],
            [-0.6808944940567017]
          ],
          "column": 1,
          "row": 5
        },
        {
          "array": [
            [-0.6941143274307251],
            [-0.733013391494751]
          ],
          "column": 1,
          "row": 2
        }
      ],
      "weights": [
        {
          "array": [
            [
              0.9982280731201172,
              0.6860512495040894,
              -0.647476315498352,
              -0.21922755241394043
            ],
            [
              -0.9657622575759888,
              0.6199625730514526,
              0.6063287258148193,
              -0.5263580083847046
            ],
            [
              -0.7486019134521484,
              -0.33920395374298096,
              0.9224936962127686,
              -0.3894895315170288
            ],
            [
              0.4500548839569092,
              0.03342306613922119,
              -0.8535470962524414,
              0.5282561779022217
            ],
            [
              -0.6902737617492676,
              -0.22998082637786865,
              0.9067658185958862,
              0.4329512119293213
            ]
          ],
          "column": 4,
          "row": 5
        },
        {
          "array": [
            [
              -0.5621311664581299,
              -0.3096952438354492,
              -0.7588624954223633,
              0.8852901458740234,
              -0.047202348709106445
            ],
            [
              -0.9017146825790405,
              0.8249059915542603,
              -0.966468095779419,
              -0.03495919704437256,
              0.3702758550643921
            ]
          ],
          "column": 5,
          "row": 2
        }
      ]
    },
    {
      "biases": [
        {
          "array": [
            [-0.07738387584686279],
            [0.4225127696990967],
            [-0.3688441514968872],
            [-0.4862138032913208],
            [-0.6808944940567017]
          ],
          "column": 1,
          "row": 5
        },
        {
          "array": [
            [-0.6941143274307251],
            [-0.733013391494751]
          ],
          "column": 1,
          "row": 2
        }
      ],
      "weights": [
        {
          "array": [
            [
              0.9982280731201172,
              0.6860512495040894,
              -0.647476315498352,
              -0.21922755241394043
            ],
            [
              -0.9657622575759888,
              0.6199625730514526,
              0.6063287258148193,
              -0.5263580083847046
            ],
            [
              -0.7486019134521484,
              -0.33920395374298096,
              0.9224936962127686,
              -0.3894895315170288
            ],
            [
              0.4500548839569092,
              0.03342306613922119,
              -0.8535470962524414,
              0.5282561779022217
            ],
            [
              -0.6902737617492676,
              -0.22998082637786865,
              0.9067658185958862,
              0.4329512119293213
            ]
          ],
          "column": 4,
          "row": 5
        },
        {
          "array": [
            [
              -0.5621311664581299,
              -0.3096952438354492,
              -0.7588624954223633,
              0.8852901458740234,
              -0.047202348709106445
            ],
            [
              -0.9017146825790405,
              0.8249059915542603,
              -0.966468095779419,
              -0.03495919704437256,
              0.3702758550643921
            ]
          ],
          "column": 5,
          "row": 2
        }
      ]
    },
    {
      "biases": [
        {
          "array": [
            [-0.07738387584686279],
            [0.4225127696990967],
            [-0.3688441514968872],
            [-0.4862138032913208],
            [-0.6808944940567017]
          ],
          "column": 1,
          "row": 5
        },
        {
          "array": [
            [-0.6941143274307251],
            [-0.733013391494751]
          ],
          "column": 1,
          "row": 2
        }
      ],
      "weights": [
        {
          "array": [
            [
              0.9982280731201172,
              0.6860512495040894,
              -0.647476315498352,
              -0.21922755241394043
            ],
            [
              -0.9657622575759888,
              0.6199625730514526,
              0.6063287258148193,
              -0.5263580083847046
            ],
            [
              -0.7486019134521484,
              -0.33920395374298096,
              0.9224936962127686,
              -0.3894895315170288
            ],
            [
              0.4500548839569092,
              0.03342306613922119,
              -0.8535470962524414,
              0.5282561779022217
            ],
            [
              -0.6902737617492676,
              -0.22998082637786865,
              0.9067658185958862,
              0.4329512119293213
            ]
          ],
          "column": 4,
          "row": 5
        },
        {
          "array": [
            [
              -0.5621311664581299,
              -0.3096952438354492,
              -0.7588624954223633,
              0.8852901458740234,
              -0.047202348709106445
            ],
            [
              -0.9017146825790405,
              0.8249059915542603,
              -0.966468095779419,
              -0.03495919704437256,
              0.3702758550643921
            ]
          ],
          "column": 5,
          "row": 2
        }
      ]
    },
    {
      "biases": [
        {
          "array": [
            [-0.07738387584686279],
            [0.4225127696990967],
            [-0.3688441514968872],
            [-0.4862138032913208],
            [-0.6808944940567017]
          ],
          "column": 1,
          "row": 5
        },
        {
          "array": [
            [-0.6941143274307251],
            [-0.733013391494751]
          ],
          "column": 1,
          "row": 2
        }
      ],
      "weights": [
        {
          "array": [
            [
              0.9982280731201172,
              0.6860512495040894,
              -0.647476315498352,
              -0.21922755241394043
            ],
            [
              -0.9657622575759888,
              0.6199625730514526,
              0.6063287258148193,
              -0.5263580083847046
            ],
            [
              -0.7486019134521484,
              -0.33920395374298096,
              0.9224936962127686,
              -0.3894895315170288
            ],
            [
              0.4500548839569092,
              0.03342306613922119,
              -0.8535470962524414,
              0.5282561779022217
            ],
            [
              -0.6902737617492676,
              -0.22998082637786865,
              0.9067658185958862,
              0.4329512119293213
            ]
          ],
          "column": 4,
          "row": 5
        },
        {
          "array": [
            [
              -0.5621311664581299,
              -0.3096952438354492,
              -0.7588624954223633,
              0.8852901458740234,
              -0.047202348709106445
            ],
            [
              -0.9017146825790405,
              0.8249059915542603,
              -0.966468095779419,
              -0.03495919704437256,
              0.3702758550643921
            ]
          ],
          "column": 5,
          "row": 2
        }
      ]
    },
    {
      "biases": [
        {
          "array": [
            [-0.07738387584686279],
            [0.4225127696990967],
            [-0.3688441514968872],
            [-0.4862138032913208],
            [-0.6808944940567017]
          ],
          "column": 1,
          "row": 5
        },
        {
          "array": [
            [-0.6941143274307251],
            [-0.733013391494751]
          ],
          "column": 1,
          "row": 2
        }
      ],
      "weights": [
        {
          "array": [
            [
              0.9982280731201172,
              0.6860512495040894,
              -0.647476315498352,
              -0.21922755241394043
            ],
            [
              -0.9657622575759888,
              0.6199625730514526,
              0.6063287258148193,
              -0.5263580083847046
            ],
            [
              -0.7486019134521484,
              -0.33920395374298096,
              0.9224936962127686,
              -0.3894895315170288
            ],
            [
              0.4500548839569092,
              0.03342306613922119,
              -0.8535470962524414,
              0.5282561779022217
            ],
            [
              -0.6902737617492676,
              -0.22998082637786865,
              0.9067658185958862,
              0.4329512119293213
            ]
          ],
          "column": 4,
          "row": 5
        },
        {
          "array": [
            [
              -0.5621311664581299,
              -0.3096952438354492,
              -0.7588624954223633,
              0.8852901458740234,
              -0.047202348709106445
            ],
            [
              -0.9017146825790405,
              0.8249059915542603,
              -0.966468095779419,
              -0.03495919704437256,
              0.3702758550643921
            ]
          ],
          "column": 5,
          "row": 2
        }
      ]
    },
    {
      "biases": [
        {
          "array": [
            [-0.07738387584686279],
            [0.4225127696990967],
            [-0.3688441514968872],
            [-0.4862138032913208],
            [-0.6808944940567017]
          ],
          "column": 1,
          "row": 5
        },
        {
          "array": [
            [-0.6941143274307251],
            [-0.733013391494751]
          ],
          "column": 1,
          "row": 2
        }
      ],
      "weights": [
        {
          "array": [
            [
              0.9982280731201172,
              0.6860512495040894,
              -0.647476315498352,
              -0.21922755241394043
            ],
            [
              -0.9657622575759888,
              0.6199625730514526,
              0.6063287258148193,
              -0.5263580083847046
            ],
            [
              -0.7486019134521484,
              -0.33920395374298096,
              0.9224936962127686,
              -0.3894895315170288
            ],
            [
              0.4500548839569092,
              0.03342306613922119,
              -0.8535470962524414,
              0.5282561779022217
            ],
            [
              -0.6902737617492676,
              -0.22998082637786865,
              0.9067658185958862,
              0.4329512119293213
            ]
          ],
          "column": 4,
          "row": 5
        },
        {
          "array": [
            [
              -0.5621311664581299,
              -0.3096952438354492,
              -0.7588624954223633,
              0.8852901458740234,
              -0.047202348709106445
            ],
            [
              -0.9017146825790405,
              0.8249059915542603,
              -0.966468095779419,
              -0.03495919704437256,
              0.3702758550643921
            ]
          ],
          "column": 5,
          "row": 2
        }
      ]
    },
    {
      "biases": [
        {
          "array": [
            [-0.07738387584686279],
            [0.4225127696990967],
            [-0.3688441514968872],
            [-0.4862138032913208],
            [-0.6808944940567017]
          ],
          "column": 1,
          "row": 5
        },
        {
          "array": [
            [-0.6941143274307251],
            [-0.733013391494751]
          ],
          "column": 1,
          "row": 2
        }
      ],
      "weights": [
        {
          "array": [
            [
              0.9982280731201172,
              0.6860512495040894,
              -0.647476315498352,
              -0.21922755241394043
            ],
            [
              -0.9657622575759888,
              0.6199625730514526,
              0.6063287258148193,
              -0.5263580083847046
            ],
            [
              -0.7486019134521484,
              -0.33920395374298096,
              0.9224936962127686,
              -0.3894895315170288
            ],
            [
              0.4500548839569092,
              0.03342306613922119,
              -0.8535470962524414,
              0.5282561779022217
            ],
            [
              -0.849786639213562,
              -0.22998082637786865,
              0.9067658185958862,
              0.4329512119293213
            ]
          ],
          "column": 4,
          "row": 5
        },
        {
          "array": [
            [
              -0.5621311664581299,
              -0.3096952438354492,
              -0.7588624954223633,
              0.8852901458740234,
              -0.047202348709106445
            ],
            [
              -0.9017146825790405,
              0.8249059915542603,
              -0.966468095779419,
              -0.03495919704437256,
              0.3702758550643921
            ]
          ],
          "column": 5,
          "row": 2
        }
      ]
    },
    {
      "biases": [
        {
          "array": [
            [-0.07738387584686279],
            [0.4225127696990967],
            [-0.3688441514968872],
            [-0.4862138032913208],
            [-0.6808944940567017]
          ],
          "column": 1,
          "row": 5
        },
        {
          "array": [
            [-0.6941143274307251],
            [-0.733013391494751]
          ],
          "column": 1,
          "row": 2
        }
      ],
      "weights": [
        {
          "array": [
            [
              0.9982280731201172,
              0.6860512495040894,
              -0.647476315498352,
              -0.21922755241394043
            ],
            [
              -0.9657622575759888,
              0.6199625730514526,
              0.6063287258148193,
              -0.5263580083847046
            ],
            [
              -0.7486019134521484,
              -0.33920395374298096,
              0.9224936962127686,
              -0.3894895315170288
            ],
            [
              0.4500548839569092,
              0.03342306613922119,
              -0.8535470962524414,
              0.5282561779022217
            ],
            [
              -0.6902737617492676,
              -0.22998082637786865,
              0.9067658185958862,
              0.4329512119293213
            ]
          ],
          "column": 4,
          "row": 5
        },
        {
          "array": [
            [
              -0.5621311664581299,
              -0.3096952438354492,
              -0.7588624954223633,
              0.8852901458740234,
              -0.047202348709106445
            ],
            [
              -0.9017146825790405,
              0.8249059915542603,
              -0.966468095779419,
              -0.03495919704437256,
              0.3702758550643921
            ]
          ],
          "column": 5,
          "row": 2
        }
      ]
    },
    {
      "biases": [
        {
          "array": [
            [-0.07738387584686279],
            [0.4225127696990967],
            [-0.3688441514968872],
            [-0.4862138032913208],
            [-0.6808944940567017]
          ],
          "column": 1,
          "row": 5
        },
        {
          "array": [
            [-0.6941143274307251],
            [-0.733013391494751]
          ],
          "column": 1,
          "row": 2
        }
      ],
      "weights": [
        {
          "array": [
            [
              0.9982280731201172,
              0.6860512495040894,
              -0.647476315498352,
              -0.21922755241394043
            ],
            [
              -0.9657622575759888,
              0.6199625730514526,
              0.6063287258148193,
              -0.5263580083847046
            ],
            [
              -0.7486019134521484,
              -0.33920395374298096,
              0.9224936962127686,
              -0.3894895315170288
            ],
            [
              0.4500548839569092,
              0.03342306613922119,
              -0.8535470962524414,
              -0.21520304679870605
            ],
            [
              -0.6902737617492676,
              -0.22998082637786865,
              0.9067658185958862,
              0.4329512119293213
            ]
          ],
          "column": 4,
          "row": 5
        },
        {
          "array": [
            [
              -0.5621311664581299,
              -0.3096952438354492,
              -0.7588624954223633,
              0.8852901458740234,
              -0.047202348709106445
            ],
            [
              -0.9017146825790405,
              0.8249059915542603,
              -0.966468095779419,
              -0.03495919704437256,
              0.3702758550643921
            ]
          ],
          "column": 5,
          "row": 2
        }
      ]
    },
    {
      "biases": [
        {
          "array": [
            [-0.07738387584686279],
            [0.4225127696990967],
            [-0.3688441514968872],
            [-0.4862138032913208],
            [-0.6808944940567017]
          ],
          "column": 1,
          "row": 5
        },
        {
          "array": [
            [-0.6941143274307251],
            [-0.733013391494751]
          ],
          "column": 1,
          "row": 2
        }
      ],
      "weights": [
        {
          "array": [
            [
              0.9982280731201172,
              0.6860512495040894,
              -0.647476315498352,
              -0.21922755241394043
            ],
            [
              -0.9657622575759888,
              0.6199625730514526,
              0.6063287258148193,
              -0.5263580083847046
            ],
            [
              -0.7486019134521484,
              -0.33920395374298096,
              0.9224936962127686,
              -0.3894895315170288
            ],
            [
              0.4500548839569092,
              0.03342306613922119,
              -0.8535470962524414,
              0.5282561779022217
            ],
            [
              -0.6902737617492676,
              -0.22998082637786865,
              0.9067658185958862,
              0.4329512119293213
            ]
          ],
          "column": 4,
          "row": 5
        },
        {
          "array": [
            [
              -0.5621311664581299,
              -0.3096952438354492,
              -0.7588624954223633,
              0.8852901458740234,
              -0.047202348709106445
            ],
            [
              -0.9017146825790405,
              0.8249059915542603,
              -0.966468095779419,
              -0.03495919704437256,
              0.3702758550643921
            ]
          ],
          "column": 5,
          "row": 2
        }
      ]
    },
    {
      "biases": [
        {
          "array": [
            [-0.07738387584686279],
            [0.4225127696990967],
            [-0.3688441514968872],
            [-0.4862138032913208],
            [-0.6808944940567017]
          ],
          "column": 1,
          "row": 5
        },
        {
          "array": [
            [-0.6941143274307251],
            [-0.733013391494751]
          ],
          "column": 1,
          "row": 2
        }
      ],
      "weights": [
        {
          "array": [
            [
              0.9982280731201172,
              0.6860512495040894,
              -0.647476315498352,
              -0.21922755241394043
            ],
            [
              -0.9657622575759888,
              0.6199625730514526,
              0.6063287258148193,
              -0.5263580083847046
            ],
            [
              -0.7486019134521484,
              -0.33920395374298096,
              0.9224936962127686,
              -0.3894895315170288
            ],
            [
              0.4500548839569092,
              0.03342306613922119,
              -0.8535470962524414,
              0.5282561779022217
            ],
            [
              -0.6902737617492676,
              -0.22998082637786865,
              0.9067658185958862,
              0.4329512119293213
            ]
          ],
          "column": 4,
          "row": 5
        },
        {
          "array": [
            [
              -0.5621311664581299,
              -0.3096952438354492,
              -0.7588624954223633,
              0.8852901458740234,
              -0.047202348709106445
            ],
            [
              -0.9017146825790405,
              0.8249059915542603,
              -0.966468095779419,
              -0.03495919704437256,
              0.3702758550643921
            ]
          ],
          "column": 5,
          "row": 2
        }
      ]
    },
    {
      "biases": [
        {
          "array": [
            [-0.07738387584686279],
            [0.4225127696990967],
            [-0.3688441514968872],
            [-0.4862138032913208],
            [-0.6808944940567017]
          ],
          "column": 1,
          "row": 5
        },
        {
          "array": [
            [-0.6941143274307251],
            [-0.733013391494751]
          ],
          "column": 1,
          "row": 2
        }
      ],
      "weights": [
        {
          "array": [
            [
              0.9982280731201172,
              0.6860512495040894,
              -0.647476315498352,
              -0.21922755241394043
            ],
            [
              -0.9657622575759888,
              0.6199625730514526,
              0.6063287258148193,
              -0.5263580083847046
            ],
            [
              -0.7486019134521484,
              -0.33920395374298096,
              0.9224936962127686,
              -0.3894895315170288
            ],
            [
              0.4500548839569092,
              0.03342306613922119,
              -0.8535470962524414,
              0.5282561779022217
            ],
            [
              -0.6902737617492676,
              -0.22998082637786865,
              0.9067658185958862,
              0.4329512119293213
            ]
          ],
          "column": 4,
          "row": 5
        },
        {
          "array": [
            [
              -0.5621311664581299,
              -0.3096952438354492,
              -0.7588624954223633,
              0.8852901458740234,
              -0.047202348709106445
            ],
            [
              -0.9017146825790405,
              0.8249059915542603,
              -0.966468095779419,
              -0.03495919704437256,
              0.3702758550643921
            ]
          ],
          "column": 5,
          "row": 2
        }
      ]
    },
    {
      "biases": [
        {
          "array": [
            [-0.07738387584686279],
            [0.4225127696990967],
            [-0.3688441514968872],
            [-0.4862138032913208],
            [-0.6808944940567017]
          ],
          "column": 1,
          "row": 5
        },
        {
          "array": [
            [-0.6941143274307251],
            [-0.733013391494751]
          ],
          "column": 1,
          "row": 2
        }
      ],
      "weights": [
        {
          "array": [
            [
              0.9982280731201172,
              0.6860512495040894,
              -0.647476315498352,
              -0.21922755241394043
            ],
            [
              -0.9657622575759888,
              0.6199625730514526,
              0.6063287258148193,
              -0.5263580083847046
            ],
            [
              -0.7486019134521484,
              -0.33920395374298096,
              0.9224936962127686,
              -0.3894895315170288
            ],
            [
              0.4500548839569092,
              0.03342306613922119,
              -0.8535470962524414,
              0.5282561779022217
            ],
            [
              -0.6902737617492676,
              -0.22998082637786865,
              0.9067658185958862,
              0.4329512119293213
            ]
          ],
          "column": 4,
          "row": 5
        },
        {
          "array": [
            [
              -0.5621311664581299,
              -0.3096952438354492,
              -0.7588624954223633,
              0.8852901458740234,
              -0.047202348709106445
            ],
            [
              -0.9017146825790405,
              0.8249059915542603,
              -0.966468095779419,
              -0.03495919704437256,
              0.3702758550643921
            ]
          ],
          "column": 5,
          "row": 2
        }
      ]
    },
    {
      "biases": [
        {
          "array": [
            [-0.07738387584686279],
            [0.4225127696990967],
            [-0.3688441514968872],
            [-0.4862138032913208],
            [-0.6808944940567017]
          ],
          "column": 1,
          "row": 5
        },
        {
          "array": [
            [-0.6941143274307251],
            [-0.733013391494751]
          ],
          "column": 1,
          "row": 2
        }
      ],
      "weights": [
        {
          "array": [
            [
              0.9982280731201172,
              0.6860512495040894,
              -0.647476315498352,
              -0.21922755241394043
            ],
            [
              -0.9657622575759888,
              0.6199625730514526,
              0.6063287258148193,
              -0.5263580083847046
            ],
            [
              -0.7486019134521484,
              -0.33920395374298096,
              0.9224936962127686,
              -0.3894895315170288
            ],
            [
              0.4500548839569092,
              0.03342306613922119,
              -0.8535470962524414,
              0.5282561779022217
            ],
            [
              -0.6902737617492676,
              -0.22998082637786865,
              0.9067658185958862,
              0.4329512119293213
            ]
          ],
          "column": 4,
          "row": 5
        },
        {
          "array": [
            [
              -0.5621311664581299,
              -0.3096952438354492,
              -0.7588624954223633,
              0.8852901458740234,
              -0.047202348709106445
            ],
            [
              -0.9017146825790405,
              0.8249059915542603,
              -0.966468095779419,
              -0.03495919704437256,
              0.3702758550643921
            ]
          ],
          "column": 5,
          "row": 2
        }
      ]
    },
    {
      "biases": [
        {
          "array": [
            [-0.07738387584686279],
            [0.4225127696990967],
            [-0.3688441514968872],
            [-0.4862138032913208],
            [-0.6808944940567017]
          ],
          "column": 1,
          "row": 5
        },
        {
          "array": [
            [-0.6941143274307251],
            [-0.733013391494751]
          ],
          "column": 1,
          "row": 2
        }
      ],
      "weights": [
        {
          "array": [
            [
              0.9982280731201172,
              0.6860512495040894,
              -0.647476315498352,
              -0.21922755241394043
            ],
            [
              -0.9657622575759888,
              0.6199625730514526,
              0.6063287258148193,
              -0.5263580083847046
            ],
            [
              -0.7486019134521484,
              -0.33920395374298096,
              0.9224936962127686,
              -0.3894895315170288
            ],
            [
              0.4500548839569092,
              0.03342306613922119,
              -0.8535470962524414,
              0.5282561779022217
            ],
            [
              -0.6902737617492676,
              -0.22998082637786865,
              0.9067658185958862,
              0.4329512119293213
            ]
          ],
          "column": 4,
          "row": 5
        },
        {
          "array": [
            [
              -0.5621311664581299,
              -0.3096952438354492,
              -0.7588624954223633,
              0.8852901458740234,
              -0.047202348709106445
            ],
            [
              -0.9017146825790405,
              0.8249059915542603,
              -0.966468095779419,
              -0.03495919704437256,
              0.3702758550643921
            ]
          ],
          "column": 5,
          "row": 2
        }
      ]
    },
    {
      "biases": [
        {
          "array": [
            [-0.07738387584686279],
            [0.4225127696990967],
            [-0.3688441514968872],
            [-0.4862138032913208],
            [-0.6808944940567017]
          ],
          "column": 1,
          "row": 5
        },
        {
          "array": [
            [-0.6941143274307251],
            [-0.733013391494751]
          ],
          "column": 1,
          "row": 2
        }
      ],
      "weights": [
        {
          "array": [
            [
              0.9982280731201172,
              0.6860512495040894,
              -0.647476315498352,
              -0.21922755241394043
            ],
            [
              -0.9657622575759888,
              0.6199625730514526,
              0.6063287258148193,
              -0.5263580083847046
            ],
            [
              -0.7486019134521484,
              -0.33920395374298096,
              0.9224936962127686,
              -0.3894895315170288
            ],
            [
              0.4500548839569092,
              0.03342306613922119,
              -0.8535470962524414,
              0.5282561779022217
            ],
            [
              -0.6902737617492676,
              -0.22998082637786865,
              0.9067658185958862,
              0.4329512119293213
            ]
          ],
          "column": 4,
          "row": 5
        },
        {
          "array": [
            [
              -0.5621311664581299,
              -0.3096952438354492,
              -0.7588624954223633,
              0.8852901458740234,
              -0.047202348709106445
            ],
            [
              -0.9017146825790405,
              0.8249059915542603,
              -0.966468095779419,
              -0.03495919704437256,
              0.3702758550643921
            ]
          ],
          "column": 5,
          "row": 2
        }
      ]
    },
    {
      "biases": [
        {
          "array": [
            [-0.07738387584686279],
            [0.4225127696990967],
            [-0.3688441514968872],
            [-0.4862138032913208],
            [-0.6808944940567017]
          ],
          "column": 1,
          "row": 5
        },
        {
          "array": [
            [-0.6941143274307251],
            [-0.733013391494751]
          ],
          "column": 1,
          "row": 2
        }
      ],
      "weights": [
        {
          "array": [
            [
              0.9982280731201172,
              0.6860512495040894,
              -0.647476315498352,
              -0.21922755241394043
            ],
            [
              -0.9657622575759888,
              0.6199625730514526,
              0.6063287258148193,
              -0.5263580083847046
            ],
            [
              -0.7486019134521484,
              -0.33920395374298096,
              0.9224936962127686,
              -0.3894895315170288
            ],
            [
              0.4500548839569092,
              0.03342306613922119,
              -0.8535470962524414,
              0.5282561779022217
            ],
            [
              -0.6902737617492676,
              -0.22998082637786865,
              0.9067658185958862,
              0.4329512119293213
            ]
          ],
          "column": 4,
          "row": 5
        },
        {
          "array": [
            [
              -0.5621311664581299,
              -0.3096952438354492,
              -0.7588624954223633,
              0.8852901458740234,
              -0.047202348709106445
            ],
            [
              -0.9017146825790405,
              0.8249059915542603,
              -0.966468095779419,
              -0.03495919704437256,
              0.3702758550643921
            ]
          ],
          "column": 5,
          "row": 2
        }
      ]
    },
    {
      "biases": [
        {
          "array": [
            [-0.07738387584686279],
            [0.4225127696990967],
            [-0.3688441514968872],
            [-0.4862138032913208],
            [-0.6808944940567017]
          ],
          "column": 1,
          "row": 5
        },
        {
          "array": [
            [-0.6941143274307251],
            [-0.733013391494751]
          ],
          "column": 1,
          "row": 2
        }
      ],
      "weights": [
        {
          "array": [
            [
              0.9982280731201172,
              0.6860512495040894,
              -0.647476315498352,
              -0.21922755241394043
            ],
            [
              -0.9657622575759888,
              0.6199625730514526,
              0.6063287258148193,
              -0.5263580083847046
            ],
            [
              -0.7486019134521484,
              -0.33920395374298096,
              0.9224936962127686,
              -0.3894895315170288
            ],
            [
              0.4500548839569092,
              0.03342306613922119,
              -0.8535470962524414,
              0.5282561779022217
            ],
            [
              -0.6902737617492676,
              -0.22998082637786865,
              0.9067658185958862,
              0.4329512119293213
            ]
          ],
          "column": 4,
          "row": 5
        },
        {
          "array": [
            [
              -0.5621311664581299,
              -0.3096952438354492,
              -0.7588624954223633,
              0.8852901458740234,
              -0.047202348709106445
            ],
            [
              -0.9017146825790405,
              0.8249059915542603,
              -0.966468095779419,
              -0.03495919704437256,
              0.3702758550643921
            ]
          ],
          "column": 5,
          "row": 2
        }
      ]
    },
    {
      "biases": [
        {
          "array": [
            [-0.07738387584686279],
            [0.4225127696990967],
            [-0.3688441514968872],
            [-0.4862138032913208],
            [-0.6808944940567017]
          ],
          "column": 1,
          "row": 5
        },
        {
          "array": [
            [-0.6941143274307251],
            [-0.733013391494751]
          ],
          "column": 1,
          "row": 2
        }
      ],
      "weights": [
        {
          "array": [
            [
              0.9982280731201172,
              0.6860512495040894,
              -0.647476315498352,
              -0.21922755241394043
            ],
            [
              -0.9657622575759888,
              0.6199625730514526,
              0.6063287258148193,
              -0.5263580083847046
            ],
            [
              -0.7486019134521484,
              -0.33920395374298096,
              0.9224936962127686,
              -0.3894895315170288
            ],
            [
              0.4500548839569092,
              0.03342306613922119,
              -0.8535470962524414,
              0.5282561779022217
            ],
            [
              -0.6902737617492676,
              -0.22998082637786865,
              0.9067658185958862,
              0.4329512119293213
            ]
          ],
          "column": 4,
          "row": 5
        },
        {
          "array": [
            [
              -0.5621311664581299,
              -0.3096952438354492,
              -0.7588624954223633,
              0.8852901458740234,
              -0.047202348709106445
            ],
            [
              -0.9017146825790405,
              0.8249059915542603,
              -0.966468095779419,
              -0.03495919704437256,
              0.3702758550643921
            ]
          ],
          "column": 5,
          "row": 2
        }
      ]
    },
    {
      "biases": [
        {
          "array": [
            [-0.07738387584686279],
            [0.4225127696990967],
            [-0.3688441514968872],
            [-0.4862138032913208],
            [-0.6808944940567017]
          ],
          "column": 1,
          "row": 5
        },
        {
          "array": [
            [-0.6941143274307251],
            [-0.733013391494751]
          ],
          "column": 1,
          "row": 2
        }
      ],
      "weights": [
        {
          "array": [
            [
              0.9982280731201172,
              0.6860512495040894,
              -0.647476315498352,
              -0.21922755241394043
            ],
            [
              -0.9657622575759888,
              0.6199625730514526,
              0.6063287258148193,
              -0.5263580083847046
            ],
            [
              -0.7486019134521484,
              -0.33920395374298096,
              0.9224936962127686,
              -0.3894895315170288
            ],
            [
              0.4500548839569092,
              0.03342306613922119,
              -0.8535470962524414,
              0.5282561779022217
            ],
            [
              -0.6902737617492676,
              -0.22998082637786865,
              0.9067658185958862,
              0.4329512119293213
            ]
          ],
          "column": 4,
          "row": 5
        },
        {
          "array": [
            [
              -0.5621311664581299,
              -0.3096952438354492,
              -0.7588624954223633,
              0.8852901458740234,
              -0.047202348709106445
            ],
            [
              -0.9017146825790405,
              0.8249059915542603,
              -0.966468095779419,
              -0.03495919704437256,
              0.3702758550643921
            ]
          ],
          "column": 5,
          "row": 2
        }
      ]
    },
    {
      "biases": [
        {
          "array": [
            [-0.07738387584686279],
            [0.4225127696990967],
            [-0.3688441514968872],
            [-0.4862138032913208],
            [-0.6808944940567017]
          ],
          "column": 1,
          "row": 5
        },
        {
          "array": [
            [-0.6941143274307251],
            [-0.733013391494751]
          ],
          "column": 1,
          "row": 2
        }
      ],
      "weights": [
        {
          "array": [
            [
              0.9982280731201172,
              0.6860512495040894,
              -0.647476315498352,
              -0.21922755241394043
            ],
            [
              -0.9657622575759888,
              0.6199625730514526,
              0.6063287258148193,
              -0.5263580083847046
            ],
            [
              -0.7486019134521484,
              -0.33920395374298096,
              0.9224936962127686,
              -0.3894895315170288
            ],
            [
              0.4500548839569092,
              0.03342306613922119,
              -0.8535470962524414,
              0.5282561779022217
            ],
            [
              -0.6902737617492676,
              -0.22998082637786865,
              0.9067658185958862,
              0.4329512119293213
            ]
          ],
          "column": 4,
          "row": 5
        },
        {
          "array": [
            [
              -0.5621311664581299,
              -0.3096952438354492,
              -0.7588624954223633,
              0.8852901458740234,
              -0.047202348709106445
            ],
            [
              -0.9017146825790405,
              0.8249059915542603,
              -0.966468095779419,
              -0.03495919704437256,
              0.3702758550643921
            ]
          ],
          "column": 5,
          "row": 2
        }
      ]
    },
    {
      "biases": [
        {
          "array": [
            [-0.07738387584686279],
            [0.4225127696990967],
            [-0.3688441514968872],
            [-0.4862138032913208],
            [-0.6808944940567017]
          ],
          "column": 1,
          "row": 5
        },
        {
          "array": [
            [-0.6941143274307251],
            [-0.733013391494751]
          ],
          "column": 1,
          "row": 2
        }
      ],
      "weights": [
        {
          "array": [
            [
              0.9982280731201172,
              0.6860512495040894,
              -0.647476315498352,
              -0.21922755241394043
            ],
            [
              -0.9657622575759888,
              0.6199625730514526,
              0.6063287258148193,
              -0.5263580083847046
            ],
            [
              -0.7486019134521484,
              -0.33920395374298096,
              0.9224936962127686,
              -0.3894895315170288
            ],
            [
              0.4500548839569092,
              0.03342306613922119,
              -0.8535470962524414,
              0.5282561779022217
            ],
            [
              -0.6902737617492676,
              -0.22998082637786865,
              0.9067658185958862,
              0.4329512119293213
            ]
          ],
          "column": 4,
          "row": 5
        },
        {
          "array": [
            [
              -0.5621311664581299,
              -0.3096952438354492,
              -0.7588624954223633,
              0.8852901458740234,
              -0.047202348709106445
            ],
            [
              -0.9017146825790405,
              0.8249059915542603,
              -0.966468095779419,
              -0.03495919704437256,
              0.3702758550643921
            ]
          ],
          "column": 5,
          "row": 2
        }
      ]
    },
    {
      "biases": [
        {
          "array": [
            [-0.07738387584686279],
            [0.4225127696990967],
            [-0.3688441514968872],
            [-0.4862138032913208],
            [-0.6808944940567017]
          ],
          "column": 1,
          "row": 5
        },
        {
          "array": [
            [-0.6941143274307251],
            [-0.733013391494751]
          ],
          "column": 1,
          "row": 2
        }
      ],
      "weights": [
        {
          "array": [
            [
              0.9982280731201172,
              0.6860512495040894,
              -0.647476315498352,
              -0.21922755241394043
            ],
            [
              -0.9657622575759888,
              0.6199625730514526,
              0.6063287258148193,
              -0.5263580083847046
            ],
            [
              -0.7486019134521484,
              -0.33920395374298096,
              0.9224936962127686,
              -0.3894895315170288
            ],
            [
              0.4500548839569092,
              0.03342306613922119,
              -0.8535470962524414,
              0.5282561779022217
            ],
            [
              -0.6902737617492676,
              -0.22998082637786865,
              0.9067658185958862,
              0.4329512119293213
            ]
          ],
          "column": 4,
          "row": 5
        },
        {
          "array": [
            [
              -0.5621311664581299,
              -0.3096952438354492,
              -0.7588624954223633,
              0.8852901458740234,
              -0.047202348709106445
            ],
            [
              -0.9017146825790405,
              0.8249059915542603,
              -0.966468095779419,
              -0.03495919704437256,
              0.3702758550643921
            ]
          ],
          "column": 5,
          "row": 2
        }
      ]
    },
    {
      "biases": [
        {
          "array": [
            [-0.07738387584686279],
            [0.4225127696990967],
            [-0.3688441514968872],
            [-0.4862138032913208],
            [-0.6808944940567017]
          ],
          "column": 1,
          "row": 5
        },
        {
          "array": [
            [-0.6941143274307251],
            [-0.733013391494751]
          ],
          "column": 1,
          "row": 2
        }
      ],
      "weights": [
        {
          "array": [
            [
              0.9982280731201172,
              0.6860512495040894,
              -0.647476315498352,
              -0.21922755241394043
            ],
            [
              -0.9657622575759888,
              0.6199625730514526,
              0.6063287258148193,
              -0.5263580083847046
            ],
            [
              -0.7486019134521484,
              -0.33920395374298096,
              0.9224936962127686,
              -0.3894895315170288
            ],
            [
              0.4500548839569092,
              0.03342306613922119,
              -0.8535470962524414,
              0.5282561779022217
            ],
            [
              -0.6902737617492676,
              -0.22998082637786865,
              0.9067658185958862,
              0.4329512119293213
            ]
          ],
          "column": 4,
          "row": 5
        },
        {
          "array": [
            [
              -0.5621311664581299,
              -0.3096952438354492,
              -0.7588624954223633,
              0.8852901458740234,
              -0.047202348709106445
            ],
            [
              -0.9017146825790405,
              0.8249059915542603,
              -0.966468095779419,
              -0.03495919704437256,
              0.3702758550643921
            ]
          ],
          "column": 5,
          "row": 2
        }
      ]
    },
    {
      "biases": [
        {
          "array": [
            [-0.07738387584686279],
            [0.4225127696990967],
            [-0.3688441514968872],
            [-0.4862138032913208],
            [-0.6808944940567017]
          ],
          "column": 1,
          "row": 5
        },
        {
          "array": [
            [-0.6941143274307251],
            [-0.733013391494751]
          ],
          "column": 1,
          "row": 2
        }
      ],
      "weights": [
        {
          "array": [
            [
              0.9982280731201172,
              0.6860512495040894,
              -0.647476315498352,
              -0.21922755241394043
            ],
            [
              -0.9657622575759888,
              0.6199625730514526,
              0.6063287258148193,
              -0.5263580083847046
            ],
            [
              -0.7486019134521484,
              -0.33920395374298096,
              0.9224936962127686,
              -0.3894895315170288
            ],
            [
              0.4500548839569092,
              0.03342306613922119,
              -0.8535470962524414,
              0.5282561779022217
            ],
            [
              -0.6902737617492676,
              -0.22998082637786865,
              0.9067658185958862,
              0.4329512119293213
            ]
          ],
          "column": 4,
          "row": 5
        },
        {
          "array": [
            [
              -0.5621311664581299,
              -0.3096952438354492,
              -0.7588624954223633,
              0.8852901458740234,
              -0.047202348709106445
            ],
            [
              -0.9017146825790405,
              0.8249059915542603,
              -0.966468095779419,
              -0.03495919704437256,
              0.3702758550643921
            ]
          ],
          "column": 5,
          "row": 2
        }
      ]
    },
    {
      "biases": [
        {
          "array": [
            [-0.07738387584686279],
            [0.4225127696990967],
            [-0.3688441514968872],
            [-0.4862138032913208],
            [-0.6808944940567017]
          ],
          "column": 1,
          "row": 5
        },
        {
          "array": [
            [-0.6941143274307251],
            [-0.733013391494751]
          ],
          "column": 1,
          "row": 2
        }
      ],
      "weights": [
        {
          "array": [
            [
              0.9982280731201172,
              0.6860512495040894,
              -0.647476315498352,
              -0.21922755241394043
            ],
            [
              -0.9657622575759888,
              0.6199625730514526,
              0.6063287258148193,
              -0.5263580083847046
            ],
            [
              -0.7486019134521484,
              -0.33920395374298096,
              0.9224936962127686,
              -0.3894895315170288
            ],
            [
              0.4500548839569092,
              0.03342306613922119,
              -0.8535470962524414,
              0.5282561779022217
            ],
            [
              -0.6902737617492676,
              -0.22998082637786865,
              0.9067658185958862,
              0.4329512119293213
            ]
          ],
          "column": 4,
          "row": 5
        },
        {
          "array": [
            [
              -0.5621311664581299,
              -0.3096952438354492,
              -0.7588624954223633,
              0.8852901458740234,
              -0.047202348709106445
            ],
            [
              -0.9017146825790405,
              0.8249059915542603,
              -0.966468095779419,
              -0.03495919704437256,
              0.3702758550643921
            ]
          ],
          "column": 5,
          "row": 2
        }
      ]
    },
    {
      "biases": [
        {
          "array": [
            [-0.07738387584686279],
            [0.4225127696990967],
            [-0.3688441514968872],
            [-0.4862138032913208],
            [-0.6808944940567017]
          ],
          "column": 1,
          "row": 5
        },
        {
          "array": [
            [-0.6941143274307251],
            [-0.733013391494751]
          ],
          "column": 1,
          "row": 2
        }
      ],
      "weights": [
        {
          "array": [
            [
              0.9982280731201172,
              0.6860512495040894,
              -0.647476315498352,
              -0.21922755241394043
            ],
            [
              -0.9657622575759888,
              0.6199625730514526,
              0.6063287258148193,
              -0.5263580083847046
            ],
            [
              -0.7486019134521484,
              -0.33920395374298096,
              0.9224936962127686,
              -0.3894895315170288
            ],
            [
              0.4500548839569092,
              0.03342306613922119,
              -0.8535470962524414,
              0.5282561779022217
            ],
            [
              -0.6902737617492676,
              -0.22998082637786865,
              0.9067658185958862,
              0.4329512119293213
            ]
          ],
          "column": 4,
          "row": 5
        },
        {
          "array": [
            [
              -0.5621311664581299,
              -0.3096952438354492,
              -0.7588624954223633,
              0.8852901458740234,
              -0.047202348709106445
            ],
            [
              -0.9017146825790405,
              0.8249059915542603,
              -0.966468095779419,
              -0.03495919704437256,
              0.3702758550643921
            ]
          ],
          "column": 5,
          "row": 2
        }
      ]
    },
    {
      "biases": [
        {
          "array": [
            [-0.07738387584686279],
            [0.4225127696990967],
            [-0.3688441514968872],
            [-0.4862138032913208],
            [-0.6808944940567017]
          ],
          "column": 1,
          "row": 5
        },
        {
          "array": [
            [-0.6941143274307251],
            [-0.733013391494751]
          ],
          "column": 1,
          "row": 2
        }
      ],
      "weights": [
        {
          "array": [
            [
              0.9982280731201172,
              0.6860512495040894,
              -0.647476315498352,
              -0.21922755241394043
            ],
            [
              -0.9657622575759888,
              0.6199625730514526,
              0.6063287258148193,
              -0.5263580083847046
            ],
            [
              -0.7486019134521484,
              -0.33920395374298096,
              0.9224936962127686,
              -0.3894895315170288
            ],
            [
              0.4500548839569092,
              0.03342306613922119,
              -0.8535470962524414,
              0.5282561779022217
            ],
            [
              -0.6902737617492676,
              -0.22998082637786865,
              0.9067658185958862,
              0.4329512119293213
            ]
          ],
          "column": 4,
          "row": 5
        },
        {
          "array": [
            [
              -0.5621311664581299,
              -0.3096952438354492,
              -0.7588624954223633,
              0.8852901458740234,
              -0.047202348709106445
            ],
            [
              -0.9017146825790405,
              0.8249059915542603,
              -0.966468095779419,
              -0.03495919704437256,
              0.3702758550643921
            ]
          ],
          "column": 5,
          "row": 2
        }
      ]
    },
    {
      "biases": [
        {
          "array": [
            [-0.07738387584686279],
            [0.4225127696990967],
            [-0.3688441514968872],
            [-0.4862138032913208],
            [-0.6808944940567017]
          ],
          "column": 1,
          "row": 5
        },
        {
          "array": [
            [-0.6941143274307251],
            [-0.733013391494751]
          ],
          "column": 1,
          "row": 2
        }
      ],
      "weights": [
        {
          "array": [
            [
              0.9982280731201172,
              0.6860512495040894,
              -0.647476315498352,
              -0.21922755241394043
            ],
            [
              -0.9657622575759888,
              0.6199625730514526,
              0.6063287258148193,
              -0.5263580083847046
            ],
            [
              -0.7486019134521484,
              -0.33920395374298096,
              0.9224936962127686,
              -0.3894895315170288
            ],
            [
              0.4500548839569092,
              0.03342306613922119,
              -0.8535470962524414,
              0.5282561779022217
            ],
            [
              -0.6902737617492676,
              -0.22998082637786865,
              0.9067658185958862,
              0.4329512119293213
            ]
          ],
          "column": 4,
          "row": 5
        },
        {
          "array": [
            [
              -0.5621311664581299,
              -0.3096952438354492,
              -0.7588624954223633,
              0.8852901458740234,
              -0.047202348709106445
            ],
            [
              -0.9017146825790405,
              0.8249059915542603,
              -0.966468095779419,
              -0.03495919704437256,
              0.3702758550643921
            ]
          ],
          "column": 5,
          "row": 2
        }
      ]
    },
    {
      "biases": [
        {
          "array": [
            [-0.07738387584686279],
            [0.4225127696990967],
            [-0.3688441514968872],
            [-0.4862138032913208],
            [-0.6808944940567017]
          ],
          "column": 1,
          "row": 5
        },
        {
          "array": [
            [-0.6941143274307251],
            [-0.733013391494751]
          ],
          "column": 1,
          "row": 2
        }
      ],
      "weights": [
        {
          "array": [
            [
              0.9982280731201172,
              0.6860512495040894,
              -0.647476315498352,
              -0.21922755241394043
            ],
            [
              -0.9657622575759888,
              0.6199625730514526,
              0.6063287258148193,
              -0.5263580083847046
            ],
            [
              -0.7486019134521484,
              -0.33920395374298096,
              0.9224936962127686,
              -0.3894895315170288
            ],
            [
              0.4500548839569092,
              0.03342306613922119,
              -0.8535470962524414,
              0.5282561779022217
            ],
            [
              -0.6902737617492676,
              -0.22998082637786865,
              0.9067658185958862,
              0.4329512119293213
            ]
          ],
          "column": 4,
          "row": 5
        },
        {
          "array": [
            [
              -0.5621311664581299,
              -0.3096952438354492,
              -0.7588624954223633,
              0.8852901458740234,
              -0.047202348709106445
            ],
            [
              -0.9017146825790405,
              0.8249059915542603,
              -0.966468095779419,
              -0.03495919704437256,
              0.3702758550643921
            ]
          ],
          "column": 5,
          "row": 2
        }
      ]
    },
    {
      "biases": [
        {
          "array": [
            [-0.07738387584686279],
            [0.4225127696990967],
            [-0.3688441514968872],
            [-0.4862138032913208],
            [-0.6808944940567017]
          ],
          "column": 1,
          "row": 5
        },
        {
          "array": [
            [-0.6941143274307251],
            [-0.733013391494751]
          ],
          "column": 1,
          "row": 2
        }
      ],
      "weights": [
        {
          "array": [
            [
              0.9982280731201172,
              0.6860512495040894,
              -0.647476315498352,
              -0.21922755241394043
            ],
            [
              -0.9657622575759888,
              0.6199625730514526,
              0.6063287258148193,
              -0.5263580083847046
            ],
            [
              -0.7486019134521484,
              -0.33920395374298096,
              0.9224936962127686,
              -0.3894895315170288
            ],
            [
              0.4500548839569092,
              0.03342306613922119,
              -0.8535470962524414,
              0.5282561779022217
            ],
            [
              -0.6902737617492676,
              -0.22998082637786865,
              0.9067658185958862,
              0.4329512119293213
            ]
          ],
          "column": 4,
          "row": 5
        },
        {
          "array": [
            [
              -0.5621311664581299,
              -0.3096952438354492,
              -0.7588624954223633,
              0.8852901458740234,
              -0.047202348709106445
            ],
            [
              -0.9017146825790405,
              0.8249059915542603,
              -0.966468095779419,
              -0.03495919704437256,
              0.3702758550643921
            ]
          ],
          "column": 5,
          "row": 2
        }
      ]
    },
    {
      "biases": [
        {
          "array": [
            [-0.07738387584686279],
            [0.4225127696990967],
            [-0.3688441514968872],
            [-0.4862138032913208],
            [-0.6808944940567017]
          ],
          "column": 1,
          "row": 5
        },
        {
          "array": [
            [-0.6941143274307251],
            [-0.733013391494751]
          ],
          "column": 1,
          "row": 2
        }
      ],
      "weights": [
        {
          "array": [
            [
              0.9982280731201172,
              0.6860512495040894,
              -0.647476315498352,
              -0.21922755241394043
            ],
            [
              -0.9657622575759888,
              0.6199625730514526,
              0.6063287258148193,
              -0.5263580083847046
            ],
            [
              -0.7486019134521484,
              -0.33920395374298096,
              0.9224936962127686,
              -0.3894895315170288
            ],
            [
              0.4500548839569092,
              0.03342306613922119,
              -0.8535470962524414,
              0.5282561779022217
            ],
            [
              -0.6902737617492676,
              -0.22998082637786865,
              0.9067658185958862,
              0.4329512119293213
            ]
          ],
          "column": 4,
          "row": 5
        },
        {
          "array": [
            [
              -0.5621311664581299,
              -0.3096952438354492,
              -0.7588624954223633,
              0.8852901458740234,
              -0.047202348709106445
            ],
            [
              -0.9017146825790405,
              0.8249059915542603,
              -0.966468095779419,
              -0.03495919704437256,
              0.3702758550643921
            ]
          ],
          "column": 5,
          "row": 2
        }
      ]
    },
    {
      "biases": [
        {
          "array": [
            [-0.07738387584686279],
            [0.4225127696990967],
            [-0.3688441514968872],
            [-0.4862138032913208],
            [-0.6808944940567017]
          ],
          "column": 1,
          "row": 5
        },
        {
          "array": [
            [-0.6941143274307251],
            [-0.733013391494751]
          ],
          "column": 1,
          "row": 2
        }
      ],
      "weights": [
        {
          "array": [
            [
              0.9982280731201172,
              0.6860512495040894,
              -0.647476315498352,
              -0.21922755241394043
            ],
            [
              -0.9657622575759888,
              0.6199625730514526,
              0.6063287258148193,
              -0.5263580083847046
            ],
            [
              -0.7486019134521484,
              -0.33920395374298096,
              0.9224936962127686,
              -0.3894895315170288
            ],
            [
              0.4500548839569092,
              0.03342306613922119,
              -0.8535470962524414,
              0.5282561779022217
            ],
            [
              -0.6902737617492676,
              -0.22998082637786865,
              0.9067658185958862,
              0.4329512119293213
            ]
          ],
          "column": 4,
          "row": 5
        },
        {
          "array": [
            [
              -0.5621311664581299,
              -0.3096952438354492,
              -0.7588624954223633,
              0.8852901458740234,
              -0.047202348709106445
            ],
            [
              -0.9017146825790405,
              0.8249059915542603,
              -0.966468095779419,
              -0.03495919704437256,
              0.3702758550643921
            ]
          ],
          "column": 5,
          "row": 2
        }
      ]
    },
    {
      "biases": [
        {
          "array": [
            [-0.07738387584686279],
            [0.4225127696990967],
            [-0.3688441514968872],
            [-0.4862138032913208],
            [-0.6808944940567017]
          ],
          "column": 1,
          "row": 5
        },
        {
          "array": [
            [-0.6941143274307251],
            [-0.733013391494751]
          ],
          "column": 1,
          "row": 2
        }
      ],
      "weights": [
        {
          "array": [
            [
              0.9982280731201172,
              0.6860512495040894,
              -0.647476315498352,
              -0.21922755241394043
            ],
            [
              -0.9657622575759888,
              0.6199625730514526,
              0.6063287258148193,
              -0.5263580083847046
            ],
            [
              -0.7486019134521484,
              -0.33920395374298096,
              0.9224936962127686,
              -0.3894895315170288
            ],
            [
              0.4500548839569092,
              0.03342306613922119,
              -0.8535470962524414,
              0.5282561779022217
            ],
            [
              -0.6902737617492676,
              -0.22998082637786865,
              0.9067658185958862,
              0.4329512119293213
            ]
          ],
          "column": 4,
          "row": 5
        },
        {
          "array": [
            [
              -0.5621311664581299,
              -0.3096952438354492,
              -0.7588624954223633,
              0.8852901458740234,
              -0.047202348709106445
            ],
            [
              -0.9017146825790405,
              0.8249059915542603,
              -0.966468095779419,
              -0.03495919704437256,
              0.3702758550643921
            ]
          ],
          "column": 5,
          "row": 2
        }
      ]
    },
    {
      "biases": [
        {
          "array": [
            [-0.07738387584686279],
            [0.4225127696990967],
            [-0.3688441514968872],
            [-0.4862138032913208],
            [-0.6808944940567017]
          ],
          "column": 1,
          "row": 5
        },
        {
          "array": [
            [-0.6941143274307251],
            [-0.733013391494751]
          ],
          "column": 1,
          "row": 2
        }
      ],
      "weights": [
        {
          "array": [
            [
              0.9982280731201172,
              0.6860512495040894,
              -0.647476315498352,
              -0.21922755241394043
            ],
            [
              -0.9657622575759888,
              0.6199625730514526,
              0.6063287258148193,
              -0.5263580083847046
            ],
            [
              -0.7486019134521484,
              -0.33920395374298096,
              0.9224936962127686,
              -0.3894895315170288
            ],
            [
              0.4500548839569092,
              0.03342306613922119,
              -0.8535470962524414,
              0.5282561779022217
            ],
            [
              -0.6902737617492676,
              -0.22998082637786865,
              0.9067658185958862,
              0.4329512119293213
            ]
          ],
          "column": 4,
          "row": 5
        },
        {
          "array": [
            [
              -0.5621311664581299,
              -0.3096952438354492,
              -0.7588624954223633,
              0.8852901458740234,
              -0.047202348709106445
            ],
            [
              -0.9017146825790405,
              0.8249059915542603,
              -0.966468095779419,
              -0.03495919704437256,
              0.3702758550643921
            ]
          ],
          "column": 5,
          "row": 2
        }
      ]
    },
    {
      "biases": [
        {
          "array": [
            [-0.07738387584686279],
            [0.4225127696990967],
            [-0.3688441514968872],
            [-0.4862138032913208],
            [-0.6808944940567017]
          ],
          "column": 1,
          "row": 5
        },
        {
          "array": [
            [-0.6941143274307251],
            [-0.733013391494751]
          ],
          "column": 1,
          "row": 2
        }
      ],
      "weights": [
        {
          "array": [
            [
              0.9982280731201172,
              0.6860512495040894,
              -0.647476315498352,
              -0.21922755241394043
            ],
            [
              -0.9657622575759888,
              0.6199625730514526,
              0.6063287258148193,
              -0.5263580083847046
            ],
            [
              -0.7486019134521484,
              -0.33920395374298096,
              0.9224936962127686,
              -0.3894895315170288
            ],
            [
              0.4500548839569092,
              0.03342306613922119,
              -0.8535470962524414,
              0.5282561779022217
            ],
            [
              -0.6902737617492676,
              -0.22998082637786865,
              0.9067658185958862,
              0.4329512119293213
            ]
          ],
          "column": 4,
          "row": 5
        },
        {
          "array": [
            [
              -0.5621311664581299,
              -0.3096952438354492,
              -0.7588624954223633,
              0.8852901458740234,
              -0.047202348709106445
            ],
            [
              -0.9017146825790405,
              0.8249059915542603,
              -0.966468095779419,
              -0.03495919704437256,
              0.3702758550643921
            ]
          ],
          "column": 5,
          "row": 2
        }
      ]
    },
    {
      "biases": [
        {
          "array": [
            [-0.07738387584686279],
            [0.4225127696990967],
            [-0.3688441514968872],
            [-0.4862138032913208],
            [-0.6808944940567017]
          ],
          "column": 1,
          "row": 5
        },
        {
          "array": [
            [-0.6941143274307251],
            [-0.733013391494751]
          ],
          "column": 1,
          "row": 2
        }
      ],
      "weights": [
        {
          "array": [
            [
              0.9982280731201172,
              0.6860512495040894,
              -0.647476315498352,
              -0.21922755241394043
            ],
            [
              -0.9657622575759888,
              0.6199625730514526,
              0.6063287258148193,
              -0.5263580083847046
            ],
            [
              -0.7486019134521484,
              -0.33920395374298096,
              0.9224936962127686,
              -0.3894895315170288
            ],
            [
              0.4500548839569092,
              0.03342306613922119,
              -0.8535470962524414,
              0.5282561779022217
            ],
            [
              -0.6902737617492676,
              -0.22998082637786865,
              0.9067658185958862,
              0.4329512119293213
            ]
          ],
          "column": 4,
          "row": 5
        },
        {
          "array": [
            [
              -0.5621311664581299,
              -0.3096952438354492,
              -0.7588624954223633,
              0.8852901458740234,
              -0.047202348709106445
            ],
            [
              -0.9017146825790405,
              0.8249059915542603,
              -0.966468095779419,
              -0.03495919704437256,
              0.3702758550643921
            ]
          ],
          "column": 5,
          "row": 2
        }
      ]
    },
    {
      "biases": [
        {
          "array": [
            [-0.07738387584686279],
            [0.4225127696990967],
            [-0.3688441514968872],
            [-0.4862138032913208],
            [-0.6808944940567017]
          ],
          "column": 1,
          "row": 5
        },
        {
          "array": [
            [-0.6941143274307251],
            [-0.733013391494751]
          ],
          "column": 1,
          "row": 2
        }
      ],
      "weights": [
        {
          "array": [
            [
              0.9982280731201172,
              0.6860512495040894,
              -0.647476315498352,
              -0.21922755241394043
            ],
            [
              -0.9657622575759888,
              0.6199625730514526,
              0.6063287258148193,
              -0.5263580083847046
            ],
            [
              -0.7486019134521484,
              -0.33920395374298096,
              0.9224936962127686,
              -0.3894895315170288
            ],
            [
              0.4500548839569092,
              0.03342306613922119,
              -0.8535470962524414,
              0.5282561779022217
            ],
            [
              -0.6902737617492676,
              -0.22998082637786865,
              0.9067658185958862,
              0.4329512119293213
            ]
          ],
          "column": 4,
          "row": 5
        },
        {
          "array": [
            [
              -0.5621311664581299,
              -0.3096952438354492,
              -0.7588624954223633,
              0.8852901458740234,
              -0.047202348709106445
            ],
            [
              -0.9017146825790405,
              0.8249059915542603,
              -0.966468095779419,
              -0.03495919704437256,
              0.3702758550643921
            ]
          ],
          "column": 5,
          "row": 2
        }
      ]
    },
    {
      "biases": [
        {
          "array": [
            [-0.07738387584686279],
            [0.4225127696990967],
            [-0.3688441514968872],
            [-0.4862138032913208],
            [-0.6808944940567017]
          ],
          "column": 1,
          "row": 5
        },
        {
          "array": [
            [-0.6941143274307251],
            [-0.733013391494751]
          ],
          "column": 1,
          "row": 2
        }
      ],
      "weights": [
        {
          "array": [
            [
              0.9982280731201172,
              0.6860512495040894,
              -0.647476315498352,
              -0.21922755241394043
            ],
            [
              -0.9657622575759888,
              0.6199625730514526,
              0.6063287258148193,
              -0.5263580083847046
            ],
            [
              -0.7486019134521484,
              -0.33920395374298096,
              0.9224936962127686,
              -0.3894895315170288
            ],
            [
              0.4500548839569092,
              0.03342306613922119,
              -0.8535470962524414,
              0.5282561779022217
            ],
            [
              -0.6902737617492676,
              -0.22998082637786865,
              0.9067658185958862,
              0.4329512119293213
            ]
          ],
          "column": 4,
          "row": 5
        },
        {
          "array": [
            [
              -0.5621311664581299,
              -0.3096952438354492,
              -0.7588624954223633,
              0.8852901458740234,
              -0.047202348709106445
            ],
            [
              -0.9017146825790405,
              0.8249059915542603,
              -0.966468095779419,
              -0.03495919704437256,
              0.3702758550643921
            ]
          ],
          "column": 5,
          "row": 2
        }
      ]
    },
    {
      "biases": [
        {
          "array": [
            [-0.07738387584686279],
            [0.4225127696990967],
            [-0.3688441514968872],
            [-0.4862138032913208],
            [-0.6808944940567017]
          ],
          "column": 1,
          "row": 5
        },
        {
          "array": [
            [-0.6941143274307251],
            [-0.733013391494751]
          ],
          "column": 1,
          "row": 2
        }
      ],
      "weights": [
        {
          "array": [
            [
              0.9982280731201172,
              0.6860512495040894,
              -0.647476315498352,
              -0.21922755241394043
            ],
            [
              -0.9657622575759888,
              0.6199625730514526,
              0.6063287258148193,
              -0.5263580083847046
            ],
            [
              -0.7486019134521484,
              -0.33920395374298096,
              0.9224936962127686,
              -0.3894895315170288
            ],
            [
              0.4500548839569092,
              0.03342306613922119,
              -0.8535470962524414,
              0.5282561779022217
            ],
            [
              -0.6902737617492676,
              -0.22998082637786865,
              0.9067658185958862,
              0.4329512119293213
            ]
          ],
          "column": 4,
          "row": 5
        },
        {
          "array": [
            [
