{
  "generation": 8,
  "brains": [
    {
      "biases": [
        {
          "array": [
            [-0.09807682037353516],
            [0.12025666236877441],
            [0.48339200019836426],
            [0.6695834398269653],
            [0.9980995059013367]
          ],
          "column": 1,
          "row": 5
        },
        {
          "array": [
            [0.9341989755630493],
            [0.387518048286438]
          ],
          "column": 1,
          "row": 2
        }
      ],
      "weights": [
        {
          "array": [
            [
              -0.43916189670562744,
              0.40456485748291016,
              0.3053436279296875,
              0.34022271633148193,
              -0.0048716068267822266
            ],
            [
              0.6045677661895752,
              0.8579715490341187,
              0.31459808349609375,
              -0.6936233043670654,
              -0.8297840356826782
            ],
            [
              0.2409048080444336,
              0.3164346218109131,
              0.37062573432922363,
              0.7181130647659302,
              -0.06678879261016846
            ],
            [
              0.544237494468689,
              -0.5272444486618042,
              -0.4816446304321289,
              0.9160937070846558,
              0.056145865470170975
            ],
            [
              -0.2933105230331421,
              0.6151976585388184,
              -0.7672711610794067,
              0.4606438875198364,
              -0.8231301307678223
            ]
          ],
          "column": 5,
          "row": 5
        },
        {
          "array": [
            [
              -0.5215009450912476,
              0.24399471282958984,
              -0.6096643209457397,
              0.09022259712219238,
              0.5471041202545166
            ],
            [
              0.5145699977874756,
              -0.15019047260284424,
              0.06473040580749512,
              -0.25239288806915283,
              0.21674275398254395
            ]
          ],
          "column": 5,
          "row": 2
        }
      ]
    },
    {
      "biases": [
        {
          "array": [
            [-0.09807682037353516],
            [0.12025666236877441],
            [0.48339200019836426],
            [0.6695834398269653],
            [0.9980995059013367]
          ],
          "column": 1,
          "row": 5
        },
        {
          "array": [
            [0.9341989755630493],
            [0.387518048286438]
          ],
          "column": 1,
          "row": 2
        }
      ],
      "weights": [
        {
          "array": [
            [
              -0.43916189670562744,
              0.40456485748291016,
              0.3053436279296875,
              0.34022271633148193,
              -0.0048716068267822266
            ],
            [
              0.6045677661895752,
              0.8579715490341187,
              0.31459808349609375,
              -0.6936233043670654,
              -0.8297840356826782
            ],
            [
              0.2409048080444336,
              0.3164346218109131,
              0.37062573432922363,
              0.7181130647659302,
              -0.06678879261016846
            ],
            [
              0.544237494468689,
              -0.5272444486618042,
              -0.4816446304321289,
              0.9160937070846558,
              0.056145865470170975
            ],
            [
              -0.2933105230331421,
              0.6151976585388184,
              -0.7672711610794067,
              0.4606438875198364,
              -0.8231301307678223
            ]
          ],
          "column": 5,
          "row": 5
        },
        {
          "array": [
            [
              -0.5215009450912476,
              0.24399471282958984,
              -0.6096643209457397,
              0.09022259712219238,
              0.5471041202545166
            ],
            [
              0.5145699977874756,
              -0.15019047260284424,
              0.06473040580749512,
              -0.25239288806915283,
              0.21674275398254395
            ]
          ],
          "column": 5,
          "row": 2
        }
      ]
    },
    {
      "biases": [
        {
          "array": [
            [-0.09807682037353516],
            [0.12025666236877441],
            [0.48339200019836426],
            [0.6695834398269653],
            [0.9980995059013367]
          ],
          "column": 1,
          "row": 5
        },
        {
          "array": [
            [0.9341989755630493],
            [0.387518048286438]
          ],
          "column": 1,
          "row": 2
        }
      ],
      "weights": [
        {
          "array": [
            [
              -0.43916189670562744,
              0.40456485748291016,
              0.3053436279296875,
              0.34022271633148193,
              -0.0048716068267822266
            ],
            [
              0.6045677661895752,
              0.8579715490341187,
              0.31459808349609375,
              -0.6936233043670654,
              -0.8297840356826782
            ],
            [
              0.2409048080444336,
              0.3164346218109131,
              0.37062573432922363,
              0.7181130647659302,
              -0.06678879261016846
            ],
            [
              0.544237494468689,
              -0.5272444486618042,
              -0.4816446304321289,
              0.9160937070846558,
              0.056145865470170975
            ],
            [
              -0.2933105230331421,
              0.6151976585388184,
              -0.7672711610794067,
              0.4606438875198364,
              -0.8231301307678223
            ]
          ],
          "column": 5,
          "row": 5
        },
        {
          "array": [
            [
              -0.5215009450912476,
              0.01242639496922493,
              -0.6096643209457397,
              0.09022259712219238,
              0.5471041202545166
            ],
            [
              0.5145699977874756,
              -0.15019047260284424,
              0.06473040580749512,
              -0.25239288806915283,
              0.21674275398254395
            ]
          ],
          "column": 5,
          "row": 2
        }
      ]
    },
    {
      "biases": [
        {
          "array": [
            [-0.09807682037353516],
            [0.12025666236877441],
            [0.48339200019836426],
            [0.6695834398269653],
            [0.9980995059013367]
          ],
          "column": 1,
          "row": 5
        },
        {
          "array": [
            [0.9341989755630493],
            [0.387518048286438]
          ],
          "column": 1,
          "row": 2
        }
      ],
      "weights": [
        {
          "array": [
            [
              -0.43916189670562744,
              0.40456485748291016,
              0.3053436279296875,
              0.4708293378353119,
              -0.0048716068267822266
            ],
            [
              0.6045677661895752,
              0.8579715490341187,
              0.31459808349609375,
              -0.6936233043670654,
              -0.8297840356826782
            ],
            [
              0.2409048080444336,
              0.3164346218109131,
              0.37062573432922363,
              0.7181130647659302,
              -0.06678879261016846
            ],
            [
              0.544237494468689,
              -0.5272444486618042,
              -0.4816446304321289,
              0.9160937070846558,
              0.056145865470170975
            ],
            [
              -0.2933105230331421,
              0.6151976585388184,
              -0.7672711610794067,
              0.4606438875198364,
              -0.8231301307678223
            ]
          ],
          "column": 5,
          "row": 5
        },
        {
          "array": [
            [
              -0.5215009450912476,
              0.24399471282958984,
              -0.6096643209457397,
              0.09022259712219238,
              0.5471041202545166
            ],
            [
              0.5145699977874756,
              -0.15019047260284424,
              0.06473040580749512,
              -0.25239288806915283,
              0.21674275398254395
            ]
          ],
          "column": 5,
          "row": 2
        }
      ]
    },
    {
      "biases": [
        {
          "array": [
            [-0.09807682037353516],
            [0.12025666236877441],
            [0.48339200019836426],
            [0.6695834398269653],
            [0.9980995059013367]
          ],
          "column": 1,
          "row": 5
        },
        {
          "array": [
            [0.9341989755630493],
            [0.387518048286438]
          ],
          "column": 1,
          "row": 2
        }
      ],
      "weights": [
        {
          "array": [
            [
              -0.43916189670562744,
              0.40456485748291016,
              0.3053436279296875,
              0.34022271633148193,
              -0.0048716068267822266
            ],
            [
              0.6045677661895752,
              0.8579715490341187,
              0.31459808349609375,
              -0.6936233043670654,
              -0.8297840356826782
            ],
            [
              0.2409048080444336,
              0.3164346218109131,
              0.37062573432922363,
              0.7181130647659302,
              -0.06678879261016846
            ],
            [
              0.544237494468689,
              -0.5272444486618042,
              -0.4816446304321289,
              0.9160937070846558,
              0.056145865470170975
            ],
            [
              -0.2933105230331421,
              0.6151976585388184,
              -0.7672711610794067,
              0.4606438875198364,
              -0.8231301307678223
            ]
          ],
          "column": 5,
          "row": 5
        },
        {
          "array": [
            [
              -0.5215009450912476,
              0.24399471282958984,
              -0.6096643209457397,
              0.09022259712219238,
              0.5471041202545166
            ],
            [
              0.5145699977874756,
              -0.15019047260284424,
              0.06473040580749512,
              -0.25239288806915283,
              0.21674275398254395
            ]
          ],
          "column": 5,
          "row": 2
        }
      ]
    },
    {
      "biases": [
        {
          "array": [
            [-0.09807682037353516],
            [0.12025666236877441],
            [0.48339200019836426],
            [0.6695834398269653],
            [0.9980995059013367]
          ],
          "column": 1,
          "row": 5
        },
        {
          "array": [
            [0.9341989755630493],
            [0.387518048286438]
          ],
          "column": 1,
          "row": 2
        }
      ],
      "weights": [
        {
          "array": [
            [
              -0.43916189670562744,
              0.40456485748291016,
              0.3053436279296875,
              0.34022271633148193,
              -0.0048716068267822266
            ],
            [
              0.6045677661895752,
              0.8579715490341187,
              0.31459808349609375,
              -0.6936233043670654,
              -0.8297840356826782
            ],
            [
              0.2409048080444336,
              0.3164346218109131,
              0.37062573432922363,
              0.7181130647659302,
              -0.06678879261016846
            ],
            [
              0.544237494468689,
              -0.5272444486618042,
              -0.4816446304321289,
              0.9160937070846558,
              0.056145865470170975
            ],
            [
              -0.2933105230331421,
              0.6151976585388184,
              -0.7672711610794067,
              0.4606438875198364,
              -0.8231301307678223
            ]
          ],
          "column": 5,
          "row": 5
        },
        {
          "array": [
            [
              -0.5215009450912476,
              0.01242639496922493,
              -0.6096643209457397,
              0.09022259712219238,
              0.5471041202545166
            ],
            [
              0.5145699977874756,
              -0.15019047260284424,
              0.06473040580749512,
              -0.25239288806915283,
              0.21674275398254395
            ]
          ],
          "column": 5,
          "row": 2
        }
      ]
    },
    {
      "biases": [
        {
          "array": [
            [-0.09807682037353516],
            [0.12025666236877441],
            [0.48339200019836426],
            [0.6695834398269653],
            [0.9980995059013367]
          ],
          "column": 1,
          "row": 5
        },
        {
          "array": [
            [0.9341989755630493],
            [0.387518048286438]
          ],
          "column": 1,
          "row": 2
        }
      ],
      "weights": [
        {
          "array": [
            [
              -0.43916189670562744,
              0.40456485748291016,
              0.3053436279296875,
              0.34022271633148193,
              -0.0048716068267822266
            ],
            [
              0.6045677661895752,
              0.8579715490341187,
              0.31459808349609375,
              -0.6936233043670654,
              -0.8297840356826782
            ],
            [
              0.2409048080444336,
              0.3164346218109131,
              0.37062573432922363,
              0.7181130647659302,
              -0.06678879261016846
            ],
            [
              0.544237494468689,
              -0.5272444486618042,
              -0.4816446304321289,
              0.9160937070846558,
              0.056145865470170975
            ],
            [
              -0.2933105230331421,
              0.6151976585388184,
              -0.7672711610794067,
              0.4606438875198364,
              -0.8231301307678223
            ]
          ],
          "column": 5,
          "row": 5
        },
        {
          "array": [
            [
              -0.5215009450912476,
              0.6791636347770691,
              -0.6096643209457397,
              0.09022259712219238,
              0.5471041202545166
            ],
            [
              0.5145699977874756,
              -0.15019047260284424,
              0.06473040580749512,
              -0.25239288806915283,
              0.21674275398254395
            ]
          ],
          "column": 5,
          "row": 2
        }
      ]
    },
    {
      "biases": [
        {
          "array": [
            [-0.09807682037353516],
            [0.12025666236877441],
            [0.48339200019836426],
            [0.6695834398269653],
            [0.9980995059013367]
          ],
          "column": 1,
          "row": 5
        },
        {
          "array": [
            [0.9341989755630493],
            [0.387518048286438]
          ],
          "column": 1,
          "row": 2
        }
      ],
      "weights": [
        {
          "array": [
            [
              -0.43916189670562744,
              0.40456485748291016,
              0.3053436279296875,
              0.34022271633148193,
              -0.0048716068267822266
            ],
            [
              0.6045677661895752,
              0.8579715490341187,
              0.31459808349609375,
              -0.6936233043670654,
              -0.8297840356826782
            ],
            [
              0.2409048080444336,
              0.3164346218109131,
              0.37062573432922363,
              0.7181130647659302,
              -0.06678879261016846
            ],
            [
              0.544237494468689,
              -0.5272444486618042,
              -0.4816446304321289,
              0.9160937070846558,
              0.056145865470170975
            ],
            [
              -0.2933105230331421,
              0.6151976585388184,
              -0.7672711610794067,
              0.4606438875198364,
              -0.8231301307678223
            ]
          ],
          "column": 5,
          "row": 5
        },
        {
          "array": [
            [
              -0.5215009450912476,
              0.24399471282958984,
              -0.6096643209457397,
              0.09022259712219238,
              0.5471041202545166
            ],
            [
              0.5145699977874756,
              -0.15019047260284424,
              0.06473040580749512,
              -0.25239288806915283,
              0.21674275398254395
            ]
          ],
          "column": 5,
          "row": 2
        }
      ]
    },
    {
      "biases": [
        {
          "array": [
            [-0.09807682037353516],
            [0.12025666236877441],
            [0.48339200019836426],
            [0.6695834398269653],
            [0.9980995059013367]
          ],
          "column": 1,
          "row": 5
        },
        {
          "array": [
            [0.9341989755630493],
            [0.387518048286438]
          ],
          "column": 1,
          "row": 2
        }
      ],
      "weights": [
        {
          "array": [
            [
              -0.43916189670562744,
              0.40456485748291016,
              0.3053436279296875,
              0.34022271633148193,
              -0.0048716068267822266
            ],
            [
              0.6045677661895752,
              0.8579715490341187,
              0.31459808349609375,
              -0.6936233043670654,
              -0.8297840356826782
            ],
            [
              0.2409048080444336,
              0.3164346218109131,
              0.37062573432922363,
              0.7181130647659302,
              -0.06678879261016846
            ],
            [
              0.544237494468689,
              -0.5272444486618042,
              -0.4816446304321289,
              0.9160937070846558,
              0.056145865470170975
            ],
            [
              -0.2933105230331421,
              0.6151976585388184,
              -0.7672711610794067,
              0.4606438875198364,
              -0.8231301307678223
            ]
          ],
          "column": 5,
          "row": 5
        },
        {
          "array": [
            [
              -0.5215009450912476,
              0.24399471282958984,
              -0.6096643209457397,
              0.09022259712219238,
              0.5471041202545166
            ],
            [
              0.5145699977874756,
              -0.15019047260284424,
              0.06473040580749512,
              -0.25239288806915283,
              0.21674275398254395
            ]
          ],
          "column": 5,
          "row": 2
        }
      ]
    },
    {
      "biases": [
        {
          "array": [
            [-0.09807682037353516],
            [0.12025666236877441],
            [0.48339200019836426],
            [0.6695834398269653],
            [0.9980995059013367]
          ],
          "column": 1,
          "row": 5
        },
        {
          "array": [
            [0.9341989755630493],
            [0.387518048286438]
          ],
          "column": 1,
          "row": 2
        }
      ],
      "weights": [
        {
          "array": [
            [
              -0.43916189670562744,
              0.40456485748291016,
              0.3053436279296875,
              0.34022271633148193,
              -0.0048716068267822266
            ],
            [
              0.6045677661895752,
              0.8579715490341187,
              0.31459808349609375,
              -0.6936233043670654,
              -0.8297840356826782
            ],
            [
              0.2409048080444336,
              0.3164346218109131,
              0.37062573432922363,
              0.7181130647659302,
              -0.06678879261016846
            ],
            [
              0.544237494468689,
              -0.5272444486618042,
              -0.4816446304321289,
              0.9160937070846558,
              0.056145865470170975
            ],
            [
              -0.2933105230331421,
              0.6151976585388184,
              -0.7672711610794067,
              0.4606438875198364,
              -0.8231301307678223
            ]
          ],
          "column": 5,
          "row": 5
        },
        {
          "array": [
            [
              -0.5215009450912476,
              0.01242639496922493,
              -0.6096643209457397,
              0.09022259712219238,
              0.5471041202545166
            ],
            [
              0.5145699977874756,
              -0.15019047260284424,
              0.06473040580749512,
              -0.25239288806915283,
              0.21674275398254395
            ]
          ],
          "column": 5,
          "row": 2
        }
      ]
    },
    {
      "biases": [
        {
          "array": [
            [-0.09807682037353516],
            [0.12025666236877441],
            [0.48339200019836426],
            [0.6695834398269653],
            [0.9980995059013367]
          ],
          "column": 1,
          "row": 5
        },
        {
          "array": [
            [0.9341989755630493],
            [0.387518048286438]
          ],
          "column": 1,
          "row": 2
        }
      ],
      "weights": [
        {
          "array": [
            [
              -0.43916189670562744,
              0.40456485748291016,
              0.3053436279296875,
              0.34022271633148193,
              -0.0048716068267822266
            ],
            [
              0.6045677661895752,
              0.8579715490341187,
              0.31459808349609375,
              -0.6936233043670654,
              -0.8297840356826782
            ],
            [
              0.2409048080444336,
              0.3164346218109131,
              0.37062573432922363,
              0.7181130647659302,
              -0.06678879261016846
            ],
            [
              0.544237494468689,
              -0.5272444486618042,
              -0.4816446304321289,
              0.9160937070846558,
              0.056145865470170975
            ],
            [
              -0.2933105230331421,
              0.6151976585388184,
              -0.7672711610794067,
              0.4606438875198364,
              -0.8231301307678223
            ]
          ],
          "column": 5,
          "row": 5
        },
        {
          "array": [
            [
              -0.5215009450912476,
              0.24399471282958984,
              -0.6096643209457397,
              0.09022259712219238,
              0.5471041202545166
            ],
            [
              0.5145699977874756,
              -0.15019047260284424,
              0.06473040580749512,
              -0.25239288806915283,
              0.21674275398254395
            ]
          ],
          "column": 5,
          "row": 2
        }
      ]
    },
    {
      "biases": [
        {
          "array": [
            [-0.09807682037353516],
            [0.12025666236877441],
            [0.48339200019836426],
            [0.6695834398269653],
            [0.9980995059013367]
          ],
          "column": 1,
          "row": 5
        },
        {
          "array": [
            [0.9341989755630493],
            [0.387518048286438]
          ],
          "column": 1,
          "row": 2
        }
      ],
      "weights": [
        {
          "array": [
            [
              -0.43916189670562744,
              0.40456485748291016,
              0.3053436279296875,
              0.34022271633148193,
              -0.0048716068267822266
            ],
            [
              0.6045677661895752,
              0.8579715490341187,
              0.31459808349609375,
              -0.6936233043670654,
              -0.8297840356826782
            ],
            [
              0.2409048080444336,
              0.3164346218109131,
              0.37062573432922363,
              0.7181130647659302,
              -0.06678879261016846
            ],
            [
              0.544237494468689,
              -0.5272444486618042,
              -0.4816446304321289,
              0.9160937070846558,
              0.056145865470170975
            ],
            [
              -0.2933105230331421,
              0.6151976585388184,
              -0.7672711610794067,
              0.4606438875198364,
              -0.8231301307678223
            ]
          ],
          "column": 5,
          "row": 5
        },
        {
          "array": [
            [
              -0.5215009450912476,
              0.01242639496922493,
              -0.6096643209457397,
              0.09022259712219238,
              0.5471041202545166
            ],
            [
              0.5145699977874756,
              -0.15019047260284424,
              0.06473040580749512,
              -0.25239288806915283,
              0.21674275398254395
            ]
          ],
          "column": 5,
          "row": 2
        }
      ]
    },
    {
      "biases": [
        {
          "array": [
            [-0.09807682037353516],
            [0.12025666236877441],
            [0.48339200019836426],
            [0.6695834398269653],
            [0.9980995059013367]
          ],
          "column": 1,
          "row": 5
        },
        {
          "array": [
            [0.9341989755630493],
            [0.387518048286438]
          ],
          "column": 1,
          "row": 2
        }
      ],
      "weights": [
        {
          "array": [
            [
              -0.43916189670562744,
              0.40456485748291016,
              0.3053436279296875,
              0.34022271633148193,
              -0.0048716068267822266
            ],
            [
              0.6045677661895752,
              0.8579715490341187,
              0.31459808349609375,
              -0.6936233043670654,
              -0.8297840356826782
            ],
            [
              0.2409048080444336,
              0.3164346218109131,
              0.37062573432922363,
              0.7181130647659302,
              -0.06678879261016846
            ],
            [
              0.544237494468689,
              -0.5272444486618042,
              -0.4816446304321289,
              0.9160937070846558,
              0.056145865470170975
            ],
            [
              -0.2933105230331421,
              0.6151976585388184,
              -0.7672711610794067,
              0.4606438875198364,
              -0.8231301307678223
            ]
          ],
          "column": 5,
          "row": 5
        },
        {
          "array": [
            [
              -0.5215009450912476,
              0.24399471282958984,
              -0.6096643209457397,
              0.09022259712219238,
              0.5471041202545166
            ],
            [
              0.5145699977874756,
              -0.15019047260284424,
              0.06473040580749512,
              -0.25239288806915283,
              0.21674275398254395
            ]
          ],
          "column": 5,
          "row": 2
        }
      ]
    },
    {
      "biases": [
        {
          "array": [
            [-0.09807682037353516],
            [0.12025666236877441],
            [0.48339200019836426],
            [0.6695834398269653],
            [0.9980995059013367]
          ],
          "column": 1,
          "row": 5
        },
        {
          "array": [
            [0.9341989755630493],
            [0.387518048286438]
          ],
          "column": 1,
          "row": 2
        }
      ],
      "weights": [
        {
          "array": [
            [
              -0.43916189670562744,
              0.40456485748291016,
              0.3053436279296875,
              0.34022271633148193,
              -0.0048716068267822266
            ],
            [
              0.6045677661895752,
              0.8579715490341187,
              0.31459808349609375,
              -0.6936233043670654,
              -0.8297840356826782
            ],
            [
              0.2409048080444336,
              0.3164346218109131,
              0.37062573432922363,
              0.7181130647659302,
              -0.06678879261016846
            ],
            [
              0.544237494468689,
              -0.5272444486618042,
              -0.4816446304321289,
              0.9160937070846558,
              0.056145865470170975
            ],
            [
              -0.2933105230331421,
              0.6151976585388184,
              -0.7672711610794067,
              0.4606438875198364,
              -0.8231301307678223
            ]
          ],
          "column": 5,
          "row": 5
        },
        {
          "array": [
            [
              -0.5215009450912476,
              0.24399471282958984,
              -0.6096643209457397,
              0.09022259712219238,
              0.5471041202545166
            ],
            [
              0.5145699977874756,
              -0.15019047260284424,
              0.06473040580749512,
              -0.25239288806915283,
              0.21674275398254395
            ]
          ],
          "column": 5,
          "row": 2
        }
      ]
    },
    {
      "biases": [
        {
          "array": [
            [-0.09807682037353516],
            [0.9966993927955627],
            [0.48339200019836426],
            [0.6695834398269653],
            [0.9980995059013367]
          ],
          "column": 1,
          "row": 5
        },
        {
          "array": [
            [0.9341989755630493],
            [0.387518048286438]
          ],
          "column": 1,
          "row": 2
        }
      ],
      "weights": [
        {
          "array": [
            [
              -0.43916189670562744,
              0.40456485748291016,
              0.3053436279296875,
              0.34022271633148193,
              -0.0048716068267822266
            ],
            [
              0.6045677661895752,
              0.8579715490341187,
              0.31459808349609375,
              -0.6936233043670654,
              -0.8297840356826782
            ],
            [
              0.2409048080444336,
              0.3164346218109131,
              0.37062573432922363,
              0.7181130647659302,
              -0.06678879261016846
            ],
            [
              0.544237494468689,
              0.0013202871195971966,
              -0.4816446304321289,
              0.9160937070846558,
              0.056145865470170975
            ],
            [
              -0.2933105230331421,
              0.6151976585388184,
              -0.7672711610794067,
              0.4606438875198364,
              -0.8231301307678223
            ]
          ],
          "column": 5,
          "row": 5
        },
        {
          "array": [
            [
              -0.5215009450912476,
              0.24399471282958984,
              -0.6096643209457397,
              0.09022259712219238,
              0.5471041202545166
            ],
            [
              0.5145699977874756,
              -0.15019047260284424,
              0.06473040580749512,
              -0.25239288806915283,
              0.21674275398254395
            ]
          ],
          "column": 5,
          "row": 2
        }
      ]
    },
    {
      "biases": [
        {
          "array": [
            [-0.09807682037353516],
            [0.12025666236877441],
            [0.48339200019836426],
            [0.6695834398269653],
            [0.9980995059013367]
          ],
          "column": 1,
          "row": 5
        },
        {
          "array": [
            [0.9341989755630493],
            [0.387518048286438]
          ],
          "column": 1,
          "row": 2
        }
      ],
      "weights": [
        {
          "array": [
            [
              -0.43916189670562744,
              0.40456485748291016,
              0.3053436279296875,
              0.34022271633148193,
              -0.0048716068267822266
            ],
            [
              0.6045677661895752,
              0.8579715490341187,
              0.31459808349609375,
              -0.6936233043670654,
              -0.8297840356826782
            ],
            [
              0.2409048080444336,
              0.3164346218109131,
              0.37062573432922363,
              0.7181130647659302,
              -0.06678879261016846
            ],
            [
              0.544237494468689,
              -0.5272444486618042,
              -0.4816446304321289,
              0.9160937070846558,
              0.056145865470170975
            ],
            [
              -0.2933105230331421,
              0.6151976585388184,
              -0.7672711610794067,
              0.4606438875198364,
              -0.8231301307678223
            ]
          ],
          "column": 5,
          "row": 5
        },
        {
          "array": [
            [
              -0.5215009450912476,
              0.24399471282958984,
              -0.6096643209457397,
              0.09022259712219238,
              0.5471041202545166
            ],
            [
              0.5145699977874756,
              -0.15019047260284424,
              0.06473040580749512,
              -0.25239288806915283,
              0.21674275398254395
            ]
          ],
          "column": 5,
          "row": 2
        }
      ]
    },
    {
      "biases": [
        {
          "array": [
            [-0.09807682037353516],
            [0.12025666236877441],
            [0.48339200019836426],
            [0.6695834398269653],
            [0.9980995059013367]
          ],
          "column": 1,
          "row": 5
        },
        {
          "array": [
            [0.9341989755630493],
            [0.387518048286438]
          ],
          "column": 1,
          "row": 2
        }
      ],
      "weights": [
        {
          "array": [
            [
              -0.43916189670562744,
              0.40456485748291016,
              0.3053436279296875,
              0.34022271633148193,
              -0.0048716068267822266
            ],
            [
              0.6045677661895752,
              0.8579715490341187,
              0.31459808349609375,
              -0.6936233043670654,
              -0.8297840356826782
            ],
            [
              0.2409048080444336,
              0.3164346218109131,
              0.37062573432922363,
              0.7181130647659302,
              -0.06678879261016846
            ],
            [
              0.544237494468689,
              -0.5272444486618042,
              -0.4816446304321289,
              0.9160937070846558,
              0.056145865470170975
            ],
            [
              -0.2933105230331421,
              0.6151976585388184,
              -0.7672711610794067,
              0.4606438875198364,
              -0.8231301307678223
            ]
          ],
          "column": 5,
          "row": 5
        },
        {
          "array": [
            [
              -0.5215009450912476,
              0.01242639496922493,
              -0.6096643209457397,
              0.09022259712219238,
              0.5471041202545166
            ],
            [
              0.5145699977874756,
              -0.15019047260284424,
              0.06473040580749512,
              -0.25239288806915283,
              0.21674275398254395
            ]
          ],
          "column": 5,
          "row": 2
        }
      ]
    },
    {
      "biases": [
        {
          "array": [
            [-0.09807682037353516],
            [0.9966993927955627],
            [0.48339200019836426],
            [0.6695834398269653],
            [0.9980995059013367]
          ],
          "column": 1,
          "row": 5
        },
        {
          "array": [
            [0.9341989755630493],
            [0.387518048286438]
          ],
          "column": 1,
          "row": 2
        }
      ],
      "weights": [
        {
          "array": [
            [
              -0.43916189670562744,
              0.40456485748291016,
              0.3053436279296875,
              0.34022271633148193,
              -0.0048716068267822266
            ],
            [
              0.6045677661895752,
              0.8579715490341187,
              0.31459808349609375,
              -0.6936233043670654,
              -0.8297840356826782
            ],
            [
              0.2409048080444336,
              0.3164346218109131,
              0.37062573432922363,
              0.7181130647659302,
              -0.06678879261016846
            ],
            [
              0.544237494468689,
              0.0013202871195971966,
              -0.4816446304321289,
              0.9160937070846558,
              0.056145865470170975
            ],
            [
              -0.2933105230331421,
              0.6151976585388184,
              -0.7672711610794067,
              0.4606438875198364,
              -0.8231301307678223
            ]
          ],
          "column": 5,
          "row": 5
        },
        {
          "array": [
            [
              -0.5215009450912476,
              0.24399471282958984,
              -0.6096643209457397,
              0.09022259712219238,
              0.5471041202545166
            ],
            [
              0.5145699977874756,
              -0.15019047260284424,
              0.06473040580749512,
              -0.25239288806915283,
              0.21674275398254395
            ]
          ],
          "column": 5,
          "row": 2
        }
      ]
    },
    {
      "biases": [
        {
          "array": [
            [-0.09807682037353516],
            [0.9966993927955627],
            [0.48339200019836426],
            [0.6695834398269653],
            [0.9980995059013367]
          ],
          "column": 1,
          "row": 5
        },
        {
          "array": [
            [0.9341989755630493],
            [0.387518048286438]
          ],
          "column": 1,
          "row": 2
        }
      ],
      "weights": [
        {
          "array": [
            [
              -0.43916189670562744,
              0.40456485748291016,
              0.3053436279296875,
              0.34022271633148193,
              -0.0048716068267822266
            ],
            [
              0.6045677661895752,
              0.8579715490341187,
              0.31459808349609375,
              -0.6936233043670654,
              -0.8297840356826782
            ],
            [
              0.2409048080444336,
              0.3164346218109131,
              0.37062573432922363,
              0.7181130647659302,
              -0.06678879261016846
            ],
            [
              0.544237494468689,
              0.0013202871195971966,
              -0.4816446304321289,
              0.9160937070846558,
              0.056145865470170975
            ],
            [
              -0.2933105230331421,
              0.6151976585388184,
              -0.7672711610794067,
              0.4606438875198364,
              -0.8231301307678223
            ]
          ],
          "column": 5,
          "row": 5
        },
        {
          "array": [
            [
              -0.5215009450912476,
              0.24399471282958984,
              -0.6096643209457397,
              0.09022259712219238,
              0.5471041202545166
            ],
            [
              0.5145699977874756,
              -0.15019047260284424,
              0.06473040580749512,
              -0.25239288806915283,
              0.21674275398254395
            ]
          ],
          "column": 5,
          "row": 2
        }
      ]
    },
    {
      "biases": [
        {
          "array": [
            [-0.09807682037353516],
            [0.12025666236877441],
            [0.48339200019836426],
            [0.6695834398269653],
            [0.9980995059013367]
          ],
          "column": 1,
          "row": 5
        },
        {
          "array": [
            [0.9341989755630493],
            [0.387518048286438]
          ],
          "column": 1,
          "row": 2
        }
      ],
      "weights": [
        {
          "array": [
            [
              -0.43916189670562744,
              0.40456485748291016,
              0.3053436279296875,
              0.34022271633148193,
              -0.0048716068267822266
            ],
            [
              0.6045677661895752,
              0.8579715490341187,
              0.31459808349609375,
              0.009811253286898136,
              -0.8297840356826782
            ],
            [
              0.2409048080444336,
              0.3164346218109131,
              0.37062573432922363,
              0.7181130647659302,
              -0.06678879261016846
            ],
            [
              0.544237494468689,
              -0.5272444486618042,
              -0.4816446304321289,
              0.9160937070846558,
              0.056145865470170975
            ],
            [
              -0.2933105230331421,
              0.6151976585388184,
              -0.7672711610794067,
              0.4606438875198364,
              -0.8231301307678223
            ]
          ],
          "column": 5,
          "row": 5
        },
        {
          "array": [
            [
              -0.5215009450912476,
              0.24399471282958984,
              -0.6096643209457397,
              0.09022259712219238,
              0.5471041202545166
            ],
            [
              0.5145699977874756,
              -0.15019047260284424,
              0.06473040580749512,
              -0.25239288806915283,
              0.21674275398254395
            ]
          ],
          "column": 5,
          "row": 2
        }
      ]
    },
    {
      "biases": [
        {
          "array": [
            [-0.09807682037353516],
            [0.9966993927955627],
            [0.48339200019836426],
            [0.6695834398269653],
            [0.9980995059013367]
          ],
          "column": 1,
          "row": 5
        },
        {
          "array": [
            [0.9341989755630493],
            [0.387518048286438]
          ],
          "column": 1,
          "row": 2
        }
      ],
      "weights": [
        {
          "array": [
            [
              -0.43916189670562744,
              0.40456485748291016,
              0.3053436279296875,
              0.34022271633148193,
              -0.0048716068267822266
            ],
            [
              0.6045677661895752,
              0.8579715490341187,
              0.31459808349609375,
              -0.6936233043670654,
              -0.8297840356826782
            ],
            [
              0.2409048080444336,
              0.3164346218109131,
              0.37062573432922363,
              0.7181130647659302,
              -0.06678879261016846
            ],
            [
              0.544237494468689,
              0.0013202871195971966,
              -0.4816446304321289,
              0.9160937070846558,
              0.056145865470170975
            ],
            [
              -0.2933105230331421,
              0.6151976585388184,
              -0.7672711610794067,
              0.4606438875198364,
              -0.8231301307678223
            ]
          ],
          "column": 5,
          "row": 5
        },
        {
          "array": [
            [
              -0.5215009450912476,
              0.24399471282958984,
              -0.6096643209457397,
              0.09022259712219238,
              0.5471041202545166
            ],
            [
              0.5145699977874756,
              -0.15019047260284424,
              0.06473040580749512,
              -0.25239288806915283,
              0.21674275398254395
            ]
          ],
          "column": 5,
          "row": 2
        }
      ]
    },
    {
      "biases": [
        {
          "array": [
            [-0.09807682037353516],
            [0.12025666236877441],
            [0.48339200019836426],
            [0.6695834398269653],
            [0.9980995059013367]
          ],
          "column": 1,
          "row": 5
        },
        {
          "array": [
            [0.9341989755630493],
            [0.387518048286438]
          ],
          "column": 1,
          "row": 2
        }
      ],
      "weights": [
        {
          "array": [
            [
              -0.43916189670562744,
              0.40456485748291016,
              0.3053436279296875,
              0.34022271633148193,
              -0.0048716068267822266
            ],
            [
              0.6045677661895752,
              0.8579715490341187,
              0.31459808349609375,
              -0.6936233043670654,
              -0.8297840356826782
            ],
            [
              0.2409048080444336,
              0.3164346218109131,
              0.37062573432922363,
              0.7181130647659302,
              -0.06678879261016846
            ],
            [
              0.544237494468689,
              -0.5272444486618042,
              -0.4816446304321289,
              0.9160937070846558,
              0.056145865470170975
            ],
            [
              -0.2933105230331421,
              0.6151976585388184,
              -0.7672711610794067,
              0.4606438875198364,
              -0.8231301307678223
            ]
          ],
          "column": 5,
          "row": 5
        },
        {
          "array": [
            [
              -0.5215009450912476,
              0.24399471282958984,
              -0.6096643209457397,
              0.09022259712219238,
              0.5471041202545166
            ],
            [
              0.5145699977874756,
              -0.15019047260284424,
              0.06473040580749512,
              -0.25239288806915283,
              0.21674275398254395
            ]
          ],
          "column": 5,
          "row": 2
        }
      ]
    },
    {
      "biases": [
        {
          "array": [
            [-0.09807682037353516],
            [0.12025666236877441],
            [0.48339200019836426],
            [0.6695834398269653],
            [0.9980995059013367]
          ],
          "column": 1,
          "row": 5
        },
        {
          "array": [
            [0.9341989755630493],
            [0.387518048286438]
          ],
          "column": 1,
          "row": 2
        }
      ],
      "weights": [
        {
          "array": [
            [
              -0.43916189670562744,
              0.40456485748291016,
              0.3053436279296875,
              0.34022271633148193,
              -0.0048716068267822266
            ],
            [
              0.6045677661895752,
              0.8579715490341187,
              0.31459808349609375,
              -0.6936233043670654,
              -0.8297840356826782
            ],
            [
              0.2409048080444336,
              0.3164346218109131,
              0.37062573432922363,
              0.7181130647659302,
              -0.06678879261016846
            ],
            [
              0.544237494468689,
              -0.5272444486618042,
              -0.4816446304321289,
              0.9160937070846558,
              0.056145865470170975
            ],
            [
              -0.2933105230331421,
              0.6151976585388184,
              -0.7672711610794067,
              0.4606438875198364,
              -0.8231301307678223
            ]
          ],
          "column": 5,
          "row": 5
        },
        {
          "array": [
            [
              -0.5215009450912476,
              0.24399471282958984,
              -0.6096643209457397,
              0.09022259712219238,
              0.5471041202545166
            ],
            [
              0.5145699977874756,
              -0.15019047260284424,
              0.06473040580749512,
              -0.25239288806915283,
              0.21674275398254395
            ]
          ],
          "column": 5,
          "row": 2
        }
      ]
    },
    {
      "biases": [
        {
          "array": [
            [-0.09807682037353516],
            [0.12025666236877441],
            [0.48339200019836426],
            [0.6695834398269653],
            [0.9980995059013367]
          ],
          "column": 1,
          "row": 5
        },
        {
          "array": [
            [0.9341989755630493],
            [0.387518048286438]
          ],
          "column": 1,
          "row": 2
        }
      ],
      "weights": [
        {
          "array": [
            [
              -0.43916189670562744,
              0.40456485748291016,
              0.3053436279296875,
              0.34022271633148193,
              -0.0048716068267822266
            ],
            [
              0.6045677661895752,
              0.8579715490341187,
              0.31459808349609375,
              -0.6936233043670654,
              -0.8297840356826782
            ],
            [
              0.2409048080444336,
              0.3164346218109131,
              0.37062573432922363,
              0.7181130647659302,
              -0.06678879261016846
            ],
            [
              0.544237494468689,
              -0.5272444486618042,
              -0.4816446304321289,
              0.9160937070846558,
              0.056145865470170975
            ],
            [
              -0.2933105230331421,
              0.6151976585388184,
              -0.7672711610794067,
              0.4606438875198364,
              -0.8231301307678223
            ]
          ],
          "column": 5,
          "row": 5
        },
        {
          "array": [
            [
              -0.5215009450912476,
              0.01242639496922493,
              -0.6096643209457397,
              0.09022259712219238,
              0.5471041202545166
            ],
            [
              0.5145699977874756,
              -0.15019047260284424,
              0.06473040580749512,
              -0.25239288806915283,
              0.21674275398254395
            ]
          ],
          "column": 5,
          "row": 2
        }
      ]
    },
    {
      "biases": [
        {
          "array": [
            [-0.09807682037353516],
            [0.12025666236877441],
            [0.48339200019836426],
            [0.6695834398269653],
            [0.9980995059013367]
          ],
          "column": 1,
          "row": 5
        },
        {
          "array": [
            [0.9341989755630493],
            [0.387518048286438]
          ],
          "column": 1,
          "row": 2
        }
      ],
      "weights": [
        {
          "array": [
            [
              -0.43916189670562744,
              0.40456485748291016,
              0.3053436279296875,
              0.34022271633148193,
              -0.0048716068267822266
            ],
            [
              0.6045677661895752,
              0.8579715490341187,
              0.31459808349609375,
              -0.6936233043670654,
              -0.8297840356826782
            ],
            [
              0.2409048080444336,
              0.3164346218109131,
              0.37062573432922363,
              0.7181130647659302,
              -0.06678879261016846
            ],
            [
              0.544237494468689,
              -0.5272444486618042,
              -0.4816446304321289,
              0.9160937070846558,
              0.056145865470170975
            ],
            [
              -0.2933105230331421,
              0.6151976585388184,
              -0.7672711610794067,
              0.4606438875198364,
              -0.8231301307678223
            ]
          ],
          "column": 5,
          "row": 5
        },
        {
          "array": [
            [
              -0.5215009450912476,
              0.24399471282958984,
              -0.6096643209457397,
              0.09022259712219238,
              0.5471041202545166
            ],
            [
              0.5145699977874756,
              -0.15019047260284424,
              0.06473040580749512,
              -0.25239288806915283,
              0.3672785460948944
            ]
          ],
          "column": 5,
          "row": 2
        }
      ]
    },
    {
      "biases": [
        {
          "array": [
            [-0.09807682037353516],
            [0.12025666236877441],
            [0.48339200019836426],
            [0.6015693545341492],
            [0.9980995059013367]
          ],
          "column": 1,
          "row": 5
        },
        {
          "array": [
            [0.9341989755630493],
            [0.387518048286438]
          ],
          "column": 1,
          "row": 2
        }
      ],
      "weights": [
        {
          "array": [
            [
              -0.43916189670562744,
              0.40456485748291016,
              0.3053436279296875,
              0.34022271633148193,
              -0.0048716068267822266
            ],
            [
              0.6045677661895752,
              0.8579715490341187,
              0.31459808349609375,
              -0.6936233043670654,
              -0.8297840356826782
            ],
            [
              0.2409048080444336,
              0.3164346218109131,
              0.37062573432922363,
              0.7181130647659302,
              -0.06678879261016846
            ],
            [
              0.544237494468689,
              -0.5272444486618042,
              -0.4816446304321289,
              0.9160937070846558,
              0.056145865470170975
            ],
            [
              -0.2933105230331421,
              0.6151976585388184,
              -0.7672711610794067,
              0.4606438875198364,
              -0.8231301307678223
            ]
          ],
          "column": 5,
          "row": 5
        },
        {
          "array": [
            [
              -0.5215009450912476,
              0.01242639496922493,
              -0.6096643209457397,
              0.09022259712219238,
              0.5471041202545166
            ],
            [
              0.5145699977874756,
              -0.15019047260284424,
              0.06473040580749512,
              -0.25239288806915283,
              0.21674275398254395
            ]
          ],
          "column": 5,
          "row": 2
        }
      ]
    },
    {
      "biases": [
        {
          "array": [
            [-0.09807682037353516],
            [0.12025666236877441],
            [0.9158225059509277],
            [0.6695834398269653],
            [0.9980995059013367]
          ],
          "column": 1,
          "row": 5
        },
        {
          "array": [
            [0.9341989755630493],
            [0.387518048286438]
          ],
          "column": 1,
          "row": 2
        }
      ],
      "weights": [
        {
          "array": [
            [
              -0.43916189670562744,
              0.40456485748291016,
              0.3053436279296875,
              0.34022271633148193,
              -0.0048716068267822266
            ],
            [
              0.6045677661895752,
              0.8579715490341187,
              0.31459808349609375,
              -0.6936233043670654,
              -0.8297840356826782
            ],
            [
              0.2409048080444336,
              0.3164346218109131,
              0.37062573432922363,
              0.7181130647659302,
              -0.06678879261016846
            ],
            [
              0.544237494468689,
              -0.5272444486618042,
              -0.4816446304321289,
              0.9160937070846558,
              0.056145865470170975
            ],
            [
              -0.2933105230331421,
              0.6151976585388184,
              -0.7672711610794067,
              0.4606438875198364,
              -0.8231301307678223
            ]
          ],
          "column": 5,
          "row": 5
        },
        {
          "array": [
            [
              -0.5215009450912476,
              0.24399471282958984,
              -0.6096643209457397,
              0.09022259712219238,
              0.5471041202545166
            ],
            [
              0.5145699977874756,
              -0.15019047260284424,
              0.06473040580749512,
              -0.25239288806915283,
              0.21674275398254395
            ]
          ],
          "column": 5,
          "row": 2
        }
      ]
    },
    {
      "biases": [
        {
          "array": [
            [-0.09807682037353516],
            [0.12025666236877441],
            [0.48339200019836426],
            [0.6695834398269653],
            [0.9980995059013367]
          ],
          "column": 1,
          "row": 5
        },
        {
          "array": [
            [0.9341989755630493],
            [0.387518048286438]
          ],
          "column": 1,
          "row": 2
        }
      ],
      "weights": [
        {
          "array": [
            [
              -0.43916189670562744,
              0.40456485748291016,
              0.3053436279296875,
              0.34022271633148193,
              -0.0048716068267822266
            ],
            [
              0.6045677661895752,
              0.8579715490341187,
              0.31459808349609375,
              -0.6936233043670654,
              -0.8297840356826782
            ],
            [
              0.2409048080444336,
              0.3164346218109131,
              0.37062573432922363,
              0.7181130647659302,
              -0.06678879261016846
            ],
            [
              0.544237494468689,
              -0.5272444486618042,
              -0.4816446304321289,
              0.9160937070846558,
              0.056145865470170975
            ],
            [
              -0.2933105230331421,
              0.6151976585388184,
              -0.7672711610794067,
              0.4606438875198364,
              -0.8231301307678223
            ]
          ],
          "column": 5,
          "row": 5
        },
        {
          "array": [
            [
              -0.5215009450912476,
              0.01242639496922493,
              -0.6096643209457397,
              0.09022259712219238,
              0.5471041202545166
            ],
            [
              0.5145699977874756,
              -0.15019047260284424,
              0.06473040580749512,
              -0.25239288806915283,
              0.21674275398254395
            ]
          ],
          "column": 5,
          "row": 2
        }
      ]
    },
    {
      "biases": [
        {
          "array": [
            [-0.09807682037353516],
            [0.12025666236877441],
            [0.48339200019836426],
            [0.6695834398269653],
            [0.9980995059013367]
          ],
          "column": 1,
          "row": 5
        },
        {
          "array": [
            [0.9341989755630493],
            [0.387518048286438]
          ],
          "column": 1,
          "row": 2
        }
      ],
      "weights": [
        {
          "array": [
            [
              -0.43916189670562744,
              0.40456485748291016,
              0.3053436279296875,
              0.34022271633148193,
              -0.0048716068267822266
            ],
            [
              0.6045677661895752,
              0.8579715490341187,
              0.31459808349609375,
              -0.6936233043670654,
              -0.8297840356826782
            ],
            [
              0.2409048080444336,
              0.3164346218109131,
              0.37062573432922363,
              0.7181130647659302,
              -0.06678879261016846
            ],
            [
              0.544237494468689,
              -0.5272444486618042,
              -0.4816446304321289,
              0.9160937070846558,
              0.056145865470170975
            ],
            [
              -0.2933105230331421,
              0.6151976585388184,
              -0.7672711610794067,
              0.4606438875198364,
              -0.8231301307678223
            ]
          ],
          "column": 5,
          "row": 5
        },
        {
          "array": [
            [
              -0.5215009450912476,
              0.24399471282958984,
              -0.6096643209457397,
              0.09022259712219238,
              0.5471041202545166
            ],
            [
              0.5145699977874756,
              -0.15019047260284424,
              0.06473040580749512,
              -0.25239288806915283,
              0.21674275398254395
            ]
          ],
          "column": 5,
          "row": 2
        }
      ]
    },
    {
      "biases": [
        {
          "array": [
            [-0.09807682037353516],
            [0.9966993927955627],
            [0.48339200019836426],
            [0.6695834398269653],
            [0.9980995059013367]
          ],
          "column": 1,
          "row": 5
        },
        {
          "array": [
            [0.9341989755630493],
            [0.387518048286438]
          ],
          "column": 1,
          "row": 2
        }
      ],
      "weights": [
        {
          "array": [
            [
              -0.43916189670562744,
              0.40456485748291016,
              0.3053436279296875,
              0.34022271633148193,
              -0.0048716068267822266
            ],
            [
              0.6045677661895752,
              0.8579715490341187,
              0.31459808349609375,
              -0.6936233043670654,
              -0.8297840356826782
            ],
            [
              0.2409048080444336,
              0.3164346218109131,
              0.37062573432922363,
              0.7181130647659302,
              -0.06678879261016846
            ],
            [
              0.544237494468689,
              0.0013202871195971966,
              -0.4816446304321289,
              0.9160937070846558,
              0.056145865470170975
            ],
            [
              -0.2933105230331421,
              0.6151976585388184,
              -0.7672711610794067,
              0.4606438875198364,
              -0.8231301307678223
            ]
          ],
          "column": 5,
          "row": 5
        },
        {
          "array": [
            [
              -0.5215009450912476,
              0.24399471282958984,
              -0.6096643209457397,
              0.09022259712219238,
              0.5471041202545166
            ],
            [
              0.5145699977874756,
              -0.15019047260284424,
              0.06473040580749512,
              -0.25239288806915283,
              0.21674275398254395
            ]
          ],
          "column": 5,
          "row": 2
        }
      ]
    },
    {
      "biases": [
        {
          "array": [
            [-0.09807682037353516],
            [0.12025666236877441],
            [0.48339200019836426],
            [0.6695834398269653],
            [0.9980995059013367]
          ],
          "column": 1,
          "row": 5
        },
        {
          "array": [
            [0.9341989755630493],
            [0.387518048286438]
          ],
          "column": 1,
          "row": 2
        }
      ],
      "weights": [
        {
          "array": [
            [
              -0.43916189670562744,
              0.40456485748291016,
              0.3053436279296875,
              0.34022271633148193,
              -0.0048716068267822266
            ],
            [
              0.6045677661895752,
              0.8579715490341187,
              0.31459808349609375,
              -0.6936233043670654,
              -0.8297840356826782
            ],
            [
              0.2409048080444336,
              0.3164346218109131,
              0.37062573432922363,
              0.7181130647659302,
              -0.06678879261016846
            ],
            [
              0.544237494468689,
              -0.5272444486618042,
              -0.4816446304321289,
              0.9160937070846558,
              0.056145865470170975
            ],
            [
              -0.2933105230331421,
              0.6151976585388184,
              -0.7672711610794067,
              0.4606438875198364,
              -0.8231301307678223
            ]
          ],
          "column": 5,
          "row": 5
        },
        {
          "array": [
            [
              -0.5215009450912476,
              0.01242639496922493,
              -0.6096643209457397,
              0.09022259712219238,
              0.5471041202545166
            ],
            [
              0.5145699977874756,
              -0.15019047260284424,
              0.06473040580749512,
              -0.25239288806915283,
              0.21674275398254395
            ]
          ],
          "column": 5,
          "row": 2
        }
      ]
    },
    {
      "biases": [
        {
          "array": [
            [-0.09807682037353516],
            [0.9966993927955627],
            [0.48339200019836426],
            [0.6695834398269653],
            [0.9980995059013367]
          ],
          "column": 1,
          "row": 5
        },
        {
          "array": [
            [0.9341989755630493],
            [0.387518048286438]
          ],
          "column": 1,
          "row": 2
        }
      ],
      "weights": [
        {
          "array": [
            [
              -0.43916189670562744,
              0.40456485748291016,
              0.3053436279296875,
              0.34022271633148193,
              -0.0048716068267822266
            ],
            [
              0.6045677661895752,
              0.8579715490341187,
              0.31459808349609375,
              -0.6936233043670654,
              -0.8297840356826782
            ],
            [
              0.2409048080444336,
              0.3164346218109131,
              0.37062573432922363,
              0.7181130647659302,
              -0.06678879261016846
            ],
            [
              0.544237494468689,
              0.0013202871195971966,
              -0.4816446304321289,
              0.9160937070846558,
              0.056145865470170975
            ],
            [
              -0.2933105230331421,
              0.6151976585388184,
              -0.7672711610794067,
              0.4606438875198364,
              -0.8231301307678223
            ]
          ],
          "column": 5,
          "row": 5
        },
        {
          "array": [
            [
              -0.5215009450912476,
              0.24399471282958984,
              -0.6096643209457397,
              0.09022259712219238,
              0.5471041202545166
            ],
            [
              0.5145699977874756,
              -0.15019047260284424,
              0.06473040580749512,
              -0.25239288806915283,
              0.21674275398254395
            ]
          ],
          "column": 5,
          "row": 2
        }
      ]
    },
    {
      "biases": [
        {
          "array": [
            [-0.09807682037353516],
            [0.12025666236877441],
            [0.48339200019836426],
            [0.6695834398269653],
            [0.9980995059013367]
          ],
          "column": 1,
          "row": 5
        },
        {
          "array": [
            [0.9341989755630493],
            [0.387518048286438]
          ],
          "column": 1,
          "row": 2
        }
      ],
      "weights": [
        {
          "array": [
            [
              -0.43916189670562744,
              0.40456485748291016,
              0.3053436279296875,
              0.34022271633148193,
              -0.0048716068267822266
            ],
            [
              0.6045677661895752,
              0.8579715490341187,
              0.31459808349609375,
              -0.6936233043670654,
              -0.8297840356826782
            ],
            [
              0.2409048080444336,
              0.3164346218109131,
              0.37062573432922363,
              0.7181130647659302,
              -0.06678879261016846
            ],
            [
              0.544237494468689,
              -0.5272444486618042,
              -0.4816446304321289,
              0.9160937070846558,
              0.056145865470170975
            ],
            [
              -0.2933105230331421,
              0.6151976585388184,
              -0.7672711610794067,
              0.4606438875198364,
              -0.8231301307678223
            ]
          ],
          "column": 5,
          "row": 5
        },
        {
          "array": [
            [
              -0.5215009450912476,
              0.24399471282958984,
              -0.6096643209457397,
              0.09022259712219238,
              0.5471041202545166
            ],
            [
              0.5145699977874756,
              -0.15019047260284424,
              0.06473040580749512,
              -0.25239288806915283,
              0.21674275398254395
            ]
          ],
          "column": 5,
          "row": 2
        }
      ]
    },
    {
      "biases": [
        {
          "array": [
            [-0.09807682037353516],
            [0.12025666236877441],
            [0.48339200019836426],
            [0.6695834398269653],
            [0.9980995059013367]
          ],
          "column": 1,
          "row": 5
        },
        {
          "array": [
            [0.9341989755630493],
            [0.387518048286438]
          ],
          "column": 1,
          "row": 2
        }
      ],
      "weights": [
        {
          "array": [
            [
              -0.43916189670562744,
              0.40456485748291016,
              0.3053436279296875,
              0.34022271633148193,
              -0.0048716068267822266
            ],
            [
              0.6045677661895752,
              0.8579715490341187,
              0.31459808349609375,
              -0.6936233043670654,
              -0.8297840356826782
            ],
            [
              0.2409048080444336,
              0.3164346218109131,
              0.37062573432922363,
              0.7181130647659302,
              -0.06678879261016846
            ],
            [
              0.544237494468689,
              -0.5272444486618042,
              -0.4816446304321289,
              0.9160937070846558,
              0.056145865470170975
            ],
            [
              -0.2933105230331421,
              0.6151976585388184,
              -0.7672711610794067,
              0.4606438875198364,
              -0.8231301307678223
            ]
          ],
          "column": 5,
          "row": 5
        },
        {
          "array": [
            [
              -0.5215009450912476,
              0.24399471282958984,
              -0.6096643209457397,
              0.09022259712219238,
              0.5471041202545166
            ],
            [
              0.5145699977874756,
              -0.15019047260284424,
              0.06473040580749512,
              -0.25239288806915283,
              0.21674275398254395
            ]
          ],
          "column": 5,
          "row": 2
        }
      ]
    },
    {
      "biases": [
        {
          "array": [
            [-0.09807682037353516],
            [0.12025666236877441],
            [0.48339200019836426],
            [0.6695834398269653],
            [0.9980995059013367]
          ],
          "column": 1,
          "row": 5
        },
        {
          "array": [
            [0.9341989755630493],
            [0.9021846055984497]
          ],
          "column": 1,
          "row": 2
        }
      ],
      "weights": [
        {
          "array": [
            [
              -0.43916189670562744,
              0.40456485748291016,
              0.3053436279296875,
              0.34022271633148193,
              0.8815962672233582
            ],
            [
              0.6045677661895752,
              0.8579715490341187,
              0.31459808349609375,
              -0.6936233043670654,
              -0.8297840356826782
            ],
            [
              0.2409048080444336,
              0.3164346218109131,
              0.37062573432922363,
              0.7181130647659302,
              -0.06678879261016846
            ],
            [
              0.544237494468689,
              -0.5272444486618042,
              -0.4816446304321289,
              0.9160937070846558,
              0.056145865470170975
            ],
            [
              -0.2933105230331421,
              0.6151976585388184,
              -0.7672711610794067,
              0.4606438875198364,
              -0.8231301307678223
            ]
          ],
          "column": 5,
          "row": 5
        },
        {
          "array": [
            [
              -0.5215009450912476,
              0.24399471282958984,
              -0.6096643209457397,
              0.09022259712219238,
              0.5471041202545166
            ],
            [
              0.5145699977874756,
              -0.15019047260284424,
              0.06473040580749512,
              -0.25239288806915283,
              0.21674275398254395
            ]
          ],
          "column": 5,
          "row": 2
        }
      ]
    },
    {
      "biases": [
        {
          "array": [
            [-0.09807682037353516],
            [0.9966993927955627],
            [0.48339200019836426],
            [0.6695834398269653],
            [0.9980995059013367]
          ],
          "column": 1,
          "row": 5
        },
        {
          "array": [
            [0.9341989755630493],
            [0.387518048286438]
          ],
          "column": 1,
          "row": 2
        }
      ],
      "weights": [
        {
          "array": [
            [
              -0.43916189670562744,
              0.40456485748291016,
              0.3053436279296875,
              0.34022271633148193,
              -0.0048716068267822266
            ],
            [
              0.6045677661895752,
              0.8579715490341187,
              0.31459808349609375,
              -0.6936233043670654,
              -0.8297840356826782
            ],
            [
              0.2409048080444336,
              0.3164346218109131,
              0.37062573432922363,
              0.7181130647659302,
              -0.06678879261016846
            ],
            [
              0.544237494468689,
              0.0013202871195971966,
              -0.4816446304321289,
              0.9160937070846558,
              0.056145865470170975
            ],
            [
              -0.2933105230331421,
              0.6151976585388184,
              -0.7672711610794067,
              0.4606438875198364,
              -0.8231301307678223
            ]
          ],
          "column": 5,
          "row": 5
        },
        {
          "array": [
            [
              -0.5215009450912476,
              0.24399471282958984,
              -0.6096643209457397,
              0.09022259712219238,
              0.5471041202545166
            ],
            [
              0.5145699977874756,
              -0.15019047260284424,
              0.06473040580749512,
              0.9962582588195801,
              0.21674275398254395
            ]
          ],
          "column": 5,
          "row": 2
        }
      ]
    },
    {
      "biases": [
        {
          "array": [
            [-0.09807682037353516],
            [0.12025666236877441],
            [0.48339200019836426],
            [0.6695834398269653],
            [0.9980995059013367]
          ],
          "column": 1,
          "row": 5
        },
        {
          "array": [
            [0.9341989755630493],
            [0.387518048286438]
          ],
          "column": 1,
          "row": 2
        }
      ],
      "weights": [
        {
          "array": [
            [
              -0.43916189670562744,
              0.40456485748291016,
              0.3053436279296875,
              0.34022271633148193,
              -0.0048716068267822266
            ],
            [
              0.6045677661895752,
              0.8579715490341187,
              0.31459808349609375,
              -0.6936233043670654,
              -0.8297840356826782
            ],
            [
              0.2409048080444336,
              0.3164346218109131,
              0.37062573432922363,
              0.7181130647659302,
              -0.06678879261016846
            ],
            [
              0.544237494468689,
              -0.5272444486618042,
              -0.4816446304321289,
              0.9160937070846558,
              0.056145865470170975
            ],
            [
              -0.2933105230331421,
              0.6151976585388184,
              -0.7672711610794067,
              0.4606438875198364,
              -0.8231301307678223
            ]
          ],
          "column": 5,
          "row": 5
        },
        {
          "array": [
            [
              -0.5215009450912476,
              0.24399471282958984,
              -0.6096643209457397,
              0.09022259712219238,
              0.5471041202545166
            ],
            [
              0.5145699977874756,
              -0.15019047260284424,
              0.06473040580749512,
              -0.25239288806915283,
              0.004105085972696543
            ]
          ],
          "column": 5,
          "row": 2
        }
      ]
    },
    {
      "biases": [
        {
          "array": [
            [-0.09807682037353516],
            [0.12025666236877441],
            [0.48339200019836426],
            [0.6695834398269653],
            [0.9980995059013367]
          ],
          "column": 1,
          "row": 5
        },
        {
          "array": [
            [0.9341989755630493],
            [0.387518048286438]
          ],
          "column": 1,
          "row": 2
        }
      ],
      "weights": [
        {
          "array": [
            [
              -0.43916189670562744,
              0.40456485748291016,
              0.3053436279296875,
              0.34022271633148193,
              -0.0048716068267822266
            ],
            [
              0.6045677661895752,
              0.8579715490341187,
              0.31459808349609375,
              -0.6936233043670654,
              -0.8297840356826782
            ],
            [
              0.2409048080444336,
              0.3164346218109131,
              0.37062573432922363,
              0.7181130647659302,
              -0.06678879261016846
            ],
            [
              0.544237494468689,
              -0.5272444486618042,
              -0.4816446304321289,
              0.959540605545044,
              0.056145865470170975
            ],
            [
              -0.2933105230331421,
              0.6151976585388184,
              -0.7672711610794067,
              0.4606438875198364,
              -0.8231301307678223
            ]
          ],
          "column": 5,
          "row": 5
        },
        {
          "array": [
            [
              -0.5215009450912476,
              0.01242639496922493,
              -0.6096643209457397,
              0.09022259712219238,
              0.5471041202545166
            ],
            [
              0.5145699977874756,
              -0.15019047260284424,
              0.06473040580749512,
              -0.25239288806915283,
              0.21674275398254395
            ]
          ],
          "column": 5,
          "row": 2
        }
      ]
    },
    {
      "biases": [
        {
          "array": [
            [-0.09807682037353516],
            [0.12025666236877441],
            [0.48339200019836426],
            [0.6695834398269653],
            [0.9980995059013367]
          ],
          "column": 1,
          "row": 5
        },
        {
          "array": [
            [0.9341989755630493],
            [0.387518048286438]
          ],
          "column": 1,
          "row": 2
        }
      ],
      "weights": [
        {
          "array": [
            [
              -0.43916189670562744,
              0.40456485748291016,
              0.3053436279296875,
              0.34022271633148193,
              -0.0048716068267822266
            ],
            [
              0.6045677661895752,
              0.8579715490341187,
              0.31459808349609375,
              -0.6936233043670654,
              -0.8297840356826782
            ],
            [
              0.2409048080444336,
              0.3164346218109131,
              0.37062573432922363,
              0.7181130647659302,
              -0.06678879261016846
            ],
            [
              0.544237494468689,
              -0.5272444486618042,
              -0.4816446304321289,
              0.9160937070846558,
              0.056145865470170975
            ],
            [
              -0.2933105230331421,
              0.6151976585388184,
              -0.7672711610794067,
              0.4606438875198364,
              -0.8231301307678223
            ]
          ],
          "column": 5,
          "row": 5
        },
        {
          "array": [
            [
              -0.5215009450912476,
              0.01242639496922493,
              -0.6096643209457397,
              0.09022259712219238,
              0.5471041202545166
            ],
            [
              0.5145699977874756,
              -0.15019047260284424,
              0.06473040580749512,
              -0.25239288806915283,
              0.21674275398254395
            ]
          ],
          "column": 5,
          "row": 2
        }
      ]
    },
    {
      "biases": [
        {
          "array": [
            [-0.09807682037353516],
            [0.12025666236877441],
            [0.48339200019836426],
            [0.6695834398269653],
            [0.9980995059013367]
          ],
          "column": 1,
          "row": 5
        },
        {
          "array": [
            [0.9341989755630493],
            [0.387518048286438]
          ],
          "column": 1,
          "row": 2
        }
      ],
      "weights": [
        {
          "array": [
            [
              -0.43916189670562744,
              0.40456485748291016,
              0.3053436279296875,
              0.34022271633148193,
              -0.0048716068267822266
            ],
            [
              0.6045677661895752,
              0.8579715490341187,
              0.31459808349609375,
              -0.6936233043670654,
              -0.8297840356826782
            ],
            [
              0.2409048080444336,
              0.3164346218109131,
              0.37062573432922363,
              0.7181130647659302,
              -0.06678879261016846
            ],
            [
              0.544237494468689,
              -0.5272444486618042,
              -0.4816446304321289,
              0.9160937070846558,
              0.056145865470170975
            ],
            [
              -0.2933105230331421,
              0.6151976585388184,
              -0.7672711610794067,
              0.4606438875198364,
              -0.8231301307678223
            ]
          ],
          "column": 5,
          "row": 5
        },
        {
          "array": [
            [
              -0.5215009450912476,
              0.24399471282958984,
              -0.6096643209457397,
              0.09022259712219238,
              0.5471041202545166
            ],
            [
              0.5145699977874756,
              -0.15019047260284424,
              0.06473040580749512,
              -0.25239288806915283,
              0.21674275398254395
            ]
          ],
          "column": 5,
          "row": 2
        }
      ]
    },
    {
      "biases": [
        {
          "array": [
            [-0.09807682037353516],
            [0.12025666236877441],
            [0.48339200019836426],
            [0.6695834398269653],
            [0.9980995059013367]
          ],
          "column": 1,
          "row": 5
        },
        {
          "array": [
            [0.9341989755630493],
            [0.387518048286438]
          ],
          "column": 1,
          "row": 2
        }
      ],
      "weights": [
        {
          "array": [
            [
              -0.43916189670562744,
              0.40456485748291016,
              0.3053436279296875,
              0.34022271633148193,
              -0.0048716068267822266
            ],
            [
              0.6045677661895752,
              0.8579715490341187,
              0.31459808349609375,
              -0.6936233043670654,
              -0.8297840356826782
            ],
            [
              0.2409048080444336,
              0.3164346218109131,
              0.37062573432922363,
              0.7181130647659302,
              -0.06678879261016846
            ],
            [
              0.544237494468689,
              -0.5272444486618042,
              0.8805416822433472,
              0.9160937070846558,
              0.056145865470170975
            ],
            [
              -0.2933105230331421,
              0.6151976585388184,
              -0.7672711610794067,
              0.4606438875198364,
              -0.8231301307678223
            ]
          ],
          "column": 5,
          "row": 5
        },
        {
          "array": [
            [
              -0.5215009450912476,
              0.24399471282958984,
              -0.6096643209457397,
              0.09022259712219238,
              0.5471041202545166
            ],
            [
              0.5145699977874756,
              -0.15019047260284424,
              0.06473040580749512,
              -0.25239288806915283,
              0.21674275398254395
            ]
          ],
          "column": 5,
          "row": 2
        }
      ]
    },
    {
      "biases": [
        {
          "array": [
            [-0.09807682037353516],
            [0.12025666236877441],
            [0.48339200019836426],
            [0.6695834398269653],
            [0.9980995059013367]
          ],
          "column": 1,
          "row": 5
        },
        {
          "array": [
            [0.9341989755630493],
            [0.387518048286438]
          ],
          "column": 1,
          "row": 2
        }
      ],
      "weights": [
        {
          "array": [
            [
              -0.43916189670562744,
              0.40456485748291016,
              0.3053436279296875,
              0.34022271633148193,
              -0.0048716068267822266
            ],
            [
              0.6045677661895752,
              0.8579715490341187,
              0.31459808349609375,
              -0.6936233043670654,
              -0.8297840356826782
            ],
            [
              0.2409048080444336,
              0.3164346218109131,
              0.37062573432922363,
              0.7181130647659302,
              -0.06678879261016846
            ],
            [
              0.544237494468689,
              -0.5272444486618042,
              -0.4816446304321289,
              0.9160937070846558,
              0.056145865470170975
            ],
            [
              -0.2933105230331421,
              0.6151976585388184,
              -0.7672711610794067,
              0.4606438875198364,
              -0.8231301307678223
            ]
          ],
          "column": 5,
          "row": 5
        },
        {
          "array": [
            [
              -0.5215009450912476,
              0.24399471282958984,
              -0.6096643209457397,
              0.09022259712219238,
              0.5471041202545166
            ],
            [
              0.5145699977874756,
              -0.15019047260284424,
              0.06473040580749512,
              -0.25239288806915283,
              0.21674275398254395
            ]
          ],
          "column": 5,
          "row": 2
        }
      ]
    },
    {
      "biases": [
        {
          "array": [
            [-0.09807682037353516],
            [0.12025666236877441],
            [0.48339200019836426],
            [0.6695834398269653],
            [0.9980995059013367]
          ],
          "column": 1,
          "row": 5
        },
        {
          "array": [
            [0.9341989755630493],
            [0.387518048286438]
          ],
          "column": 1,
          "row": 2
        }
      ],
      "weights": [
        {
          "array": [
            [
              -0.43916189670562744,
              0.40456485748291016,
              0.3053436279296875,
              0.34022271633148193,
              -0.0048716068267822266
            ],
            [
              0.6045677661895752,
              0.8579715490341187,
              0.31459808349609375,
              -0.6936233043670654,
              -0.8297840356826782
            ],
            [
              0.2409048080444336,
              0.3164346218109131,
              0.37062573432922363,
              0.7181130647659302,
              -0.06678879261016846
            ],
            [
              0.544237494468689,
              -0.5272444486618042,
              -0.4816446304321289,
              0.9160937070846558,
              0.056145865470170975
            ],
            [
              -0.2933105230331421,
              0.6151976585388184,
              -0.7672711610794067,
              0.4606438875198364,
              -0.8231301307678223
            ]
          ],
          "column": 5,
          "row": 5
        },
        {
          "array": [
            [
              -0.5215009450912476,
              0.24399471282958984,
              -0.6096643209457397,
              0.09022259712219238,
              0.5471041202545166
            ],
            [
              0.5145699977874756,
              -0.15019047260284424,
              0.06473040580749512,
              -0.25239288806915283,
              0.21674275398254395
            ]
          ],
          "column": 5,
          "row": 2
        }
      ]
    },
    {
      "biases": [
        {
          "array": [
            [0.013843134045600891],
            [0.12025666236877441],
            [0.48339200019836426],
            [0.6695834398269653],
            [0.9980995059013367]
          ],
          "column": 1,
          "row": 5
        },
        {
          "array": [
            [0.9341989755630493],
            [0.387518048286438]
          ],
          "column": 1,
          "row": 2
        }
      ],
      "weights": [
        {
          "array": [
            [
              -0.43916189670562744,
              0.40456485748291016,
              0.3053436279296875,
              0.34022271633148193,
              -0.0048716068267822266
            ],
            [
              0.6045677661895752,
              0.8579715490341187,
              0.31459808349609375,
              -0.6936233043670654,
              -0.8297840356826782
            ],
            [
              0.2409048080444336,
              0.3164346218109131,
              0.37062573432922363,
              0.7181130647659302,
              -0.06678879261016846
            ],
            [
              0.544237494468689,
              -0.5272444486618042,
              -0.4816446304321289,
              0.9160937070846558,
              0.056145865470170975
            ],
            [
              -0.2933105230331421,
              0.6151976585388184,
              -0.7672711610794067,
              0.4606438875198364,
              -0.8231301307678223
            ]
          ],
          "column": 5,
          "row": 5
        },
        {
          "array": [
            [
              -0.5215009450912476,
              0.24399471282958984,
              -0.6096643209457397,
              0.09022259712219238,
              0.5471041202545166
            ],
            [
              0.5145699977874756,
              -0.15019047260284424,
              0.06473040580749512,
              -0.25239288806915283,
              0.21674275398254395
            ]
          ],
          "column": 5,
          "row": 2
        }
      ]
    },
    {
      "biases": [
        {
          "array": [
            [-0.09807682037353516],
            [0.12025666236877441],
            [0.48339200019836426],
            [0.6695834398269653],
            [0.9980995059013367]
          ],
          "column": 1,
          "row": 5
        },
        {
          "array": [
            [0.9341989755630493],
            [0.06988869607448578]
          ],
          "column": 1,
          "row": 2
        }
      ],
      "weights": [
        {
          "array": [
            [
              -0.43916189670562744,
              0.40456485748291016,
              0.3053436279296875,
              0.34022271633148193,
              -0.0048716068267822266
            ],
            [
              0.6045677661895752,
              0.9989230036735535,
              0.31459808349609375,
              -0.6936233043670654,
              -0.8297840356826782
            ],
            [
              0.2409048080444336,
              0.3164346218109131,
              0.37062573432922363,
              0.7181130647659302,
              -0.06678879261016846
            ],
            [
              0.544237494468689,
              -0.5272444486618042,
              0.9960359930992126,
              0.9160937070846558,
              0.056145865470170975
            ],
            [
              -0.2933105230331421,
              0.6151976585388184,
              -0.7672711610794067,
              0.4606438875198364,
              -0.8231301307678223
            ]
          ],
          "column": 5,
          "row": 5
        },
        {
          "array": [
            [
              -0.5215009450912476,
              0.24399471282958984,
              -0.6096643209457397,
              0.09022259712219238,
              0.9971194267272949
            ],
            [
              0.5145699977874756,
              -0.15019047260284424,
              0.06473040580749512,
              -0.25239288806915283,
              0.21674275398254395
            ]
          ],
          "column": 5,
          "row": 2
        }
      ]
    },
    {
      "biases": [
        {
          "array": [
            [-0.09807682037353516],
            [0.12025666236877441],
            [0.48339200019836426],
            [0.6695834398269653],
            [0.9980995059013367]
          ],
          "column": 1,
          "row": 5
        },
        {
          "array": [
            [0.9341989755630493],
            [0.387518048286438]
          ],
          "column": 1,
          "row": 2
        }
      ],
      "weights": [
        {
          "array": [
            [
              -0.43916189670562744,
              0.40456485748291016,
              0.3053436279296875,
              0.34022271633148193,
              -0.0048716068267822266
            ],
            [
              0.6045677661895752,
              0.8579715490341187,
              0.31459808349609375,
              -0.6936233043670654,
              -0.8297840356826782
            ],
            [
              0.2409048080444336,
              0.3164346218109131,
              0.37062573432922363,
              0.7181130647659302,
              -0.06678879261016846
            ],
            [
              0.544237494468689,
              -0.5272444486618042,
              -0.4816446304321289,
              0.9160937070846558,
              0.056145865470170975
            ],
            [
              -0.2933105230331421,
              0.6151976585388184,
              -0.7672711610794067,
              0.4606438875198364,
              -0.8231301307678223
            ]
          ],
          "column": 5,
          "row": 5
        },
        {
          "array": [
            [
              -0.5215009450912476,
              0.24399471282958984,
              -0.6096643209457397,
              0.09022259712219238,
              0.5471041202545166
            ],
            [
              0.5145699977874756,
              -0.15019047260284424,
              0.06473040580749512,
              -0.25239288806915283,
              0.21674275398254395
            ]
          ],
          "column": 5,
          "row": 2
        }
      ]
    },
    {
      "biases": [
        {
          "array": [
            [-0.09807682037353516],
            [0.12025666236877441],
            [0.48339200019836426],
            [0.6695834398269653],
            [0.9980995059013367]
          ],
          "column": 1,
          "row": 5
        },
        {
          "array": [
            [0.9341989755630493],
            [0.387518048286438]
          ],
          "column": 1,
          "row": 2
        }
      ],
      "weights": [
        {
          "array": [
            [
              -0.43916189670562744,
              0.40456485748291016,
              0.3053436279296875,
              0.34022271633148193,
              -0.0048716068267822266
            ],
            [
              0.6045677661895752,
              0.8579715490341187,
              0.31459808349609375,
              0.8661877512931824,
              -0.8297840356826782
            ],
            [
              0.2409048080444336,
              0.3164346218109131,
              0.002136687748134136,
              0.7181130647659302,
              -0.06678879261016846
            ],
            [
              0.544237494468689,
              -0.5272444486618042,
              -0.4816446304321289,
              0.9160937070846558,
              0.056145865470170975
            ],
            [
              -0.2933105230331421,
              0.6151976585388184,
              -0.7672711610794067,
              0.4606438875198364,
              -0.8231301307678223
            ]
          ],
          "column": 5,
          "row": 5
        },
        {
          "array": [
            [
              -0.5215009450912476,
              0.24399471282958984,
              -0.6096643209457397,
              0.09022259712219238,
              0.5471041202545166
            ],
            [
              0.5145699977874756,
              -0.15019047260284424,
              0.06473040580749512,
              -0.25239288806915283,
              0.3672785460948944
            ]
          ],
          "column": 5,
          "row": 2
        }
      ]
    },
    {
      "biases": [
        {
          "array": [
            [-0.09807682037353516],
            [0.9966993927955627],
            [0.48339200019836426],
            [0.6695834398269653],
            [0.9980995059013367]
          ],
          "column": 1,
          "row": 5
        },
        {
          "array": [
            [0.9341989755630493],
            [0.387518048286438]
          ],
          "column": 1,
          "row": 2
        }
      ],
      "weights": [
        {
          "array": [
            [
              -0.43916189670562744,
              0.40456485748291016,
              0.3053436279296875,
              0.34022271633148193,
              -0.0048716068267822266
            ],
            [
              0.6045677661895752,
              0.8579715490341187,
              0.015638437122106552,
              -0.6936233043670654,
              -0.8297840356826782
            ],
            [
              0.2409048080444336,
