{
  "generation": 16,
  "brains": [
    {
      "biases": [
        {
          "array": [
            [-0.09807682037353516],
            [0.12025666236877441],
            [0.48339200019836426],
            [0.6695834398269653],
            [0.9980995059013367]
          ],
          "column": 1,
          "row": 5
        },
        {
          "array": [
            [0.9341989755630493],
            [0.387518048286438]
          ],
          "column": 1,
          "row": 2
        }
      ],
      "weights": [
        {
          "array": [
            [
              -0.43916189670562744,
              0.40456485748291016,
              0.3053436279296875,
              0.34022271633148193,
              -0.0048716068267822266
            ],
            [
              0.6045677661895752,
              0.8579715490341187,
              0.31459808349609375,
              -0.6936233043670654,
              -0.8297840356826782
            ],
            [
              0.2409048080444336,
              0.3164346218109131,
              0.37062573432922363,
              0.7181130647659302,
              -0.06678879261016846
            ],
            [
              0.544237494468689,
              -0.5272444486618042,
              0.4680079519748688,
              0.9160937070846558,
              0.056145865470170975
            ],
            [
              -0.2933105230331421,
              0.6151976585388184,
              -0.7672711610794067,
              0.4606438875198364,
              -0.8231301307678223
            ]
          ],
          "column": 5,
          "row": 5
        },
        {
          "array": [
            [
              -0.5215009450912476,
              0.24399471282958984,
              -0.6096643209457397,
              0.09022259712219238,
              0.999180257320404
            ],
            [
              0.5145699977874756,
              -0.15019047260284424,
              0.06473040580749512,
              -0.25239288806915283,
              0.21674275398254395
            ]
          ],
          "column": 5,
          "row": 2
        }
      ]
    },
    {
      "biases": [
        {
          "array": [
            [-0.09807682037353516],
            [0.12025666236877441],
            [0.48339200019836426],
            [0.6695834398269653],
            [0.9980995059013367]
          ],
          "column": 1,
          "row": 5
        },
        {
          "array": [
            [0.9341989755630493],
            [0.387518048286438]
          ],
          "column": 1,
          "row": 2
        }
      ],
      "weights": [
        {
          "array": [
            [
              -0.43916189670562744,
              0.40456485748291016,
              0.3053436279296875,
              0.34022271633148193,
              -0.0048716068267822266
            ],
            [
              0.6045677661895752,
              0.8579715490341187,
              0.31459808349609375,
              -0.6936233043670654,
              -0.8297840356826782
            ],
            [
              0.2409048080444336,
              0.3164346218109131,
              0.37062573432922363,
              0.7181130647659302,
              -0.06678879261016846
            ],
            [
              0.544237494468689,
              -0.5272444486618042,
              0.4680079519748688,
              0.9160937070846558,
              0.056145865470170975
            ],
            [
              -0.2933105230331421,
              0.6151976585388184,
              -0.7672711610794067,
              0.4606438875198364,
              -0.8231301307678223
            ]
          ],
          "column": 5,
          "row": 5
        },
        {
          "array": [
            [
              -0.5215009450912476,
              0.24399471282958984,
              -0.6096643209457397,
              0.09022259712219238,
              0.999180257320404
            ],
            [
              0.5145699977874756,
              -0.15019047260284424,
              0.06473040580749512,
              -0.25239288806915283,
              0.21674275398254395
            ]
          ],
          "column": 5,
          "row": 2
        }
      ]
    },
    {
      "biases": [
        {
          "array": [
            [-0.09807682037353516],
            [0.12025666236877441],
            [0.48339200019836426],
            [0.6695834398269653],
            [0.9980995059013367]
          ],
          "column": 1,
          "row": 5
        },
        {
          "array": [
            [0.9341989755630493],
            [0.387518048286438]
          ],
          "column": 1,
          "row": 2
        }
      ],
      "weights": [
        {
          "array": [
            [
              -0.43916189670562744,
              0.40456485748291016,
              0.3053436279296875,
              0.34022271633148193,
              -0.0048716068267822266
            ],
            [
              0.6045677661895752,
              0.8579715490341187,
              0.31459808349609375,
              -0.6936233043670654,
              -0.8297840356826782
            ],
            [
              0.2409048080444336,
              0.3164346218109131,
              0.37062573432922363,
              0.7181130647659302,
              -0.06678879261016846
            ],
            [
              0.544237494468689,
              -0.5272444486618042,
              0.4680079519748688,
              0.9160937070846558,
              0.056145865470170975
            ],
            [
              -0.2933105230331421,
              0.6151976585388184,
              -0.7672711610794067,
              0.4606438875198364,
              -0.8231301307678223
            ]
          ],
          "column": 5,
          "row": 5
        },
        {
          "array": [
            [
              -0.5215009450912476,
              0.24399471282958984,
              -0.6096643209457397,
              0.09022259712219238,
              0.999180257320404
            ],
            [
              0.5145699977874756,
              -0.15019047260284424,
              0.06473040580749512,
              -0.25239288806915283,
              0.21674275398254395
            ]
          ],
          "column": 5,
          "row": 2
        }
      ]
    },
    {
      "biases": [
        {
          "array": [
            [-0.09807682037353516],
            [0.12025666236877441],
            [0.48339200019836426],
            [0.6695834398269653],
            [0.9980995059013367]
          ],
          "column": 1,
          "row": 5
        },
        {
          "array": [
            [0.9341989755630493],
            [0.387518048286438]
          ],
          "column": 1,
          "row": 2
        }
      ],
      "weights": [
        {
          "array": [
            [
              -0.43916189670562744,
              0.40456485748291016,
              0.3053436279296875,
              0.34022271633148193,
              -0.0048716068267822266
            ],
            [
              0.6045677661895752,
              0.8579715490341187,
              0.0013205304276198149,
              -0.6936233043670654,
              -0.8297840356826782
            ],
            [
              0.2409048080444336,
              0.3164346218109131,
              0.37062573432922363,
              0.7181130647659302,
              -0.06678879261016846
            ],
            [
              0.544237494468689,
              0.04214007034897804,
              0.4680079519748688,
              0.9160937070846558,
              0.056145865470170975
            ],
            [
              -0.2933105230331421,
              0.6151976585388184,
              -0.7672711610794067,
              0.4606438875198364,
              -0.8231301307678223
            ]
          ],
          "column": 5,
          "row": 5
        },
        {
          "array": [
            [
              -0.5215009450912476,
              0.24399471282958984,
              0.9970518350601196,
              0.09022259712219238,
              0.999180257320404
            ],
            [
              0.5145699977874756,
              -0.15019047260284424,
              0.06473040580749512,
              -0.25239288806915283,
              0.21674275398254395
            ]
          ],
          "column": 5,
          "row": 2
        }
      ]
    },
    {
      "biases": [
        {
          "array": [
            [-0.09807682037353516],
            [0.12025666236877441],
            [0.48339200019836426],
            [0.6695834398269653],
            [0.9980995059013367]
          ],
          "column": 1,
          "row": 5
        },
        {
          "array": [
            [0.9341989755630493],
            [0.387518048286438]
          ],
          "column": 1,
          "row": 2
        }
      ],
      "weights": [
        {
          "array": [
            [
              -0.43916189670562744,
              0.40456485748291016,
              0.3053436279296875,
              0.34022271633148193,
              -0.0048716068267822266
            ],
            [
              0.6045677661895752,
              0.8579715490341187,
              0.31459808349609375,
              -0.6936233043670654,
              -0.8297840356826782
            ],
            [
              0.2409048080444336,
              0.3164346218109131,
              0.37062573432922363,
              0.7181130647659302,
              -0.06678879261016846
            ],
            [
              0.544237494468689,
              -0.5272444486618042,
              0.4680079519748688,
              0.9160937070846558,
              0.056145865470170975
            ],
            [
              -0.2933105230331421,
              0.6151976585388184,
              -0.7672711610794067,
              0.4606438875198364,
              -0.8231301307678223
            ]
          ],
          "column": 5,
          "row": 5
        },
        {
          "array": [
            [
              -0.5215009450912476,
              0.24399471282958984,
              -0.6096643209457397,
              0.09022259712219238,
              0.999180257320404
            ],
            [
              0.5145699977874756,
              -0.15019047260284424,
              0.06473040580749512,
              -0.25239288806915283,
              0.21674275398254395
            ]
          ],
          "column": 5,
          "row": 2
        }
      ]
    },
    {
      "biases": [
        {
          "array": [
            [-0.09807682037353516],
            [0.12025666236877441],
            [0.48339200019836426],
            [0.6695834398269653],
            [0.9980995059013367]
          ],
          "column": 1,
          "row": 5
        },
        {
          "array": [
            [0.9341989755630493],
            [0.387518048286438]
          ],
          "column": 1,
          "row": 2
        }
      ],
      "weights": [
        {
          "array": [
            [
              -0.43916189670562744,
              0.40456485748291016,
              0.3053436279296875,
              0.34022271633148193,
              -0.0048716068267822266
            ],
            [
              0.6045677661895752,
              0.8579715490341187,
              0.31459808349609375,
              -0.6936233043670654,
              -0.8297840356826782
            ],
            [
              0.2409048080444336,
              0.3164346218109131,
              0.37062573432922363,
              0.7181130647659302,
              -0.06678879261016846
            ],
            [
              0.544237494468689,
              -0.5272444486618042,
              0.4680079519748688,
              0.9160937070846558,
              0.056145865470170975
            ],
            [
              0.0075169214978814125,
              0.6151976585388184,
              -0.7672711610794067,
              0.4606438875198364,
              -0.8231301307678223
            ]
          ],
          "column": 5,
          "row": 5
        },
        {
          "array": [
            [
              -0.5215009450912476,
              0.24399471282958984,
              -0.6096643209457397,
              0.09022259712219238,
              0.999180257320404
            ],
            [
              0.5145699977874756,
              0.035309821367263794,
              0.06473040580749512,
              -0.25239288806915283,
              0.21674275398254395
            ]
          ],
          "column": 5,
          "row": 2
        }
      ]
    },
    {
      "biases": [
        {
          "array": [
            [-0.09807682037353516],
            [0.12025666236877441],
            [0.48339200019836426],
            [0.6695834398269653],
            [0.9980995059013367]
          ],
          "column": 1,
          "row": 5
        },
        {
          "array": [
            [0.9341989755630493],
            [0.387518048286438]
          ],
          "column": 1,
          "row": 2
        }
      ],
      "weights": [
        {
          "array": [
            [
              -0.43916189670562744,
              0.40456485748291016,
              0.3053436279296875,
              0.34022271633148193,
              -0.0048716068267822266
            ],
            [
              0.6045677661895752,
              0.8579715490341187,
              0.31459808349609375,
              -0.6936233043670654,
              -0.8297840356826782
            ],
            [
              0.2409048080444336,
              0.3164346218109131,
              0.37062573432922363,
              0.7181130647659302,
              -0.06678879261016846
            ],
            [
              0.544237494468689,
              -0.5272444486618042,
              0.4680079519748688,
              0.9160937070846558,
              0.056145865470170975
            ],
            [
              -0.2933105230331421,
              0.6151976585388184,
              -0.7672711610794067,
              0.4606438875198364,
              -0.8231301307678223
            ]
          ],
          "column": 5,
          "row": 5
        },
        {
          "array": [
            [
              -0.5215009450912476,
              0.24399471282958984,
              -0.6096643209457397,
              0.09022259712219238,
              0.999180257320404
            ],
            [
              0.5145699977874756,
              -0.15019047260284424,
              0.06473040580749512,
              -0.25239288806915283,
              0.21674275398254395
            ]
          ],
          "column": 5,
          "row": 2
        }
      ]
    },
    {
      "biases": [
        {
          "array": [
            [-0.09807682037353516],
            [0.12025666236877441],
            [0.48339200019836426],
            [0.6695834398269653],
            [0.9980995059013367]
          ],
          "column": 1,
          "row": 5
        },
        {
          "array": [
            [0.9341989755630493],
            [0.387518048286438]
          ],
          "column": 1,
          "row": 2
        }
      ],
      "weights": [
        {
          "array": [
            [
              -0.43916189670562744,
              0.40456485748291016,
              0.3053436279296875,
              0.34022271633148193,
              -0.0048716068267822266
            ],
            [
              0.6045677661895752,
              0.8579715490341187,
              0.31459808349609375,
              -0.6936233043670654,
              -0.8297840356826782
            ],
            [
              0.2409048080444336,
              0.3164346218109131,
              0.37062573432922363,
              0.7181130647659302,
              -0.06678879261016846
            ],
            [
              0.544237494468689,
              -0.5272444486618042,
              0.4680079519748688,
              0.9160937070846558,
              0.056145865470170975
            ],
            [
              -0.2933105230331421,
              0.6151976585388184,
              -0.7672711610794067,
              0.01081146951764822,
              -0.8231301307678223
            ]
          ],
          "column": 5,
          "row": 5
        },
        {
          "array": [
            [
              -0.5215009450912476,
              0.24399471282958984,
              -0.6096643209457397,
              0.09022259712219238,
              0.999180257320404
            ],
            [
              0.5145699977874756,
              -0.15019047260284424,
              0.06473040580749512,
              -0.25239288806915283,
              0.21674275398254395
            ]
          ],
          "column": 5,
          "row": 2
        }
      ]
    },
    {
      "biases": [
        {
          "array": [
            [-0.09807682037353516],
            [0.12025666236877441],
            [0.48339200019836426],
            [0.6695834398269653],
            [0.9980995059013367]
          ],
          "column": 1,
          "row": 5
        },
        {
          "array": [
            [0.9341989755630493],
            [0.387518048286438]
          ],
          "column": 1,
          "row": 2
        }
      ],
      "weights": [
        {
          "array": [
            [
              -0.43916189670562744,
              0.40456485748291016,
              0.3053436279296875,
              0.34022271633148193,
              -0.0048716068267822266
            ],
            [
              0.6045677661895752,
              0.8579715490341187,
              0.31459808349609375,
              -0.6936233043670654,
              -0.8297840356826782
            ],
            [
              0.2409048080444336,
              0.3164346218109131,
              0.37062573432922363,
              0.7181130647659302,
              -0.06678879261016846
            ],
            [
              0.544237494468689,
              -0.5272444486618042,
              0.4680079519748688,
              0.9160937070846558,
              0.056145865470170975
            ],
            [
              -0.2933105230331421,
              0.6151976585388184,
              -0.7672711610794067,
              0.4606438875198364,
              -0.8231301307678223
            ]
          ],
          "column": 5,
          "row": 5
        },
        {
          "array": [
            [
              -0.5215009450912476,
              0.24399471282958984,
              -0.6096643209457397,
              0.09022259712219238,
              0.999180257320404
            ],
            [
              0.5145699977874756,
              -0.15019047260284424,
              0.06473040580749512,
              -0.25239288806915283,
              0.21674275398254395
            ]
          ],
          "column": 5,
          "row": 2
        }
      ]
    },
    {
      "biases": [
        {
          "array": [
            [-0.09807682037353516],
            [0.12025666236877441],
            [0.48339200019836426],
            [0.6695834398269653],
            [0.9980995059013367]
          ],
          "column": 1,
          "row": 5
        },
        {
          "array": [
            [0.9341989755630493],
            [0.387518048286438]
          ],
          "column": 1,
          "row": 2
        }
      ],
      "weights": [
        {
          "array": [
            [
              -0.43916189670562744,
              0.40456485748291016,
              0.3053436279296875,
              0.34022271633148193,
              -0.0048716068267822266
            ],
            [
              0.6045677661895752,
              0.8579715490341187,
              0.31459808349609375,
              -0.6936233043670654,
              -0.8297840356826782
            ],
            [
              0.2409048080444336,
              0.3164346218109131,
              0.37062573432922363,
              0.7181130647659302,
              -0.06678879261016846
            ],
            [
              0.544237494468689,
              -0.5272444486618042,
              0.4680079519748688,
              0.9160937070846558,
              0.056145865470170975
            ],
            [
              -0.2933105230331421,
              0.6151976585388184,
              -0.7672711610794067,
              0.4606438875198364,
              -0.8231301307678223
            ]
          ],
          "column": 5,
          "row": 5
        },
        {
          "array": [
            [
              -0.5215009450912476,
              0.24399471282958984,
              -0.6096643209457397,
              0.09022259712219238,
              0.999180257320404
            ],
            [
              0.5145699977874756,
              -0.15019047260284424,
              0.06473040580749512,
              -0.25239288806915283,
              0.21674275398254395
            ]
          ],
          "column": 5,
          "row": 2
        }
      ]
    },
    {
      "biases": [
        {
          "array": [
            [-0.09807682037353516],
            [0.12025666236877441],
            [0.48339200019836426],
            [0.6695834398269653],
            [0.9980995059013367]
          ],
          "column": 1,
          "row": 5
        },
        {
          "array": [
            [0.9341989755630493],
            [0.387518048286438]
          ],
          "column": 1,
          "row": 2
        }
      ],
      "weights": [
        {
          "array": [
            [
              -0.43916189670562744,
              0.40456485748291016,
              0.3053436279296875,
              0.34022271633148193,
              -0.0048716068267822266
            ],
            [
              0.6045677661895752,
              0.8579715490341187,
              0.31459808349609375,
              -0.6936233043670654,
              -0.8297840356826782
            ],
            [
              0.2409048080444336,
              0.3164346218109131,
              0.37062573432922363,
              0.7181130647659302,
              -0.06678879261016846
            ],
            [
              0.544237494468689,
              -0.5272444486618042,
              0.4680079519748688,
              0.9160937070846558,
              0.056145865470170975
            ],
            [
              -0.2933105230331421,
              0.6151976585388184,
              -0.7672711610794067,
              0.00207883189432323,
              -0.8231301307678223
            ]
          ],
          "column": 5,
          "row": 5
        },
        {
          "array": [
            [
              -0.5215009450912476,
              0.24399471282958984,
              -0.6096643209457397,
              0.09022259712219238,
              0.999180257320404
            ],
            [
              0.5145699977874756,
              -0.15019047260284424,
              0.06473040580749512,
              -0.25239288806915283,
              0.21674275398254395
            ]
          ],
          "column": 5,
          "row": 2
        }
      ]
    },
    {
      "biases": [
        {
          "array": [
            [-0.09807682037353516],
            [0.12025666236877441],
            [0.48339200019836426],
            [0.6695834398269653],
            [0.9980995059013367]
          ],
          "column": 1,
          "row": 5
        },
        {
          "array": [
            [0.9341989755630493],
            [0.387518048286438]
          ],
          "column": 1,
          "row": 2
        }
      ],
      "weights": [
        {
          "array": [
            [
              -0.43916189670562744,
              0.40456485748291016,
              0.3053436279296875,
              0.34022271633148193,
              -0.0048716068267822266
            ],
            [
              0.6045677661895752,
              0.8579715490341187,
              0.31459808349609375,
              -0.6936233043670654,
              -0.8297840356826782
            ],
            [
              0.2409048080444336,
              0.3164346218109131,
              0.37062573432922363,
              0.7181130647659302,
              -0.06678879261016846
            ],
            [
              0.544237494468689,
              -0.5272444486618042,
              0.4680079519748688,
              0.9160937070846558,
              0.056145865470170975
            ],
            [
              -0.2933105230331421,
              0.6151976585388184,
              -0.7672711610794067,
              0.4606438875198364,
              -0.8231301307678223
            ]
          ],
          "column": 5,
          "row": 5
        },
        {
          "array": [
            [
              -0.5215009450912476,
              0.24399471282958984,
              -0.6096643209457397,
              0.09022259712219238,
              0.999180257320404
            ],
            [
              0.5145699977874756,
              -0.15019047260284424,
              0.06473040580749512,
              -0.25239288806915283,
              0.21674275398254395
            ]
          ],
          "column": 5,
          "row": 2
        }
      ]
    },
    {
      "biases": [
        {
          "array": [
            [-0.09807682037353516],
            [0.12025666236877441],
            [0.48339200019836426],
            [0.6695834398269653],
            [0.9980995059013367]
          ],
          "column": 1,
          "row": 5
        },
        {
          "array": [
            [0.9341989755630493],
            [0.387518048286438]
          ],
          "column": 1,
          "row": 2
        }
      ],
      "weights": [
        {
          "array": [
            [
              -0.43916189670562744,
              0.40456485748291016,
              0.3053436279296875,
              0.34022271633148193,
              -0.0048716068267822266
            ],
            [
              0.6045677661895752,
              0.8579715490341187,
              0.31459808349609375,
              -0.6936233043670654,
              -0.8297840356826782
            ],
            [
              0.2409048080444336,
              0.3164346218109131,
              0.37062573432922363,
              0.7181130647659302,
              -0.06678879261016846
            ],
            [
              0.544237494468689,
              -0.5272444486618042,
              0.4680079519748688,
              0.9160937070846558,
              0.056145865470170975
            ],
            [
              0.17983588576316833,
              0.6151976585388184,
              -0.7672711610794067,
              0.4606438875198364,
              -0.8231301307678223
            ]
          ],
          "column": 5,
          "row": 5
        },
        {
          "array": [
            [
              -0.5215009450912476,
              0.24399471282958984,
              -0.6096643209457397,
              0.09022259712219238,
              0.999180257320404
            ],
            [
              0.5145699977874756,
              -0.15019047260284424,
              0.06473040580749512,
              -0.25239288806915283,
              0.21674275398254395
            ]
          ],
          "column": 5,
          "row": 2
        }
      ]
    },
    {
      "biases": [
        {
          "array": [
            [-0.09807682037353516],
            [0.12025666236877441],
            [0.48339200019836426],
            [0.6695834398269653],
            [0.9980995059013367]
          ],
          "column": 1,
          "row": 5
        },
        {
          "array": [
            [0.9341989755630493],
            [0.387518048286438]
          ],
          "column": 1,
          "row": 2
        }
      ],
      "weights": [
        {
          "array": [
            [
              -0.43916189670562744,
              0.40456485748291016,
              0.3053436279296875,
              0.34022271633148193,
              -0.0048716068267822266
            ],
            [
              0.6045677661895752,
              0.8579715490341187,
              0.31459808349609375,
              -0.6936233043670654,
              -0.8297840356826782
            ],
            [
              0.2409048080444336,
              0.3164346218109131,
              0.37062573432922363,
              0.7181130647659302,
              -0.06678879261016846
            ],
            [
              0.544237494468689,
              -0.5272444486618042,
              0.4680079519748688,
              0.9160937070846558,
              0.056145865470170975
            ],
            [
              -0.2933105230331421,
              0.6151976585388184,
              -0.7672711610794067,
              0.4606438875198364,
              -0.8231301307678223
            ]
          ],
          "column": 5,
          "row": 5
        },
        {
          "array": [
            [
              -0.5215009450912476,
              0.24399471282958984,
              -0.6096643209457397,
              0.09022259712219238,
              0.999180257320404
            ],
            [
              0.5145699977874756,
              -0.15019047260284424,
              0.06473040580749512,
              -0.25239288806915283,
              0.21674275398254395
            ]
          ],
          "column": 5,
          "row": 2
        }
      ]
    },
    {
      "biases": [
        {
          "array": [
            [-0.09807682037353516],
            [0.12025666236877441],
            [0.48339200019836426],
            [0.6695834398269653],
            [0.9980995059013367]
          ],
          "column": 1,
          "row": 5
        },
        {
          "array": [
            [0.9341989755630493],
            [0.387518048286438]
          ],
          "column": 1,
          "row": 2
        }
      ],
      "weights": [
        {
          "array": [
            [
              -0.43916189670562744,
              0.40456485748291016,
              0.3053436279296875,
              0.34022271633148193,
              -0.0048716068267822266
            ],
            [
              0.6045677661895752,
              0.8579715490341187,
              0.31459808349609375,
              -0.6936233043670654,
              -0.8297840356826782
            ],
            [
              0.2409048080444336,
              0.3164346218109131,
              0.37062573432922363,
              0.9981905817985535,
              -0.06678879261016846
            ],
            [
              0.544237494468689,
              -0.5272444486618042,
              0.4680079519748688,
              0.9160937070846558,
              0.056145865470170975
            ],
            [
              -0.2933105230331421,
              0.6151976585388184,
              -0.7672711610794067,
              0.4606438875198364,
              -0.8231301307678223
            ]
          ],
          "column": 5,
          "row": 5
        },
        {
          "array": [
            [
              -0.5215009450912476,
              0.24399471282958984,
              -0.6096643209457397,
              0.09022259712219238,
              0.999180257320404
            ],
            [
              0.5145699977874756,
              -0.15019047260284424,
              0.06473040580749512,
              -0.25239288806915283,
              0.21674275398254395
            ]
          ],
          "column": 5,
          "row": 2
        }
      ]
    },
    {
      "biases": [
        {
          "array": [
            [-0.09807682037353516],
            [0.12025666236877441],
            [0.48339200019836426],
            [0.6695834398269653],
            [0.9980995059013367]
          ],
          "column": 1,
          "row": 5
        },
        {
          "array": [
            [0.9341989755630493],
            [0.387518048286438]
          ],
          "column": 1,
          "row": 2
        }
      ],
      "weights": [
        {
          "array": [
            [
              -0.43916189670562744,
              0.40456485748291016,
              0.3053436279296875,
              0.34022271633148193,
              -0.0048716068267822266
            ],
            [
              0.6045677661895752,
              0.8579715490341187,
              0.31459808349609375,
              -0.6936233043670654,
              -0.8297840356826782
            ],
            [
              0.2409048080444336,
              0.3164346218109131,
              0.37062573432922363,
              0.7181130647659302,
              -0.06678879261016846
            ],
            [
              0.544237494468689,
              -0.5272444486618042,
              0.4680079519748688,
              0.9160937070846558,
              0.056145865470170975
            ],
            [
              -0.2933105230331421,
              0.6151976585388184,
              -0.7672711610794067,
              0.4606438875198364,
              -0.8231301307678223
            ]
          ],
          "column": 5,
          "row": 5
        },
        {
          "array": [
            [
              -0.5215009450912476,
              0.24399471282958984,
              -0.6096643209457397,
              0.09022259712219238,
              0.999180257320404
            ],
            [
              0.5145699977874756,
              -0.15019047260284424,
              0.06473040580749512,
              -0.25239288806915283,
              0.21674275398254395
            ]
          ],
          "column": 5,
          "row": 2
        }
      ]
    },
    {
      "biases": [
        {
          "array": [
            [-0.09807682037353516],
            [0.12025666236877441],
            [0.9876487851142883],
            [0.6695834398269653],
            [0.04274674877524376]
          ],
          "column": 1,
          "row": 5
        },
        {
          "array": [
            [0.9341989755630493],
            [0.387518048286438]
          ],
          "column": 1,
          "row": 2
        }
      ],
      "weights": [
        {
          "array": [
            [
              -0.43916189670562744,
              0.40456485748291016,
              0.3053436279296875,
              0.34022271633148193,
              -0.0048716068267822266
            ],
            [
              0.6045677661895752,
              0.8579715490341187,
              0.31459808349609375,
              -0.6936233043670654,
              -0.8297840356826782
            ],
            [
              0.2409048080444336,
              0.3164346218109131,
              0.37062573432922363,
              0.7181130647659302,
              -0.06678879261016846
            ],
            [
              0.544237494468689,
              -0.5272444486618042,
              0.4680079519748688,
              0.9160937070846558,
              0.056145865470170975
            ],
            [
              -0.2933105230331421,
              0.6151976585388184,
              -0.7672711610794067,
              0.4606438875198364,
              -0.8231301307678223
            ]
          ],
          "column": 5,
          "row": 5
        },
        {
          "array": [
            [
              -0.5215009450912476,
              0.24399471282958984,
              -0.6096643209457397,
              0.09022259712219238,
              0.999180257320404
            ],
            [
              0.5145699977874756,
              -0.15019047260284424,
              0.06473040580749512,
              -0.25239288806915283,
              0.21674275398254395
            ]
          ],
          "column": 5,
          "row": 2
        }
      ]
    },
    {
      "biases": [
        {
          "array": [
            [-0.09807682037353516],
            [0.12025666236877441],
            [0.48339200019836426],
            [0.6695834398269653],
            [0.9980995059013367]
          ],
          "column": 1,
          "row": 5
        },
        {
          "array": [
            [0.9341989755630493],
            [0.387518048286438]
          ],
          "column": 1,
          "row": 2
        }
      ],
      "weights": [
        {
          "array": [
            [
              -0.43916189670562744,
              0.40456485748291016,
              0.3053436279296875,
              0.34022271633148193,
              -0.0048716068267822266
            ],
            [
              0.6045677661895752,
              0.5226110816001892,
              0.31459808349609375,
              -0.6936233043670654,
              -0.8297840356826782
            ],
            [
              0.2409048080444336,
              0.3164346218109131,
              0.37062573432922363,
              0.7181130647659302,
              -0.06678879261016846
            ],
            [
              0.012281231582164764,
              -0.5272444486618042,
              0.4680079519748688,
              0.9160937070846558,
              0.056145865470170975
            ],
            [
              -0.2933105230331421,
              0.6151976585388184,
              -0.7672711610794067,
              0.4606438875198364,
              -0.8231301307678223
            ]
          ],
          "column": 5,
          "row": 5
        },
        {
          "array": [
            [
              -0.5215009450912476,
              0.24399471282958984,
              -0.6096643209457397,
              0.09022259712219238,
              0.9995970129966736
            ],
            [
              0.5145699977874756,
              -0.15019047260284424,
              0.06473040580749512,
              -0.25239288806915283,
              0.21674275398254395
            ]
          ],
          "column": 5,
          "row": 2
        }
      ]
    },
    {
      "biases": [
        {
          "array": [
            [-0.09807682037353516],
            [0.12025666236877441],
            [0.48339200019836426],
            [0.6695834398269653],
            [0.9980995059013367]
          ],
          "column": 1,
          "row": 5
        },
        {
          "array": [
            [0.9341989755630493],
            [0.387518048286438]
          ],
          "column": 1,
          "row": 2
        }
      ],
      "weights": [
        {
          "array": [
            [
              -0.43916189670562744,
              0.40456485748291016,
              0.3053436279296875,
              0.34022271633148193,
              -0.0048716068267822266
            ],
            [
              0.6045677661895752,
              0.8579715490341187,
              0.31459808349609375,
              -0.6936233043670654,
              -0.8297840356826782
            ],
            [
              0.2409048080444336,
              0.3164346218109131,
              0.37062573432922363,
              0.7181130647659302,
              -0.06678879261016846
            ],
            [
              0.544237494468689,
              -0.5272444486618042,
              0.4680079519748688,
              0.9160937070846558,
              0.056145865470170975
            ],
            [
              -0.2933105230331421,
              0.6151976585388184,
              -0.7672711610794067,
              0.4606438875198364,
              -0.8231301307678223
            ]
          ],
          "column": 5,
          "row": 5
        },
        {
          "array": [
            [
              -0.5215009450912476,
              0.24399471282958984,
              -0.6096643209457397,
              0.09022259712219238,
              0.999180257320404
            ],
            [
              0.5145699977874756,
              -0.15019047260284424,
              0.06473040580749512,
              -0.25239288806915283,
              0.21674275398254395
            ]
          ],
          "column": 5,
          "row": 2
        }
      ]
    },
    {
      "biases": [
        {
          "array": [
            [-0.09807682037353516],
            [0.12025666236877441],
            [0.48339200019836426],
            [0.6695834398269653],
            [0.9980995059013367]
          ],
          "column": 1,
          "row": 5
        },
        {
          "array": [
            [0.9341989755630493],
            [0.387518048286438]
          ],
          "column": 1,
          "row": 2
        }
      ],
      "weights": [
        {
          "array": [
            [
              -0.43916189670562744,
              0.40456485748291016,
              0.3053436279296875,
              0.34022271633148193,
              -0.0048716068267822266
            ],
            [
              0.6045677661895752,
              0.8579715490341187,
              0.31459808349609375,
              -0.6936233043670654,
              -0.8297840356826782
            ],
            [
              0.2409048080444336,
              0.3164346218109131,
              0.37062573432922363,
              0.7181130647659302,
              -0.06678879261016846
            ],
            [
              0.544237494468689,
              -0.5272444486618042,
              0.4680079519748688,
              0.9160937070846558,
              0.056145865470170975
            ],
            [
              -0.2933105230331421,
              0.6151976585388184,
              -0.7672711610794067,
              0.4606438875198364,
              -0.8231301307678223
            ]
          ],
          "column": 5,
          "row": 5
        },
        {
          "array": [
            [
              -0.5215009450912476,
              0.24399471282958984,
              -0.6096643209457397,
              0.09022259712219238,
              0.999180257320404
            ],
            [
              0.5145699977874756,
              -0.15019047260284424,
              0.06473040580749512,
              -0.25239288806915283,
              0.21674275398254395
            ]
          ],
          "column": 5,
          "row": 2
        }
      ]
    },
    {
      "biases": [
        {
          "array": [
            [-0.09807682037353516],
            [0.12025666236877441],
            [0.48339200019836426],
            [0.6695834398269653],
            [0.9980995059013367]
          ],
          "column": 1,
          "row": 5
        },
        {
          "array": [
            [0.9341989755630493],
            [0.387518048286438]
          ],
          "column": 1,
          "row": 2
        }
      ],
      "weights": [
        {
          "array": [
            [
              -0.43916189670562744,
              0.40456485748291016,
              0.3053436279296875,
              0.34022271633148193,
              -0.0048716068267822266
            ],
            [
              0.6045677661895752,
              0.8579715490341187,
              0.31459808349609375,
              -0.6936233043670654,
              -0.8297840356826782
            ],
            [
              0.2409048080444336,
              0.3164346218109131,
              0.37062573432922363,
              0.7181130647659302,
              -0.06678879261016846
            ],
            [
              0.544237494468689,
              -0.5272444486618042,
              0.4680079519748688,
              0.9160937070846558,
              0.056145865470170975
            ],
            [
              -0.2933105230331421,
              0.6151976585388184,
              -0.7672711610794067,
              0.4606438875198364,
              -0.8231301307678223
            ]
          ],
          "column": 5,
          "row": 5
        },
        {
          "array": [
            [
              -0.5215009450912476,
              0.24399471282958984,
              -0.6096643209457397,
              0.09022259712219238,
              0.999180257320404
            ],
            [
              0.5145699977874756,
              -0.15019047260284424,
              0.06473040580749512,
              -0.25239288806915283,
              0.21674275398254395
            ]
          ],
          "column": 5,
          "row": 2
        }
      ]
    },
    {
      "biases": [
        {
          "array": [
            [-0.09807682037353516],
            [0.12025666236877441],
            [0.48339200019836426],
            [0.6695834398269653],
            [0.9980995059013367]
          ],
          "column": 1,
          "row": 5
        },
        {
          "array": [
            [0.9341989755630493],
            [0.387518048286438]
          ],
          "column": 1,
          "row": 2
        }
      ],
      "weights": [
        {
          "array": [
            [
              -0.43916189670562744,
              0.40456485748291016,
              0.3053436279296875,
              0.34022271633148193,
              -0.0048716068267822266
            ],
            [
              0.6045677661895752,
              0.8579715490341187,
              0.31459808349609375,
              -0.6936233043670654,
              -0.8297840356826782
            ],
            [
              0.2409048080444336,
              0.3164346218109131,
              0.37062573432922363,
              0.7181130647659302,
              -0.06678879261016846
            ],
            [
              0.544237494468689,
              -0.5272444486618042,
              0.4680079519748688,
              0.9160937070846558,
              0.056145865470170975
            ],
            [
              0.0075169214978814125,
              0.6151976585388184,
              -0.7672711610794067,
              0.4606438875198364,
              -0.8231301307678223
            ]
          ],
          "column": 5,
          "row": 5
        },
        {
          "array": [
            [
              -0.5215009450912476,
              0.24399471282958984,
              -0.6096643209457397,
              0.09022259712219238,
              0.999180257320404
            ],
            [
              0.5145699977874756,
              -0.15019047260284424,
              0.06473040580749512,
              -0.25239288806915283,
              0.21674275398254395
            ]
          ],
          "column": 5,
          "row": 2
        }
      ]
    },
    {
      "biases": [
        {
          "array": [
            [-0.09807682037353516],
            [0.12025666236877441],
            [0.20959435403347015],
            [0.6695834398269653],
            [0.9980995059013367]
          ],
          "column": 1,
          "row": 5
        },
        {
          "array": [
            [0.9341989755630493],
            [0.387518048286438]
          ],
          "column": 1,
          "row": 2
        }
      ],
      "weights": [
        {
          "array": [
            [
              -0.43916189670562744,
              0.40456485748291016,
              0.3053436279296875,
              0.34022271633148193,
              -0.0048716068267822266
            ],
            [
              0.6045677661895752,
              0.8579715490341187,
              0.31459808349609375,
              -0.6936233043670654,
              -0.8297840356826782
            ],
            [
              0.2409048080444336,
              0.3164346218109131,
              0.37062573432922363,
              0.9428887963294983,
              -0.06678879261016846
            ],
            [
              0.544237494468689,
              -0.5272444486618042,
              -0.4816446304321289,
              0.9160937070846558,
              0.056145865470170975
            ],
            [
              -0.2933105230331421,
              0.6151976585388184,
              -0.7672711610794067,
              0.4606438875198364,
              -0.8231301307678223
            ]
          ],
          "column": 5,
          "row": 5
        },
        {
          "array": [
            [
              -0.5215009450912476,
              0.24399471282958984,
              -0.6096643209457397,
              0.09022259712219238,
              0.5471041202545166
            ],
            [
              0.5145699977874756,
              -0.15019047260284424,
              0.06473040580749512,
              -0.25239288806915283,
              0.21674275398254395
            ]
          ],
          "column": 5,
          "row": 2
        }
      ]
    },
    {
      "biases": [
        {
          "array": [
            [-0.09807682037353516],
            [0.12025666236877441],
            [0.48339200019836426],
            [0.6695834398269653],
            [0.9980995059013367]
          ],
          "column": 1,
          "row": 5
        },
        {
          "array": [
            [0.9341989755630493],
            [0.387518048286438]
          ],
          "column": 1,
          "row": 2
        }
      ],
      "weights": [
        {
          "array": [
            [
              -0.43916189670562744,
              0.40456485748291016,
              0.3053436279296875,
              0.34022271633148193,
              -0.0048716068267822266
            ],
            [
              0.6045677661895752,
              0.8579715490341187,
              0.31459808349609375,
              -0.6936233043670654,
              -0.8297840356826782
            ],
            [
              0.2409048080444336,
              0.3164346218109131,
              0.37062573432922363,
              0.7181130647659302,
              -0.06678879261016846
            ],
            [
              0.544237494468689,
              -0.5272444486618042,
              0.4680079519748688,
              0.9160937070846558,
              0.056145865470170975
            ],
            [
              -0.2933105230331421,
              0.6151976585388184,
              -0.7672711610794067,
              0.4606438875198364,
              -0.8231301307678223
            ]
          ],
          "column": 5,
          "row": 5
        },
        {
          "array": [
            [
              -0.5215009450912476,
              0.24399471282958984,
              -0.6096643209457397,
              0.09022259712219238,
              0.999180257320404
            ],
            [
              0.5145699977874756,
              -0.15019047260284424,
              0.06473040580749512,
              -0.25239288806915283,
              0.21674275398254395
            ]
          ],
          "column": 5,
          "row": 2
        }
      ]
    },
    {
      "biases": [
        {
          "array": [
            [-0.09807682037353516],
            [0.12025666236877441],
            [0.48339200019836426],
            [0.6695834398269653],
            [0.9980995059013367]
          ],
          "column": 1,
          "row": 5
        },
        {
          "array": [
            [0.9341989755630493],
            [0.387518048286438]
          ],
          "column": 1,
          "row": 2
        }
      ],
      "weights": [
        {
          "array": [
            [
              -0.43916189670562744,
              0.40456485748291016,
              0.3053436279296875,
              0.34022271633148193,
              -0.0048716068267822266
            ],
            [
              0.6045677661895752,
              0.8579715490341187,
              0.31459808349609375,
              -0.6936233043670654,
              -0.8297840356826782
            ],
            [
              0.2409048080444336,
              0.3164346218109131,
              0.37062573432922363,
              0.7181130647659302,
              -0.06678879261016846
            ],
            [
              0.544237494468689,
              -0.5272444486618042,
              0.4680079519748688,
              0.9160937070846558,
              0.056145865470170975
            ],
            [
              -0.2933105230331421,
              0.6151976585388184,
              -0.7672711610794067,
              0.4606438875198364,
              -0.8231301307678223
            ]
          ],
          "column": 5,
          "row": 5
        },
        {
          "array": [
            [
              -0.5215009450912476,
              0.24399471282958984,
              -0.6096643209457397,
              0.09022259712219238,
              0.999180257320404
            ],
            [
              0.5145699977874756,
              -0.15019047260284424,
              0.06473040580749512,
              -0.25239288806915283,
              0.21674275398254395
            ]
          ],
          "column": 5,
          "row": 2
        }
      ]
    },
    {
      "biases": [
        {
          "array": [
            [-0.09807682037353516],
            [0.12025666236877441],
            [0.48339200019836426],
            [0.6695834398269653],
            [0.9980995059013367]
          ],
          "column": 1,
          "row": 5
        },
        {
          "array": [
            [0.9341989755630493],
            [0.387518048286438]
          ],
          "column": 1,
          "row": 2
        }
      ],
      "weights": [
        {
          "array": [
            [
              -0.43916189670562744,
              0.40456485748291016,
              0.3053436279296875,
              0.34022271633148193,
              -0.0048716068267822266
            ],
            [
              0.6045677661895752,
              0.8579715490341187,
              0.31459808349609375,
              -0.6936233043670654,
              -0.8297840356826782
            ],
            [
              0.2409048080444336,
              0.3164346218109131,
              0.37062573432922363,
              0.7181130647659302,
              -0.06678879261016846
            ],
            [
              0.544237494468689,
              -0.5272444486618042,
              0.4680079519748688,
              0.9160937070846558,
              0.056145865470170975
            ],
            [
              -0.2933105230331421,
              0.6151976585388184,
              -0.7672711610794067,
              0.4606438875198364,
              -0.8231301307678223
            ]
          ],
          "column": 5,
          "row": 5
        },
        {
          "array": [
            [
              -0.5215009450912476,
              0.24399471282958984,
              -0.6096643209457397,
              0.09022259712219238,
              0.999180257320404
            ],
            [
              0.5145699977874756,
              -0.15019047260284424,
              0.06473040580749512,
              0.8660816550254822,
              0.21674275398254395
            ]
          ],
          "column": 5,
          "row": 2
        }
      ]
    },
    {
      "biases": [
        {
          "array": [
            [-0.09807682037353516],
            [0.12025666236877441],
            [0.48339200019836426],
            [0.35085242986679077],
            [0.9980995059013367]
          ],
          "column": 1,
          "row": 5
        },
        {
          "array": [
            [0.9341989755630493],
            [0.387518048286438]
          ],
          "column": 1,
          "row": 2
        }
      ],
      "weights": [
        {
          "array": [
            [
              -0.43916189670562744,
              0.40456485748291016,
              0.3053436279296875,
              0.34022271633148193,
              -0.0048716068267822266
            ],
            [
              0.6045677661895752,
              0.8579715490341187,
              0.31459808349609375,
              -0.6936233043670654,
              -0.8297840356826782
            ],
            [
              0.2409048080444336,
              0.3164346218109131,
              0.37062573432922363,
              0.7181130647659302,
              -0.06678879261016846
            ],
            [
              0.544237494468689,
              -0.5272444486618042,
              0.4680079519748688,
              0.9160937070846558,
              0.056145865470170975
            ],
            [
              -0.2933105230331421,
              0.6151976585388184,
              -0.7672711610794067,
              0.4606438875198364,
              -0.8231301307678223
            ]
          ],
          "column": 5,
          "row": 5
        },
        {
          "array": [
            [
              -0.5215009450912476,
              0.24399471282958984,
              -0.6096643209457397,
              0.09022259712219238,
              0.999180257320404
            ],
            [
              0.5145699977874756,
              -0.15019047260284424,
              0.06473040580749512,
              -0.25239288806915283,
              0.21674275398254395
            ]
          ],
          "column": 5,
          "row": 2
        }
      ]
    },
    {
      "biases": [
        {
          "array": [
            [-0.09807682037353516],
            [0.12025666236877441],
            [0.48339200019836426],
            [0.6695834398269653],
            [0.9980995059013367]
          ],
          "column": 1,
          "row": 5
        },
        {
          "array": [
            [0.9341989755630493],
            [0.387518048286438]
          ],
          "column": 1,
          "row": 2
        }
      ],
      "weights": [
        {
          "array": [
            [
              -0.43916189670562744,
              0.40456485748291016,
              0.3053436279296875,
              0.34022271633148193,
              -0.0048716068267822266
            ],
            [
              0.6045677661895752,
              0.8579715490341187,
              0.31459808349609375,
              -0.6936233043670654,
              -0.8297840356826782
            ],
            [
              0.2409048080444336,
              0.3164346218109131,
              0.37062573432922363,
              0.7181130647659302,
              -0.06678879261016846
            ],
            [
              0.544237494468689,
              -0.5272444486618042,
              0.4680079519748688,
              0.9160937070846558,
              0.056145865470170975
            ],
            [
              -0.2933105230331421,
              0.6151976585388184,
              -0.7672711610794067,
              0.4606438875198364,
              -0.8231301307678223
            ]
          ],
          "column": 5,
          "row": 5
        },
        {
          "array": [
            [
              -0.5215009450912476,
              0.24399471282958984,
              -0.6096643209457397,
              0.09022259712219238,
              0.999180257320404
            ],
            [
              0.5145699977874756,
              -0.15019047260284424,
              0.06473040580749512,
              -0.25239288806915283,
              0.21674275398254395
            ]
          ],
          "column": 5,
          "row": 2
        }
      ]
    },
    {
      "biases": [
        {
          "array": [
            [-0.09807682037353516],
            [0.12025666236877441],
            [0.48339200019836426],
            [0.6695834398269653],
            [0.9980995059013367]
          ],
          "column": 1,
          "row": 5
        },
        {
          "array": [
            [0.9341989755630493],
            [0.387518048286438]
          ],
          "column": 1,
          "row": 2
        }
      ],
      "weights": [
        {
          "array": [
            [
              -0.43916189670562744,
              0.40456485748291016,
              0.3053436279296875,
              0.34022271633148193,
              -0.0048716068267822266
            ],
            [
              0.6045677661895752,
              0.8579715490341187,
              0.31459808349609375,
              -0.6936233043670654,
              -0.8297840356826782
            ],
            [
              0.2409048080444336,
              0.3164346218109131,
              0.37062573432922363,
              0.7181130647659302,
              -0.06678879261016846
            ],
            [
              0.544237494468689,
              -0.5272444486618042,
              0.4680079519748688,
              0.9160937070846558,
              0.056145865470170975
            ],
            [
              0.0075169214978814125,
              0.6151976585388184,
              -0.7672711610794067,
              0.4606438875198364,
              -0.8231301307678223
            ]
          ],
          "column": 5,
          "row": 5
        },
        {
          "array": [
            [
              -0.5215009450912476,
              0.24399471282958984,
              -0.6096643209457397,
              0.09022259712219238,
              0.999180257320404
            ],
            [
              0.5145699977874756,
              -0.15019047260284424,
              0.06473040580749512,
              -0.25239288806915283,
              0.21674275398254395
            ]
          ],
          "column": 5,
          "row": 2
        }
      ]
    },
    {
      "biases": [
        {
          "array": [
            [-0.09807682037353516],
            [0.12025666236877441],
            [0.48339200019836426],
            [0.6695834398269653],
            [0.9980995059013367]
          ],
          "column": 1,
          "row": 5
        },
        {
          "array": [
            [0.9341989755630493],
            [0.387518048286438]
          ],
          "column": 1,
          "row": 2
        }
      ],
      "weights": [
        {
          "array": [
            [
              -0.43916189670562744,
              0.40456485748291016,
              0.3053436279296875,
              0.34022271633148193,
              -0.0048716068267822266
            ],
            [
              0.6045677661895752,
              0.8579715490341187,
              0.31459808349609375,
              -0.6936233043670654,
              -0.8297840356826782
            ],
            [
              0.2409048080444336,
              0.3164346218109131,
              0.37062573432922363,
              0.7181130647659302,
              -0.06678879261016846
            ],
            [
              0.544237494468689,
              -0.5272444486618042,
              0.4680079519748688,
              0.9160937070846558,
              0.056145865470170975
            ],
            [
              -0.2933105230331421,
              0.6151976585388184,
              -0.7672711610794067,
              0.4606438875198364,
              -0.8231301307678223
            ]
          ],
          "column": 5,
          "row": 5
        },
        {
          "array": [
            [
              -0.5215009450912476,
              0.24399471282958984,
              -0.6096643209457397,
              0.09022259712219238,
              0.999180257320404
            ],
            [
              0.5145699977874756,
              -0.15019047260284424,
              0.06473040580749512,
              -0.25239288806915283,
              0.21674275398254395
            ]
          ],
          "column": 5,
          "row": 2
        }
      ]
    },
    {
      "biases": [
        {
          "array": [
            [-0.09807682037353516],
            [0.12025666236877441],
            [0.48339200019836426],
            [0.6695834398269653],
            [0.9980995059013367]
          ],
          "column": 1,
          "row": 5
        },
        {
          "array": [
            [0.9341989755630493],
            [0.387518048286438]
          ],
          "column": 1,
          "row": 2
        }
      ],
      "weights": [
        {
          "array": [
            [
              -0.43916189670562744,
              0.40456485748291016,
              0.3053436279296875,
              0.34022271633148193,
              -0.0048716068267822266
            ],
            [
              0.6045677661895752,
              0.8579715490341187,
              0.31459808349609375,
              -0.6936233043670654,
              -0.8297840356826782
            ],
            [
              0.2409048080444336,
              0.3164346218109131,
              0.37062573432922363,
              0.7181130647659302,
              -0.06678879261016846
            ],
            [
              0.544237494468689,
              -0.5272444486618042,
              0.4680079519748688,
              0.9160937070846558,
              0.056145865470170975
            ],
            [
              -0.2933105230331421,
              0.6151976585388184,
              -0.7672711610794067,
              0.4606438875198364,
              -0.8231301307678223
            ]
          ],
          "column": 5,
          "row": 5
        },
        {
          "array": [
            [
              -0.5215009450912476,
              0.24399471282958984,
              -0.6096643209457397,
              0.09022259712219238,
              0.999180257320404
            ],
            [
              0.5145699977874756,
              -0.15019047260284424,
              0.06473040580749512,
              -0.25239288806915283,
              0.21674275398254395
            ]
          ],
          "column": 5,
          "row": 2
        }
      ]
    },
    {
      "biases": [
        {
          "array": [
            [-0.09807682037353516],
            [0.12025666236877441],
            [0.48339200019836426],
            [0.6695834398269653],
            [0.9980995059013367]
          ],
          "column": 1,
          "row": 5
        },
        {
          "array": [
            [0.9341989755630493],
            [0.387518048286438]
          ],
          "column": 1,
          "row": 2
        }
      ],
      "weights": [
        {
          "array": [
            [
              -0.43916189670562744,
              0.40456485748291016,
              0.3053436279296875,
              0.34022271633148193,
              -0.0048716068267822266
            ],
            [
              0.6045677661895752,
              0.8579715490341187,
              0.31459808349609375,
              -0.6936233043670654,
              -0.8297840356826782
            ],
            [
              0.2409048080444336,
              0.3164346218109131,
              0.37062573432922363,
              0.7181130647659302,
              -0.06678879261016846
            ],
            [
              0.544237494468689,
              -0.5272444486618042,
              0.4680079519748688,
              0.9160937070846558,
              0.056145865470170975
            ],
            [
              -0.2933105230331421,
              0.6151976585388184,
              -0.7672711610794067,
              0.4606438875198364,
              -0.8231301307678223
            ]
          ],
          "column": 5,
          "row": 5
        },
        {
          "array": [
            [
              -0.5215009450912476,
              0.24399471282958984,
              -0.6096643209457397,
              0.09022259712219238,
              0.999180257320404
            ],
            [
              0.5145699977874756,
              -0.15019047260284424,
              0.06473040580749512,
              -0.25239288806915283,
              0.21674275398254395
            ]
          ],
          "column": 5,
          "row": 2
        }
      ]
    },
    {
      "biases": [
        {
          "array": [
            [-0.09807682037353516],
            [0.12025666236877441],
            [0.48339200019836426],
            [0.6695834398269653],
            [0.9980995059013367]
          ],
          "column": 1,
          "row": 5
        },
        {
          "array": [
            [0.9341989755630493],
            [0.387518048286438]
          ],
          "column": 1,
          "row": 2
        }
      ],
      "weights": [
        {
          "array": [
            [
              -0.43916189670562744,
              0.40456485748291016,
              0.3053436279296875,
              0.34022271633148193,
              -0.0048716068267822266
            ],
            [
              0.6045677661895752,
              0.8579715490341187,
              0.31459808349609375,
              -0.6936233043670654,
              -0.8297840356826782
            ],
            [
              0.2409048080444336,
              0.3164346218109131,
              0.37062573432922363,
              0.7181130647659302,
              -0.06678879261016846
            ],
            [
              0.544237494468689,
              -0.5272444486618042,
              0.4680079519748688,
              0.9160937070846558,
              0.056145865470170975
            ],
            [
              -0.2933105230331421,
              0.6151976585388184,
              -0.7672711610794067,
              0.4606438875198364,
              -0.8231301307678223
            ]
          ],
          "column": 5,
          "row": 5
        },
        {
          "array": [
            [
              -0.5215009450912476,
              0.24399471282958984,
              -0.6096643209457397,
              0.09022259712219238,
              0.999180257320404
            ],
            [
              0.5145699977874756,
              -0.15019047260284424,
              0.06473040580749512,
              -0.25239288806915283,
              0.21674275398254395
            ]
          ],
          "column": 5,
          "row": 2
        }
      ]
    },
    {
      "biases": [
        {
          "array": [
            [-0.09807682037353516],
            [0.12025666236877441],
            [0.48339200019836426],
            [0.6695834398269653],
            [0.9980995059013367]
          ],
          "column": 1,
          "row": 5
        },
        {
          "array": [
            [0.9341989755630493],
            [0.387518048286438]
          ],
          "column": 1,
          "row": 2
        }
      ],
      "weights": [
        {
          "array": [
            [
              -0.43916189670562744,
              0.40456485748291016,
              0.3053436279296875,
              0.34022271633148193,
              -0.0048716068267822266
            ],
            [
              0.6045677661895752,
              0.8579715490341187,
              0.31459808349609375,
              -0.6936233043670654,
              -0.8297840356826782
            ],
            [
              0.2409048080444336,
              0.3164346218109131,
              0.37062573432922363,
              0.7181130647659302,
              -0.06678879261016846
            ],
            [
              0.544237494468689,
              -0.5272444486618042,
              0.4680079519748688,
              0.9160937070846558,
              0.056145865470170975
            ],
            [
              -0.2933105230331421,
              0.6151976585388184,
              -0.7672711610794067,
              0.4606438875198364,
              -0.8231301307678223
            ]
          ],
          "column": 5,
          "row": 5
        },
        {
          "array": [
            [
              -0.5215009450912476,
              0.24399471282958984,
              -0.6096643209457397,
              0.09022259712219238,
              0.999180257320404
            ],
            [
              0.5145699977874756,
              -0.15019047260284424,
              0.06473040580749512,
              -0.25239288806915283,
              0.21674275398254395
            ]
          ],
          "column": 5,
          "row": 2
        }
      ]
    },
    {
      "biases": [
        {
          "array": [
            [-0.09807682037353516],
            [0.12025666236877441],
            [0.48339200019836426],
            [0.6695834398269653],
            [0.9980995059013367]
          ],
          "column": 1,
          "row": 5
        },
        {
          "array": [
            [0.9341989755630493],
            [0.387518048286438]
          ],
          "column": 1,
          "row": 2
        }
      ],
      "weights": [
        {
          "array": [
            [
              -0.43916189670562744,
              0.40456485748291016,
              0.3053436279296875,
              0.34022271633148193,
              -0.0048716068267822266
            ],
            [
              0.6045677661895752,
              0.8579715490341187,
              0.31459808349609375,
              -0.6936233043670654,
              -0.8297840356826782
            ],
            [
              0.2409048080444336,
              0.3164346218109131,
              0.37062573432922363,
              0.7181130647659302,
              -0.06678879261016846
            ],
            [
              0.544237494468689,
              -0.5272444486618042,
              0.4680079519748688,
              0.9160937070846558,
              0.056145865470170975
            ],
            [
              -0.2933105230331421,
              0.6151976585388184,
              -0.7672711610794067,
              0.4606438875198364,
              -0.8231301307678223
            ]
          ],
          "column": 5,
          "row": 5
        },
        {
          "array": [
            [
              -0.5215009450912476,
              0.24399471282958984,
              -0.6096643209457397,
              0.09022259712219238,
              0.999180257320404
            ],
            [
              0.5145699977874756,
              -0.15019047260284424,
              0.06473040580749512,
              -0.25239288806915283,
              0.21674275398254395
            ]
          ],
          "column": 5,
          "row": 2
        }
      ]
    },
    {
      "biases": [
        {
          "array": [
            [-0.09807682037353516],
            [0.12025666236877441],
            [0.48339200019836426],
            [0.6695834398269653],
            [0.9980995059013367]
          ],
          "column": 1,
          "row": 5
        },
        {
          "array": [
            [0.9341989755630493],
            [0.387518048286438]
          ],
          "column": 1,
          "row": 2
        }
      ],
      "weights": [
        {
          "array": [
            [
              -0.43916189670562744,
              0.40456485748291016,
              0.3053436279296875,
              0.34022271633148193,
              -0.0048716068267822266
            ],
            [
              0.6045677661895752,
              0.8579715490341187,
              0.31459808349609375,
              -0.6936233043670654,
              -0.8297840356826782
            ],
            [
              0.2409048080444336,
              0.3164346218109131,
              0.37062573432922363,
              0.7181130647659302,
              -0.06678879261016846
            ],
            [
              0.544237494468689,
              -0.5272444486618042,
              0.4680079519748688,
              0.9160937070846558,
              0.056145865470170975
            ],
            [
              -0.2933105230331421,
              0.6151976585388184,
              -0.7672711610794067,
              0.4606438875198364,
              -0.8231301307678223
            ]
          ],
          "column": 5,
          "row": 5
        },
        {
          "array": [
            [
              -0.5215009450912476,
              0.24399471282958984,
              -0.6096643209457397,
              0.09022259712219238,
              0.999180257320404
            ],
            [
              0.5145699977874756,
              -0.15019047260284424,
              0.06473040580749512,
              -0.25239288806915283,
              0.21674275398254395
            ]
          ],
          "column": 5,
          "row": 2
        }
      ]
    },
    {
      "biases": [
        {
          "array": [
            [-0.09807682037353516],
            [0.12025666236877441],
            [0.48339200019836426],
            [0.6695834398269653],
            [0.9980995059013367]
          ],
          "column": 1,
          "row": 5
        },
        {
          "array": [
            [0.9341989755630493],
            [0.387518048286438]
          ],
          "column": 1,
          "row": 2
        }
      ],
      "weights": [
        {
          "array": [
            [
              -0.43916189670562744,
              0.40456485748291016,
              0.3053436279296875,
              0.34022271633148193,
              -0.0048716068267822266
            ],
            [
              0.6045677661895752,
              0.8579715490341187,
              0.31459808349609375,
              -0.6936233043670654,
              -0.8297840356826782
            ],
            [
              0.2409048080444336,
              0.3164346218109131,
              0.37062573432922363,
              0.7181130647659302,
              -0.06678879261016846
            ],
            [
              0.544237494468689,
              -0.5272444486618042,
              0.4680079519748688,
              0.9160937070846558,
              0.056145865470170975
            ],
            [
              -0.2933105230331421,
              0.6151976585388184,
              -0.7672711610794067,
              0.4606438875198364,
              -0.8231301307678223
            ]
          ],
          "column": 5,
          "row": 5
        },
        {
          "array": [
            [
              -0.5215009450912476,
              0.24399471282958984,
              -0.6096643209457397,
              0.09022259712219238,
              0.999180257320404
            ],
            [
              0.5145699977874756,
              -0.15019047260284424,
              0.06473040580749512,
              -0.25239288806915283,
              0.21674275398254395
            ]
          ],
          "column": 5,
          "row": 2
        }
      ]
    },
    {
      "biases": [
        {
          "array": [
            [-0.09807682037353516],
            [0.12025666236877441],
            [0.20959435403347015],
            [0.6695834398269653],
            [0.9980995059013367]
          ],
          "column": 1,
          "row": 5
        },
        {
          "array": [
            [0.9341989755630493],
            [0.387518048286438]
          ],
          "column": 1,
          "row": 2
        }
      ],
      "weights": [
        {
          "array": [
            [
              -0.43916189670562744,
              0.40456485748291016,
              0.3053436279296875,
              0.34022271633148193,
              -0.0048716068267822266
            ],
            [
              0.6045677661895752,
              0.8579715490341187,
              0.31459808349609375,
              -0.6936233043670654,
              -0.8297840356826782
            ],
            [
              0.2409048080444336,
              0.3164346218109131,
              0.37062573432922363,
              0.9428887963294983,
              -0.06678879261016846
            ],
            [
              0.544237494468689,
              -0.5272444486618042,
              -0.4816446304321289,
              0.9160937070846558,
              0.056145865470170975
            ],
            [
              -0.2933105230331421,
              0.6151976585388184,
              -0.7672711610794067,
              0.4606438875198364,
              -0.8231301307678223
            ]
          ],
          "column": 5,
          "row": 5
        },
        {
          "array": [
            [
              -0.5215009450912476,
              0.24399471282958984,
              -0.6096643209457397,
              0.09022259712219238,
              0.5471041202545166
            ],
            [
              0.5145699977874756,
              -0.15019047260284424,
              0.06473040580749512,
              -0.25239288806915283,
              0.21674275398254395
            ]
          ],
          "column": 5,
          "row": 2
        }
      ]
    },
    {
      "biases": [
        {
          "array": [
            [-0.09807682037353516],
            [0.12025666236877441],
            [0.48339200019836426],
            [0.6695834398269653],
            [0.9980995059013367]
          ],
          "column": 1,
          "row": 5
        },
        {
          "array": [
            [0.9341989755630493],
            [0.387518048286438]
          ],
          "column": 1,
          "row": 2
        }
      ],
      "weights": [
        {
          "array": [
            [
              -0.43916189670562744,
              0.40456485748291016,
              0.3053436279296875,
              0.34022271633148193,
              -0.0048716068267822266
            ],
            [
              0.6045677661895752,
              0.8579715490341187,
              0.31459808349609375,
              -0.6936233043670654,
              -0.8297840356826782
            ],
            [
              0.2409048080444336,
              0.3164346218109131,
              0.37062573432922363,
              0.7181130647659302,
              -0.06678879261016846
            ],
            [
              0.544237494468689,
              -0.5272444486618042,
              0.4680079519748688,
              0.9160937070846558,
              0.056145865470170975
            ],
            [
              0.7605147957801819,
              0.6151976585388184,
              -0.7672711610794067,
              0.4606438875198364,
              -0.8231301307678223
            ]
          ],
          "column": 5,
          "row": 5
        },
        {
          "array": [
            [
              -0.5215009450912476,
              0.24399471282958984,
              -0.6096643209457397,
              0.09022259712219238,
              0.999180257320404
            ],
            [
              0.5145699977874756,
              -0.15019047260284424,
              0.06473040580749512,
              -0.25239288806915283,
              0.21674275398254395
            ]
          ],
          "column": 5,
          "row": 2
        }
      ]
    },
    {
      "biases": [
        {
          "array": [
            [-0.09807682037353516],
            [0.12025666236877441],
            [0.48339200019836426],
            [0.6695834398269653],
            [0.9980995059013367]
          ],
          "column": 1,
          "row": 5
        },
        {
          "array": [
            [0.9341989755630493],
            [0.387518048286438]
          ],
          "column": 1,
          "row": 2
        }
      ],
      "weights": [
        {
          "array": [
            [
              -0.43916189670562744,
              0.40456485748291016,
              0.3053436279296875,
              0.34022271633148193,
              -0.0048716068267822266
            ],
            [
              0.6045677661895752,
              0.8579715490341187,
              0.31459808349609375,
              -0.6936233043670654,
              0.0041739847511053085
            ],
            [
              0.2409048080444336,
              0.3164346218109131,
              0.37062573432922363,
              0.7181130647659302,
              -0.06678879261016846
            ],
            [
              0.544237494468689,
              -0.5272444486618042,
              0.4680079519748688,
              0.9160937070846558,
              0.056145865470170975
            ],
            [
              -0.2933105230331421,
              0.6151976585388184,
              -0.7672711610794067,
              0.4606438875198364,
              -0.8231301307678223
            ]
          ],
          "column": 5,
          "row": 5
        },
        {
          "array": [
            [
              -0.5215009450912476,
              0.24399471282958984,
              -0.6096643209457397,
              0.09022259712219238,
              0.999180257320404
            ],
            [
              0.5145699977874756,
              -0.15019047260284424,
              0.06473040580749512,
              -0.25239288806915283,
              0.21674275398254395
            ]
          ],
          "column": 5,
          "row": 2
        }
      ]
    },
    {
      "biases": [
        {
          "array": [
            [-0.09807682037353516],
            [0.12025666236877441],
            [0.20959435403347015],
            [0.6695834398269653],
            [0.9980995059013367]
          ],
          "column": 1,
          "row": 5
        },
        {
          "array": [
            [0.9341989755630493],
            [0.387518048286438]
          ],
          "column": 1,
          "row": 2
        }
      ],
      "weights": [
        {
          "array": [
            [
              -0.43916189670562744,
              0.40456485748291016,
              0.3053436279296875,
              0.34022271633148193,
              -0.0048716068267822266
            ],
            [
              0.6045677661895752,
              0.8579715490341187,
              0.31459808349609375,
              -0.6936233043670654,
              -0.8297840356826782
            ],
            [
              0.2409048080444336,
              0.3164346218109131,
              0.37062573432922363,
              0.9428887963294983,
              -0.06678879261016846
            ],
            [
              0.544237494468689,
              -0.5272444486618042,
              -0.4816446304321289,
              0.9160937070846558,
              0.056145865470170975
            ],
            [
              -0.2933105230331421,
              0.6151976585388184,
              -0.7672711610794067,
              0.4606438875198364,
              -0.8231301307678223
            ]
          ],
          "column": 5,
          "row": 5
        },
        {
          "array": [
            [
              -0.5215009450912476,
              0.24399471282958984,
              -0.6096643209457397,
              0.09022259712219238,
              0.5471041202545166
            ],
            [
              0.5145699977874756,
              -0.15019047260284424,
              0.06473040580749512,
              -0.25239288806915283,
              0.21674275398254395
            ]
          ],
          "column": 5,
          "row": 2
        }
      ]
    },
    {
      "biases": [
        {
          "array": [
            [-0.09807682037353516],
            [0.12025666236877441],
            [0.48339200019836426],
            [0.6695834398269653],
            [0.9980995059013367]
          ],
          "column": 1,
          "row": 5
        },
        {
          "array": [
            [0.9341989755630493],
            [0.387518048286438]
          ],
          "column": 1,
          "row": 2
        }
      ],
      "weights": [
        {
          "array": [
            [
              -0.43916189670562744,
              0.40456485748291016,
              0.3053436279296875,
              0.34022271633148193,
              -0.0048716068267822266
            ],
            [
              0.6045677661895752,
              0.8579715490341187,
              0.31459808349609375,
              -0.6936233043670654,
              -0.8297840356826782
            ],
            [
              0.2409048080444336,
              0.3164346218109131,
              0.37062573432922363,
              0.7181130647659302,
              -0.06678879261016846
            ],
            [
              0.544237494468689,
              -0.5272444486618042,
              0.4680079519748688,
              0.9160937070846558,
              0.056145865470170975
            ],
            [
              -0.2933105230331421,
              0.6151976585388184,
              -0.7672711610794067,
              0.4606438875198364,
              -0.8231301307678223
            ]
          ],
          "column": 5,
          "row": 5
        },
        {
          "array": [
            [
              -0.5215009450912476,
              0.24399471282958984,
              -0.6096643209457397,
              0.09022259712219238,
              0.999180257320404
            ],
            [
              0.5145699977874756,
              -0.15019047260284424,
              0.06473040580749512,
              -0.25239288806915283,
              0.21674275398254395
            ]
          ],
          "column": 5,
          "row": 2
        }
      ]
    },
    {
      "biases": [
        {
          "array": [
            [-0.09807682037353516],
            [0.12025666236877441],
            [0.48339200019836426],
            [0.6695834398269653],
            [0.9980995059013367]
          ],
          "column": 1,
          "row": 5
        },
        {
          "array": [
            [0.9341989755630493],
            [0.387518048286438]
          ],
          "column": 1,
          "row": 2
        }
      ],
      "weights": [
        {
          "array": [
            [
              -0.43916189670562744,
              0.40456485748291016,
              0.3053436279296875,
              0.34022271633148193,
              -0.0048716068267822266
            ],
            [
              0.6045677661895752,
              0.8579715490341187,
              0.31459808349609375,
              -0.6936233043670654,
              -0.8297840356826782
            ],
            [
              0.2409048080444336,
              0.3164346218109131,
              0.37062573432922363,
              0.7181130647659302,
              -0.06678879261016846
            ],
            [
              0.544237494468689,
              -0.5272444486618042,
              0.4680079519748688,
              0.9160937070846558,
              0.056145865470170975
            ],
            [
              -0.2933105230331421,
              0.6151976585388184,
              -0.7672711610794067,
              0.4606438875198364,
              -0.8231301307678223
            ]
          ],
          "column": 5,
          "row": 5
        },
        {
          "array": [
            [
              -0.5215009450912476,
              0.24399471282958984,
              -0.6096643209457397,
              0.09022259712219238,
              0.999180257320404
            ],
            [
              0.5145699977874756,
              0.006827749777585268,
              0.06473040580749512,
              -0.25239288806915283,
              0.21674275398254395
            ]
          ],
          "column": 5,
          "row": 2
        }
      ]
    },
    {
      "biases": [
        {
          "array": [
            [-0.09807682037353516],
            [0.12025666236877441],
            [0.20959435403347015],
            [0.6695834398269653],
            [0.9980995059013367]
          ],
          "column": 1,
          "row": 5
        },
        {
          "array": [
            [0.9341989755630493],
            [0.387518048286438]
          ],
          "column": 1,
          "row": 2
        }
      ],
      "weights": [
        {
          "array": [
            [
              -0.43916189670562744,
              0.40456485748291016,
              0.3053436279296875,
              0.34022271633148193,
              -0.0048716068267822266
            ],
            [
              0.6045677661895752,
              0.8579715490341187,
              0.31459808349609375,
              -0.6936233043670654,
              -0.8297840356826782
            ],
            [
              0.2409048080444336,
              0.3164346218109131,
              0.37062573432922363,
              0.9428887963294983,
              -0.06678879261016846
            ],
            [
              0.544237494468689,
              -0.5272444486618042,
              -0.4816446304321289,
              0.9160937070846558,
              0.056145865470170975
            ],
            [
              -0.2933105230331421,
              0.6151976585388184,
              -0.7672711610794067,
              0.4606438875198364,
              -0.8231301307678223
            ]
          ],
          "column": 5,
          "row": 5
        },
        {
          "array": [
            [
              -0.5215009450912476,
              0.24399471282958984,
              -0.6096643209457397,
              0.09022259712219238,
              0.5471041202545166
            ],
            [
              0.5145699977874756,
              -0.15019047260284424,
              0.06473040580749512,
              -0.25239288806915283,
              0.21674275398254395
            ]
          ],
          "column": 5,
          "row": 2
        }
      ]
    },
    {
      "biases": [
        {
          "array": [
            [-0.09807682037353516],
            [0.12025666236877441],
            [0.20959435403347015],
            [0.6695834398269653],
            [0.9980995059013367]
          ],
          "column": 1,
          "row": 5
        },
        {
          "array": [
            [0.9341989755630493],
            [0.387518048286438]
          ],
          "column": 1,
          "row": 2
        }
      ],
      "weights": [
        {
          "array": [
            [
              -0.43916189670562744,
              0.40456485748291016,
              0.3053436279296875,
              0.34022271633148193,
              -0.0048716068267822266
            ],
            [
              0.6045677661895752,
              0.8579715490341187,
              0.31459808349609375,
              -0.6936233043670654,
              -0.8297840356826782
            ],
            [
              0.2409048080444336,
              0.3164346218109131,
              0.37062573432922363,
              0.9428887963294983,
              -0.06678879261016846
            ],
            [
              0.544237494468689,
              -0.5272444486618042,
              -0.4816446304321289,
              0.9160937070846558,
              0.056145865470170975
            ],
            [
              -0.2933105230331421,
              0.6151976585388184,
              -0.7672711610794067,
              0.4606438875198364,
              -0.8231301307678223
            ]
          ],
          "column": 5,
          "row": 5
        },
        {
          "array": [
            [
              -0.5215009450912476,
              0.24399471282958984,
              -0.6096643209457397,
              0.09022259712219238,
              0.5471041202545166
            ],
            [
              0.5145699977874756,
              -0.15019047260284424,
              0.06473040580749512,
              -0.25239288806915283,
              0.21674275398254395
            ]
          ],
          "column": 5,
          "row": 2
        }
      ]
    },
    {
      "biases": [
        {
          "array": [
            [-0.09807682037353516],
            [0.12025666236877441],
            [0.48339200019836426],
            [0.6695834398269653],
            [0.9980995059013367]
          ],
          "column": 1,
          "row": 5
        },
        {
          "array": [
            [0.9341989755630493],
            [0.387518048286438]
          ],
          "column": 1,
          "row": 2
        }
      ],
      "weights": [
        {
          "array": [
            [
              -0.43916189670562744,
              0.40456485748291016,
              0.3053436279296875,
              0.34022271633148193,
              -0.0048716068267822266
            ],
            [
              0.6045677661895752,
              0.8579715490341187,
              0.31459808349609375,
              -0.6936233043670654,
              -0.8297840356826782
            ],
            [
              0.2409048080444336,
              0.3164346218109131,
              0.37062573432922363,
              0.7181130647659302,
              -0.06678879261016846
            ],
            [
              0.544237494468689,
              -0.5272444486618042,
              0.4680079519748688,
              0.9160937070846558,
              0.056145865470170975
            ],
            [
              -0.2933105230331421,
              0.6151976585388184,
              -0.7672711610794067,
              0.4606438875198364,
              -0.8231301307678223
            ]
          ],
          "column": 5,
          "row": 5
        },
        {
          "array": [
            [
              -0.5215009450912476,
              0.24399471282958984,
              -0.6096643209457397,
              0.09022259712219238,
              0.999180257320404
            ],
            [
              0.5145699977874756,
              -0.15019047260284424,
              0.06473040580749512,
              -0.25239288806915283,
              0.21674275398254395
            ]
          ],
          "column": 5,
          "row": 2
        }
      ]
    },
    {
      "biases": [
        {
          "array": [
            [-0.09807682037353516],
            [0.12025666236877441],
            [0.48339200019836426],
            [0.6695834398269653],
            [0.9980995059013367]
          ],
          "column": 1,
          "row": 5
        },
        {
          "array": [
            [0.9341989755630493],
            [0.387518048286438]
          ],
          "column": 1,
          "row": 2
        }
      ],
      "weights": [
        {
          "array": [
            [
              -0.43916189670562744,
              0.40456485748291016,
              0.3053436279296875,
              0.34022271633148193,
              -0.0048716068267822266
            ],
            [
              0.6045677661895752,
              0.8579715490341187,
              0.31459808349609375,
              -0.6936233043670654,
              -0.8297840356826782
            ],
            [
              0.2409048080444336,
              0.3164346218109131,
              0.37062573432922363,
              0.7181130647659302,
              -0.06678879261016846
            ],
            [
              0.544237494468689,
              -0.5272444486618042,
              0.4680079519748688,
              0.9160937070846558,
              0.056145865470170975
            ],
            [
              -0.2933105230331421,
              0.6151976585388184,
              -0.7672711610794067,
              0.4606438875198364,
              -0.8231301307678223
            ]
          ],
          "column": 5,
          "row": 5
        },
        {
          "array": [
            [
              -0.5215009450912476,
              0.24399471282958984,
              -0.6096643209457397,
              0.09022259712219238,
              0.999180257320404
            ],
            [
              0.5145699977874756,
              -0.15019047260284424,
              0.06473040580749512,
              -0.25239288806915283,
              0.21674275398254395
            ]
          ],
          "column": 5,
          "row": 2
        }
      ]
    },
    {
      "biases": [
        {
          "array": [
            [-0.09807682037353516],
            [0.12025666236877441],
            [0.48339200019836426],
            [0.6695834398269653],
            [0.9980995059013367]
          ],
          "column": 1,
          "row": 5
        },
        {
          "array": [
            [0.9341989755630493],
            [0.387518048286438]
          ],
          "column": 1,
          "row": 2
        }
      ],
      "weights": [
        {
          "array": [
            [
              -0.43916189670562744,
              0.40456485748291016,
              0.3053436279296875,
              0.34022271633148193,
              -0.0048716068267822266
            ],
            [
              0.6045677661895752,
              0.8579715490341187,
              0.31459808349609375,
              -0.6936233043670654,
              -0.8297840356826782
            ],
            [
              0.2409048080444336,
              0.3164346218109131,
              0.37062573432922363,
